{"layer_keys":["layer_0","layer_1","layer_2"],"layers":{"layer_0":{"weights":[{"0":-0.18493702209144475,"1":0.051959269033862956,"2":-0.2436556553760784,"3":0.16271999058788697,"4":-0.027246348976014547,"5":-0.17514696233521718,"6":0.25187994899878013,"7":0.4595137720096395,"8":0.12296283565612355,"9":0.23369065731963035,"10":0.43135252477220604,"11":-0.03794702408068822,"12":0.5029414197319332,"13":-0.2081095652379379,"14":-0.7795727376130639,"15":0.3131298753753097,"16":0.3115668377186117,"17":0.25770225563487986,"18":0.4540154019973374,"19":-0.46435176119495636,"20":0.7623401808445962,"21":-0.5271002839149856,"22":-0.4964098495962251,"23":-0.3016259218556093,"24":-0.8994113266355551,"25":0.08740068484476606,"26":0.6112424577106279,"27":-0.7238412976891602,"28":-0.4004547941703584,"29":0.8761730897822011,"30":-0.20739798924541353,"31":0.032702913551965945},{"0":-0.580555717524466,"1":0.4433646289200417,"2":0.04161716265487625,"3":-0.3172294097366515,"4":0.44009552373548066,"5":0.07771763835210477,"6":-0.9425560915919888,"7":-0.848602386394123,"8":0.20181359158460044,"9":0.03770901113641756,"10":0.08154406348567322,"11":-0.09349763889649854,"12":0.0591829958556791,"13":0.8509578997882814,"14":-0.8263281609191084,"15":-0.46798855177486853,"16":-0.0788135157952925,"17":-0.6974997303557307,"18":-0.15004891194167103,"19":0.13729974243430476,"20":-0.1417616451998871,"21":0.5411084229517207,"22":-0.8398879199264355,"23":0.11524829267584602,"24":-0.16014505806775015,"25":-0.7961621290633034,"26":-0.5071095689192151,"27":0.9455849789398529,"28":0.07518060458827636,"29":-0.6704677690529768,"30":-0.6305242655973462,"31":-0.8138732735828116},{"0":0.5488064422276646,"1":0.1327921997412318,"2":0.7544123440188955,"3":-0.35371753309080756,"4":-0.7106262229950033,"5":0.38532323285902503,"6":0.9717310445615004,"7":0.17868753888237565,"8":-0.1771883927894451,"9":-0.9837200663902541,"10":-0.7934173483302982,"11":-0.13450110827171002,"12":-0.3912300529557311,"13":-0.390404361170372,"14":-0.6658174608113385,"15":0.7353216957943056,"16":0.5337186311731599,"17":-0.35966794590952755,"18":-0.8818083754515698,"19":0.7212263369275971,"20":0.5104603936467753,"21":0.7535848593782988,"22":0.8757981818399232,"23":-0.040639301168816644,"24":0.4754395988311786,"25":0.056581081040563586,"26":-0.06672971270649519,"27":0.38544398649959,"28":0.29605421775394625,"29":0.3207408764761124,"30":-0.29239908747787124,"31":0.4225788764153222},{"0":-0.583136355628,"1":0.18937041931284604,"2":-0.6372166843740095,"3":-0.37395765777691503,"4":-0.7579442554048055,"5":-0.5084835438040542,"6":-0.88108821291376,"7":0.9372195658664544,"8":-0.9081761957538332,"9":-0.11529265620527829,"10":0.2782969115139644,"11":-0.6156041886910648,"12":0.9412900012126211,"13":0.2457683889474982,"14":0.705193695883688,"15":0.5732313510128559,"16":-0.9363744005366939,"17":0.5658798302389343,"18":0.011397184102700741,"19":-0.7586020603859742,"20":-0.9753299683962546,"21":0.23979437677133486,"22":-0.14014841282134416,"23":-0.09898101918623148,"24":-0.5579757338300042,"25":0.006490896529657952,"26":-0.23075727167397408,"27":-0.5214112104142883,"28":-0.44688007797089346,"29":0.17741273085834308,"30":-0.01583083206425817,"31":0.8931606049858236},{"0":-0.5870697273956429,"1":-0.4756842769473235,"2":0.9001377867013765,"3":-0.4236311969094153,"4":-0.36198355690026673,"5":-0.1590446347523926,"6":-0.6893701275828894,"7":-0.816863213578638,"8":-0.6892153998326624,"9":0.8368310589997274,"10":-0.373609635078922,"11":-0.3464408138851409,"12":0.1319593372112151,"13":0.8501115288374472,"14":-0.8655773578192978,"15":0.7489855608220379,"16":-0.4368132287749118,"17":-0.29452948503303666,"18":-0.633046332157309,"19":0.5604638336587984,"20":-0.3069959413796979,"21":-0.8668151963306552,"22":0.8147503453726852,"23":-0.8029816444537943,"24":0.08485281060832195,"25":-0.32118445166012455,"26":0.047711217907160375,"27":-0.7229628678849096,"28":-0.3501811118202909,"29":-0.06852053908300748,"30":0.6190938755521262,"31":-0.7797535320656461},{"0":-0.26075572467339964,"1":-0.6879595561033819,"2":-0.7859341888937884,"3":0.9819387594325474,"4":0.8982732975623405,"5":-0.3774614012355411,"6":0.07391565224624783,"7":0.8906521660951838,"8":-0.6180807608019697,"9":0.7415710959976803,"10":0.43319457197559436,"11":-0.9430585338676423,"12":-0.19056230699469193,"13":0.7728301609830553,"14":-0.8232933162614121,"15":-0.9729541972609116,"16":-0.8147786814650799,"17":-0.8590309457972977,"18":-0.35262147699365215,"19":0.2823096314846324,"20":-0.15631091863019617,"21":0.7603637858369088,"22":-0.5011106861021313,"23":-0.7282309689445784,"24":-0.44718927526381774,"25":-0.9523081429282519,"26":-0.9113399061554309,"27":0.8777252856782919,"28":0.4038994020719359,"29":0.08909148286548213,"30":-0.4650716096732228,"31":0.0941639977559231},{"0":-0.5444525365025807,"1":-0.3971615434816664,"2":0.6551201934823505,"3":0.6787921237532862,"4":0.7953378766314229,"5":0.7523370293059977,"6":-0.16113733928048996,"7":0.4556580056229885,"8":0.8552296822184042,"9":-0.8103353218536601,"10":0.339074882206184,"11":0.81002319810903,"12":0.4979312277341493,"13":-0.7589058834657876,"14":0.9667320250675469,"15":0.11379050664629865,"16":-0.4111410788846688,"17":0.15536458337972947,"18":0.6591142799998495,"19":-0.5295959369115785,"20":-0.28989936997790544,"21":-0.5542553644079788,"22":0.8679822990584429,"23":-0.9423259180613061,"24":0.6011980116211577,"25":-0.3284358195052042,"26":-0.2298828009839964,"27":-0.8214094794681844,"28":-0.14337872336581978,"29":-0.23525634250155655,"30":0.10687313605652757,"31":0.9703814768173811},{"0":-0.4571008423204076,"1":0.95613913639313,"2":-0.2324112598282585,"3":-0.15160675076637994,"4":0.09952406719713389,"5":-0.6619880780263255,"6":0.6555534988858203,"7":0.25408242549081833,"8":-0.996221489974939,"9":0.8993651865336094,"10":-0.6755846785711583,"11":-0.9117827539002146,"12":0.7477887925726889,"13":0.5250238196882738,"14":-0.7053734357810542,"15":-0.3395297017948876,"16":0.600157640431141,"17":-0.6117602317260117,"18":0.1602661939371859,"19":-0.12281284742020486,"20":-0.7199546094434394,"21":0.09588843104133095,"22":0.5575810415899746,"23":-0.5865808523077687,"24":0.2526308361603312,"25":-0.6191931663976631,"26":0.45256367975675355,"27":0.5566466069470111,"28":-0.4965490736862878,"29":-0.8215120926741005,"30":0.6548427145351801,"31":0.9936114969755214},{"0":0.38782097364880797,"1":0.448684607317875,"2":0.19906103031122543,"3":0.2523465376862198,"4":0.771946448545565,"5":0.4144646305324299,"6":-0.2627432828316946,"7":-0.49601373206570437,"8":-0.573360085442775,"9":-0.4915051702202015,"10":-0.45662352283518215,"11":-0.47777218898392215,"12":0.4121427836550911,"13":0.9530116236230456,"14":0.46664246433789186,"15":-0.8854096058602154,"16":0.5494658984822551,"17":-0.604394716152189,"18":-0.537847157047274,"19":0.40295465730612057,"20":0.35331892211858074,"21":0.8265014691905072,"22":0.9225638742087746,"23":-0.4080246720439486,"24":-0.23219336945126215,"25":-0.8246535338775657,"26":0.15452020701904964,"27":0.4477275023899603,"28":0.8134433958254021,"29":-0.6427402495828849,"30":-0.0925077678102317,"31":0.0706387721862616},{"0":-0.6242616103950165,"1":0.22941376564186272,"2":0.09451022557755111,"3":0.17594005606600102,"4":0.6222947891862415,"5":0.9768457970415155,"6":0.122389481910113,"7":0.3865381201513438,"8":-0.01768071989780037,"9":-0.02826767963042735,"10":-0.5818031347781256,"11":-0.729038955202047,"12":0.741222692756406,"13":0.8545099319382299,"14":0.046532993714147236,"15":-0.8951402891946556,"16":-0.12538933201099292,"17":0.023932285966172324,"18":0.12614728035714257,"19":-0.9689941129417305,"20":-0.2365193351291803,"21":-0.3318816961147666,"22":0.8857265338167609,"23":-0.8074148426341216,"24":-0.12293467532742354,"25":-0.3309411478654729,"26":-0.4006319497229011,"27":0.193663754708876,"28":0.3661864187685825,"29":0.1934627837951321,"30":0.25695491426986966,"31":0.6520188765940598},{"0":-0.8559375289686119,"1":-0.18714193847661523,"2":0.1093035902426494,"3":-0.9788425354348292,"4":-0.40748327846888416,"5":0.8650918422678794,"6":0.7272457601565464,"7":0.054633808829577704,"8":-0.3124823383622592,"9":-0.34349551447723126,"10":-0.04086499296895251,"11":-0.6927354017430465,"12":-0.4495499371579767,"13":-0.6525456390144716,"14":0.8020143411293972,"15":-0.6494403783160715,"16":-0.6401461179461468,"17":0.5941342879327738,"18":0.7289945873086067,"19":0.14289147583581466,"20":-0.8035860079305036,"21":-0.2997132268183301,"22":-0.1580311053998123,"23":0.9514586260332046,"24":-0.3850139759618576,"25":-0.5962522456145203,"26":-0.4793792173915235,"27":0.25043983510791545,"28":-0.44379832457609003,"29":0.08868454996604938,"30":-0.4833843938001597,"31":0.796267805891644},{"0":-0.8998323171763009,"1":-0.9407819925073666,"2":0.7022865510191951,"3":-0.5936657765788317,"4":-0.1486117464414077,"5":-0.9481051731952403,"6":-0.1066981098072495,"7":-0.025850764863629902,"8":0.9408805887493583,"9":-0.5905431965919734,"10":-0.18186237851536718,"11":-0.23691537818034936,"12":-0.39491098120895496,"13":0.14956182592994244,"14":-0.05472429081596263,"15":-0.45367759304232047,"16":0.3836520772988541,"17":-0.39975902137000674,"18":-0.9353536059244938,"19":0.95322391120551,"20":-0.4032592794138728,"21":0.35396292572731164,"22":0.2262280237934933,"23":0.9203666695128195,"24":-0.5991393058508712,"25":0.3304992451938669,"26":-0.4708013328180427,"27":0.16486739846913365,"28":-0.023333965026218827,"29":-0.13071764438215497,"30":0.8883322999024522,"31":-0.525958987334725},{"0":0.30653891324894117,"1":0.12695563286548348,"2":0.5798373119683834,"3":0.04376612897179135,"4":-0.1451457389107789,"5":-0.5586596492612964,"6":0.5718136151302746,"7":-0.7986407668448438,"8":-0.47413747846466975,"9":-0.5435003412478475,"10":0.045899964589101276,"11":-0.8138739666370093,"12":-0.266926459711187,"13":0.4767373463187819,"14":-0.7390820083409576,"15":-0.09009208279420741,"16":0.3494911778520142,"17":-0.2578687878424834,"18":0.7127389539296023,"19":-0.06533173318364398,"20":0.323736255249538,"21":-0.23735597450976098,"22":0.43222129582483926,"23":-0.5433019832338843,"24":-0.0011185461311993957,"25":0.5770294234200082,"26":0.08753874697438728,"27":0.6455805770011436,"28":-0.7606638866719463,"29":-0.7892325802440873,"30":-0.01302629828081447,"31":0.5555179560639643},{"0":-0.5554842256074443,"1":-0.8950665132651617,"2":0.28080358380712833,"3":0.4040469571669659,"4":-0.023798271371411103,"5":-0.9318243225704186,"6":0.5216231977261546,"7":0.5930942178596329,"8":0.3582537771151449,"9":0.6785312449605118,"10":0.26966513742354203,"11":0.7555018441713856,"12":-0.7547286052804,"13":0.3674158216256227,"14":0.36678889426267847,"15":-0.2020508430679151,"16":-0.8047075882778861,"17":-0.40363203260644387,"18":-0.2004041781677267,"19":-0.645071465205693,"20":-0.9652033273693711,"21":0.1544641556520092,"22":0.47226958455317475,"23":-0.6776089920625894,"24":-0.40656944565836034,"25":-0.8729166711513366,"26":0.37401860592765773,"27":-0.32120434539708614,"28":0.5446237720805687,"29":0.9758872485329932,"30":0.7415229193587589,"31":0.9407249592294368},{"0":-0.7683285510657777,"1":-0.9749577121612286,"2":0.6399871970853227,"3":0.7812027821132017,"4":-0.7912662393658219,"5":0.06350169909378094,"6":0.7528290903607062,"7":-0.32940518440336775,"8":0.4436586568485006,"9":0.5929939881964345,"10":0.5021194082903484,"11":-0.1186311448438503,"12":-0.29786101044614705,"13":0.5850507275562051,"14":0.38276175422604675,"15":0.8590979503463115,"16":0.953886829520713,"17":-0.7459703372857814,"18":-0.7883513518588137,"19":0.4672876703825397,"20":0.758605848695373,"21":0.046285201273361616,"22":-0.2138310318725101,"23":0.52796523371317,"24":-0.3226229713370155,"25":0.5289590610067509,"26":0.9461000333490738,"27":-0.8862455777946058,"28":-0.1912808622651946,"29":-0.7461628672962827,"30":0.12861813028477306,"31":0.3279867696579116},{"0":0.9129811272788202,"1":0.9243112882578784,"2":-0.7344195655162763,"3":-0.528166190920478,"4":0.056471276972599384,"5":-0.45973968823724354,"6":-0.5095827398770901,"7":0.5748091018341334,"8":0.5102071013400907,"9":-0.7162616066474353,"10":-0.14604685488979047,"11":0.09438647144557248,"12":0.4537327451563468,"13":0.7742925765360639,"14":-0.7633005166587385,"15":-0.17630403601219388,"16":0.04133329384954785,"17":0.4111357514643598,"18":-0.7185896826518303,"19":-0.7631412927641235,"20":-0.32700230625098153,"21":-0.8943164816799888,"22":-0.1631244372422298,"23":0.08697387965489073,"24":0.27576026593732095,"25":0.5897204872014519,"26":0.9088144154128401,"27":0.9414558554055249,"28":0.42246956292795873,"29":0.04615778139794343,"30":-0.4516825202918692,"31":0.9855765600804005},{"0":-0.848222742325105,"1":-0.46511134597764886,"2":-0.6228422294117778,"3":0.5310035035553144,"4":0.26720833004242517,"5":0.4907847187432441,"6":0.5525009648906196,"7":0.8058167587046244,"8":-0.8161776034052943,"9":0.8992975869317477,"10":-0.3353392993843564,"11":-0.02074093632728365,"12":0.8157184722348132,"13":0.4815133701957777,"14":0.8071351414030511,"15":-0.049013659707796975,"16":-0.1937005770791457,"17":0.902628490749306,"18":0.18914287821479925,"19":0.49923207169556943,"20":-0.38290956667487247,"21":0.2817362213459091,"22":0.24254091432720404,"23":0.6907305268902817,"24":-0.41346191901767465,"25":-0.01322669669822813,"26":0.4906736936331334,"27":0.5317588187445669,"28":-0.26670074146205913,"29":0.8968110231071539,"30":0.6274706067195076,"31":-0.48790025703998985},{"0":0.6824402560602211,"1":-0.00809046477797678,"2":-0.8667112882410232,"3":-0.7921476092582186,"4":0.6446945294339286,"5":-0.11770322188735302,"6":0.5816067917528466,"7":-0.13827225921312608,"8":0.16137581430297013,"9":-0.2724892653479552,"10":-0.0572494398127381,"11":-0.9322993954916592,"12":-0.25479453675561353,"13":-0.7768961477575271,"14":0.9106948992922008,"15":-0.016829668261887063,"16":0.9365156344202025,"17":-0.11714564987629736,"18":-0.18679167055395782,"19":0.6491931992724096,"20":-0.5573705399351195,"21":0.6531951131702621,"22":-0.8729158262368801,"23":-0.5780813833485254,"24":0.7780730127988144,"25":-0.6985488788626839,"26":-0.7246560894947467,"27":-0.3108593575243416,"28":0.06992481196011946,"29":-0.7050247619234691,"30":-0.7348523263858706,"31":0.5618503689568584},{"0":-0.5399313656019383,"1":0.6777588593455806,"2":0.9062662235122001,"3":-0.20730723409921073,"4":0.028071603902420406,"5":0.898873549938287,"6":0.342465727000155,"7":-0.480343303659714,"8":-0.8637169187175162,"9":0.2865983963044467,"10":0.46257181223593635,"11":0.1373428999108734,"12":0.27282594932146237,"13":0.8054698436442158,"14":-0.8762138789891071,"15":0.45316228182873464,"16":-0.946428043751269,"17":-0.47301923743338575,"18":-0.1397952504385495,"19":-0.7026567467967707,"20":-0.026946977904193946,"21":0.591724234353678,"22":0.8432507648742824,"23":0.37423479091903894,"24":0.17545451912036483,"25":-0.31630643375021905,"26":-0.8406800137271975,"27":-0.4719386542878529,"28":0.49159942678489416,"29":0.4093167811222417,"30":-0.13010286306173516,"31":-0.7611205116018434},{"0":0.8666763594832406,"1":0.14987035222613573,"2":-0.7188955588799176,"3":-0.9512811750976767,"4":0.8194800224275692,"5":0.25361459907818995,"6":-0.013167559303638547,"7":-0.9610145541197604,"8":0.8351177385721058,"9":0.13063704812942126,"10":-0.8220652358314098,"11":-0.8507534987530827,"12":-0.6662454837565301,"13":0.12106643555044304,"14":0.9868459337866134,"15":-0.33184984362090864,"16":-0.8616049759096704,"17":-0.7058322766032983,"18":0.5026093983933508,"19":-0.3482901784788375,"20":0.6182305659046358,"21":0.9185240028970215,"22":0.4018828986191785,"23":-0.3808997834239851,"24":-0.10530156554917347,"25":-0.46487245083786033,"26":-0.8095983622304824,"27":0.4698442926861519,"28":-0.8238363973622137,"29":0.32789350265497597,"30":-0.20736067537075112,"31":-0.8788303135632346},{"0":0.047851593688931306,"1":0.1450470581265267,"2":0.08319689977813265,"3":-0.2915756010806378,"4":-0.09854102106617812,"5":-0.2244518768522453,"6":0.10601876433844759,"7":-0.10784112051781962,"8":-0.9914651399607641,"9":-0.1737511885875571,"10":0.9369915817054779,"11":-0.6378021709801067,"12":-0.5641782118230202,"13":-0.625242286552138,"14":-0.2317738584201188,"15":0.7028897167411896,"16":0.4602364121957072,"17":-0.5230786129637679,"18":0.914816025334766,"19":-0.7402380995854927,"20":-0.6680066590386584,"21":-0.5237521224084433,"22":0.8619036117924298,"23":-0.7684747489666138,"24":0.6024654446676867,"25":-0.07244817465946354,"26":-0.6421899294324698,"27":0.05219405509552824,"28":-0.47085578543717915,"29":-0.7920519634152686,"30":-0.69827581373787,"31":-0.06344857069593844},{"0":0.7113761112966079,"1":0.06422212183357418,"2":-0.992697305771545,"3":-0.3553940449409843,"4":0.32742436702958033,"5":0.042734023677296826,"6":0.5350455301970248,"7":-0.5900304333224069,"8":-0.14896164960342423,"9":-0.2100525179834458,"10":0.18382969616163852,"11":0.47434455708889167,"12":-0.392005496088731,"13":0.991671772524785,"14":0.14051712357013085,"15":-0.25777122627520516,"16":0.6490832169265602,"17":0.6926429513022904,"18":-0.5223191933945722,"19":0.11898041929019358,"20":0.3648423471709666,"21":-0.2647469938311631,"22":0.9016440230602245,"23":-0.5464639762069659,"24":0.044098527860990125,"25":-0.9477493124942117,"26":-0.3709288003411923,"27":-0.4079156512377302,"28":0.5839435644469132,"29":-0.8074315930635422,"30":0.7464030804267422,"31":-0.006786704287847487},{"0":0.9267034594460353,"1":0.6435200066295167,"2":-0.39505207820469407,"3":-0.7619295722830767,"4":0.9682766420380473,"5":-0.09220266662557594,"6":0.06220375274190163,"7":0.9234640540084232,"8":-0.4662420047589598,"9":0.02245048168724821,"10":0.40314164565257216,"11":0.012556548805215896,"12":0.034844467907605925,"13":-0.023714190577692692,"14":0.16279122971884366,"15":-0.8597296527985759,"16":-0.9069457756560361,"17":0.3996019023808193,"18":-0.8264299375759737,"19":0.9842907393202356,"20":-0.43612464898801656,"21":-0.9840937306936358,"22":-0.5778563516705196,"23":0.6820312279475796,"24":0.7534129622233009,"25":-0.6237198535137564,"26":-0.4299861167412554,"27":0.3630217753515262,"28":0.9209989347743671,"29":0.7162595965634444,"30":0.9095013802966343,"31":-0.5658718954909799},{"0":0.10186807751340353,"1":0.6937950705128623,"2":-0.7381651637437923,"3":-0.8621479063537969,"4":-0.8632576446902196,"5":-0.7498109221955496,"6":-0.4141324983066091,"7":-0.6587142912293283,"8":0.06515313806022804,"9":0.93764907739227,"10":-0.7396524880058718,"11":0.3795934526402394,"12":0.4194055471031016,"13":-0.1681539515306512,"14":0.19527307292701404,"15":0.1447433129323528,"16":-0.9298667601393392,"17":0.7158202585928259,"18":0.5828516386966627,"19":0.8256858372114055,"20":0.7170724802536709,"21":0.2935073554277998,"22":-0.5594023750061357,"23":-0.6240797427569028,"24":0.8294255441793168,"25":-0.5077492504084714,"26":0.5539160865241571,"27":-0.5630103300982026,"28":-0.28995456513448464,"29":0.9821654669900728,"30":-0.8289255861188148,"31":-0.9450253384100405},{"0":0.002582127687928093,"1":-0.6093327311412575,"2":-0.1512906859019485,"3":-0.7781285617765423,"4":0.4405533751741584,"5":0.10423664127926324,"6":-0.10423772818509836,"7":0.20022902485862826,"8":0.20878802397295715,"9":-0.8640401191090401,"10":0.9506560437800968,"11":-0.3328536174475989,"12":-0.24974946979468715,"13":-0.9307858369388642,"14":0.8804387081407401,"15":-0.051497100827841535,"16":-0.7995625580766745,"17":-0.9682640091024193,"18":-0.08508100295105825,"19":-0.9964674847432717,"20":-0.12017321032998707,"21":0.22345588772397695,"22":-0.9730541860095321,"23":0.6397724878501294,"24":0.7492907172938619,"25":0.4876469824517189,"26":-0.6521021602523116,"27":-0.23527456535496505,"28":-0.8232475854652623,"29":-0.0768311011232341,"30":0.9949690400922262,"31":0.6375625961614024},{"0":-0.8808033154300206,"1":-0.5270040311688953,"2":0.5555627242074976,"3":0.5530753707166363,"4":-0.2906064138699951,"5":-0.07914282954631302,"6":-0.3476346763075351,"7":0.6170065185436293,"8":-0.22234368422928208,"9":-0.06346563011127815,"10":-0.6264790933132067,"11":-0.1596226210294316,"12":0.8821667923621317,"13":-0.660389259444004,"14":0.7589765141775007,"15":0.7581596778090374,"16":-0.3577169607340145,"17":-0.63205466033207,"18":0.5524994689874694,"19":0.2950902696662778,"20":-0.5363830698981249,"21":-0.0934531887915182,"22":-0.1754195328484145,"23":-0.10968198211188573,"24":-0.9119148075395946,"25":0.2244133707508582,"26":0.22116829053456577,"27":0.7669243541176662,"28":-0.8858777424389328,"29":-0.17134391644486247,"30":0.02321765427064504,"31":0.30297763476164663},{"0":0.8243400869075712,"1":-0.6494646594353655,"2":-0.5748131394455944,"3":-0.10521616765399378,"4":0.758108055151042,"5":0.6100572027207085,"6":-0.31786931277047303,"7":0.18725396571211483,"8":0.7132265827844528,"9":-0.6831263562652832,"10":0.17733344944633478,"11":-0.03084689174683719,"12":0.6060152418738802,"13":-0.5989409659182146,"14":-0.9907736779054539,"15":0.7591123164792517,"16":-0.790575985990194,"17":-0.3375623978852649,"18":0.2920048044940189,"19":0.09227430298580686,"20":0.7254762523361604,"21":-0.5450507577909542,"22":-0.6008785162640051,"23":0.7220470507222991,"24":-0.9141485937608103,"25":0.8591909961859208,"26":-0.10347495435435183,"27":-0.6785436364676558,"28":0.021413051849464626,"29":-0.5359328826960725,"30":-0.29774978736466995,"31":0.1712582031545984},{"0":-0.33159480101779737,"1":0.17041071291123888,"2":0.4209474229708614,"3":0.16424410529903488,"4":-0.9732746746748608,"5":-0.39156940993038836,"6":-0.7592446055659252,"7":0.8154672936691152,"8":-0.22386727677071017,"9":-0.22041728260066362,"10":-0.9090886011692771,"11":-0.7534421757859335,"12":0.8331165300271133,"13":-0.8505492452024663,"14":0.19649180829725577,"15":0.8742784018960617,"16":0.718680304662286,"17":-0.3171900776664045,"18":-0.4984188557994238,"19":0.32114761910193,"20":0.1099163063094375,"21":0.7939400100917959,"22":-0.6774913642669249,"23":-0.7650173131417723,"24":-0.7307858270302088,"25":0.19655696051877625,"26":0.16829876493953133,"27":0.9249927948848233,"28":0.30962318582697756,"29":0.8193868930905204,"30":-0.4870538572720382,"31":0.9649248894254394},{"0":-0.8590829141282388,"1":0.6455714057530009,"2":0.32326422053802073,"3":-0.1574778407036166,"4":0.7250979229834162,"5":0.27255203378947357,"6":0.8951693891073123,"7":-0.7268022424028429,"8":0.7434883259921583,"9":-0.4037633673160421,"10":-0.16262651204080036,"11":0.21374791500582946,"12":0.09149658286074747,"13":-0.2224964020459308,"14":0.012428620495978038,"15":-0.7419193358117782,"16":0.5555995474650479,"17":-0.788443568158534,"18":0.9230089580410574,"19":0.9027865219381281,"20":-0.3829993500174842,"21":-0.29049446466456486,"22":-0.9039942991182186,"23":0.7573241502657004,"24":-0.50963787512483,"25":-0.7325077093316827,"26":0.4370800657605325,"27":-0.33069163524217693,"28":0.8509941238036438,"29":0.12379460653155272,"30":0.7919582188303984,"31":0.9054993627403456},{"0":0.9505147776361653,"1":0.7011699266257994,"2":-0.530688498140329,"3":0.8751814567077845,"4":0.750721257181119,"5":0.6519667537722533,"6":0.19620720527494528,"7":0.4480278372872153,"8":0.4332484222871864,"9":0.25586025316565975,"10":-0.9470822648631607,"11":0.06735972929675604,"12":-0.5369327765776846,"13":0.5271903133264884,"14":-0.5994911682916753,"15":-0.4846504462779251,"16":0.6452440322692179,"17":-0.06162120821999739,"18":-0.7696901038832689,"19":-0.8188926109261714,"20":0.0036634301514437695,"21":0.5143564553024023,"22":-0.07331223115054986,"23":0.7455883996042538,"24":0.5509227360242144,"25":0.1134408930625721,"26":0.7478553277615698,"27":-0.8038379474037893,"28":0.4249559499111233,"29":-0.09098533247785223,"30":-0.9401436396024416,"31":-0.9791997807537154},{"0":0.36528265833009144,"1":-0.9483733501334877,"2":-0.16005688547302466,"3":0.9571956616042527,"4":-0.47205833849878776,"5":0.7944417862706339,"6":0.7732797310212152,"7":-0.6045729612531865,"8":-0.9006834357805733,"9":0.7559384991535221,"10":-0.29623014630613786,"11":0.9994266677926635,"12":0.659395323714616,"13":0.3778456708789215,"14":-0.24219202550818997,"15":0.011623458814679744,"16":0.3400400374271846,"17":0.9175958331083627,"18":0.029491153734338305,"19":-0.02510236717052683,"20":-0.28568324038526116,"21":0.910486656404959,"22":-0.8669644008498332,"23":0.07896338364876598,"24":0.17940331801506293,"25":0.590123377176258,"26":0.5724936912040173,"27":0.1648763640150004,"28":-0.8549234133237951,"29":-0.9940785101744116,"30":-0.0986732532712371,"31":0.8768161569282582},{"0":-0.2847631341662695,"1":-0.9971650429804106,"2":0.2678351342629379,"3":-0.07838777462990043,"4":0.11982997591970213,"5":0.03530227965257726,"6":-0.6622135332479822,"7":0.49295188545155044,"8":0.07806184687158257,"9":0.4384056469182882,"10":-0.9257056187993622,"11":-0.5373500486327503,"12":0.32145729253529964,"13":-0.7339771538359177,"14":-0.5912857656642148,"15":0.4198621845706394,"16":-0.4402146876891577,"17":0.8384213683025035,"18":0.3498163225047217,"19":-0.21876355595302366,"20":-0.21309431316168181,"21":-0.3572103185572355,"22":-0.8352093362173774,"23":-0.37807654515880085,"24":-0.23320812669775481,"25":-0.11788454900599143,"26":0.9930910894855516,"27":0.6083253046142278,"28":-0.6810912843135353,"29":-0.48053535125573266,"30":-0.11866948532195876,"31":-0.04614394097989338},{"0":-0.3697553787606127,"1":-0.5972057179475359,"2":0.45015522347066517,"3":0.7162509725829604,"4":-0.7111515339620569,"5":0.09240447405851704,"6":-0.2973933305902361,"7":0.6271159671953801,"8":-0.04256654982150243,"9":-0.41696098408585636,"10":0.779397923439312,"11":0.16074663209028817,"12":-0.11104082446663677,"13":0.39531286783989694,"14":-0.41014205588407737,"15":-0.5759985899922708,"16":0.7492851337209334,"17":-0.04075298886958345,"18":0.9698282117135242,"19":0.5241029914405191,"20":-0.33665980783255733,"21":-0.037677067504028994,"22":0.6726403179207665,"23":0.6782115660444452,"24":-0.12704791183083586,"25":-0.7343536359706815,"26":-0.6555837675345235,"27":0.18937434829439104,"28":-0.3336465643807842,"29":-0.9089181955257888,"30":0.4498686561961014,"31":-0.326168085922792},{"0":0.8272292671882431,"1":0.2217369412647714,"2":-0.4997128941683293,"3":-0.8289151698736874,"4":0.22632426870189581,"5":-0.2311525536061727,"6":-0.1499405928210793,"7":0.6938945860261763,"8":-0.25760819474138863,"9":-0.5836420779949538,"10":-0.9812504275039191,"11":0.4067486554744324,"12":0.1502719272773807,"13":0.08516876193822931,"14":-0.3870901245061953,"15":0.11322648350069953,"16":-0.3044882779539768,"17":-0.8283994770032233,"18":-0.5630286977428196,"19":-0.38442601559431955,"20":0.4252147220863547,"21":-0.1973701435103976,"22":-0.1858580774702201,"23":0.8164021735665989,"24":0.632877187135108,"25":0.909925413338676,"26":-0.6783983592745582,"27":-0.03047594307505541,"28":-0.7776209625676063,"29":0.4366497616707119,"30":-0.30863453082490055,"31":-0.08265337818965257},{"0":0.8688112085575606,"1":0.651471875428892,"2":-0.5586929282489366,"3":0.8399705892514309,"4":0.6268310581963559,"5":-0.6380390916727698,"6":0.5551100311753796,"7":0.6665583215975732,"8":0.5302934215751334,"9":-0.3273321980064141,"10":0.9727014093384283,"11":-0.7542722915065343,"12":0.87627818050135,"13":-0.23416482158257068,"14":-0.6548605579780644,"15":0.5297418962212301,"16":-0.6714392249227479,"17":0.6520543645242758,"18":0.646826069523927,"19":0.7176301129183495,"20":0.9853653825704312,"21":0.30387771420049026,"22":0.015022003241328186,"23":-0.7146658864347009,"24":-0.08611731084373764,"25":-0.6772564713016971,"26":0.5518158926442238,"27":-0.720697212796813,"28":0.34161622715942785,"29":0.052387012921812914,"30":0.5362026483520301,"31":-0.41786479150461453},{"0":0.8374228971986468,"1":0.554530240047878,"2":0.38505518761632673,"3":0.6047831916176474,"4":-0.9174562745360432,"5":0.8911915327333471,"6":0.2565285831237661,"7":-0.6461420613227515,"8":-0.48656341760477884,"9":0.23277483637717938,"10":0.6359175394884312,"11":-0.14245260641227295,"12":0.4570077782308608,"13":0.19490750173373278,"14":0.638104599106861,"15":0.8519959123086118,"16":-0.6094361569312139,"17":0.7190818212601677,"18":0.060950591283785674,"19":0.1952413512961016,"20":0.33034249677105554,"21":-0.18607201744655727,"22":0.04913824903029648,"23":0.9197648239677727,"24":0.5618381647267672,"25":-0.48321417823790425,"26":-0.7076281507009333,"27":0.2738239832819081,"28":0.26232774350675436,"29":-0.89567039925699,"30":-0.8615364466152315,"31":0.5644148297698746},{"0":0.45738890178678665,"1":-0.008885201704560784,"2":0.1719424524957391,"3":0.15268503322472415,"4":0.16692173342233202,"5":0.2973964813899413,"6":-0.5518487622654703,"7":0.887178328413222,"8":0.3460902715368269,"9":-0.02597051154357373,"10":-0.34054508328077776,"11":-0.8167868469962288,"12":0.29884419944126994,"13":-0.5697356389316774,"14":-0.21512332846528961,"15":0.7333412273149015,"16":-0.09015719447784772,"17":-0.1753818668273684,"18":-0.4770538609009004,"19":-0.4187576571692047,"20":0.6136629385162569,"21":0.6687780110817428,"22":0.9896648115638886,"23":0.9996747343469496,"24":0.252689689670017,"25":-0.173473147823144,"26":-0.4745642685568096,"27":-0.656558944482365,"28":0.7617017383756076,"29":-0.2859435022222402,"30":-0.6078174405791759,"31":0.9411289348700189},{"0":-0.40159241558202774,"1":0.6532417086888692,"2":0.8025866834230265,"3":-0.7493646248070868,"4":0.7958300305848715,"5":-0.35887387666729437,"6":0.9584584906853371,"7":0.6940140023366133,"8":-0.7721988071612019,"9":-0.35946546838426957,"10":0.057636838153290675,"11":-0.7808244662050654,"12":-0.4395673527501366,"13":-0.4154243497607374,"14":0.623887550786919,"15":0.34385555724602157,"16":-0.27676074140980145,"17":-0.922902192049604,"18":0.31359927927658965,"19":-0.14751170470867012,"20":-0.1551635776503475,"21":-0.36091996712342495,"22":-0.04406366563320536,"23":0.041075582007294734,"24":-0.9392962681733755,"25":-0.48003576553592353,"26":-0.747621556234121,"27":-0.9828847959619366,"28":-0.42006591695300316,"29":0.17116619738503883,"30":0.1827189413864107,"31":-0.6593367154647418},{"0":0.07550212650314125,"1":0.14571069213874221,"2":0.8168737871277644,"3":0.967155774752613,"4":-0.5490733404832843,"5":-0.5972345017515679,"6":-0.20456522447197792,"7":-0.09135019056440835,"8":-0.9159258742513204,"9":-0.3028146411319978,"10":0.9423829272482723,"11":0.44551121592540294,"12":-0.1495880118878196,"13":0.8037523735732959,"14":-0.4897798569092601,"15":0.12931154987954266,"16":0.35453216149216216,"17":-0.8124428960223069,"18":-0.14894197560836134,"19":0.013383745282412528,"20":0.5178840878164052,"21":0.1271440625408845,"22":-0.7131865199644623,"23":0.4513511889939372,"24":-0.22958108585336923,"25":0.221805492346503,"26":-0.26432393071293847,"27":-0.8404102000934036,"28":-0.8664946196385042,"29":0.9454296635920617,"30":-0.8887629794962366,"31":-0.6411531402596679},{"0":-0.8986846762218312,"1":-0.2641210668075559,"2":0.9353290043095541,"3":0.11707505934282506,"4":0.15197892336408478,"5":-0.7275467252771848,"6":-0.7753441354192754,"7":0.10437292275776017,"8":-0.879650776434674,"9":0.9458343148823711,"10":-0.6090161618473018,"11":0.7404637414139074,"12":0.314577188469771,"13":0.5316755854269168,"14":-0.49359251317246344,"15":0.4442763842287452,"16":-0.9054643677101797,"17":0.9919468783661668,"18":-0.17925428162498563,"19":0.7869560839291627,"20":-0.6370354984554898,"21":-0.5634193626293047,"22":-0.46649429167029977,"23":-0.10644434433055011,"24":-0.9906120508040688,"25":0.4822108044283892,"26":0.18475943851106946,"27":-0.6044781102502863,"28":-0.7291297121159723,"29":-0.6258668273872873,"30":0.19641211239575515,"31":0.06768381381204458},{"0":-0.9162286944668723,"1":-0.8608657379884805,"2":-0.10418160497700737,"3":-0.1587157139148485,"4":-0.6895507886035247,"5":0.2966118602838874,"6":-0.23986166902670986,"7":-0.49007677276466155,"8":-0.9579598784382273,"9":-0.10034459976886156,"10":-0.8082554468403086,"11":-0.6897503864181841,"12":-0.23490540983996833,"13":0.549536400883286,"14":0.5872522634803791,"15":0.015149983081503485,"16":-0.6437522887978243,"17":0.9601278643382056,"18":-0.4292897854314561,"19":-0.530327898312029,"20":0.3212035939919576,"21":-0.9153581878552592,"22":-0.07920167383584917,"23":-0.17853511333945032,"24":-0.16807173463256114,"25":-0.5797899351628694,"26":-0.34573756239233655,"27":0.9541589929472172,"28":-0.14400477789203192,"29":-0.4543490519205723,"30":0.24693236528443271,"31":0.8204685119778872},{"0":-0.8430179748177218,"1":-0.45217832898884297,"2":-0.0349773158591708,"3":-0.7991496108960937,"4":-0.009542696767197508,"5":-0.48744505033270724,"6":-0.6911882521010262,"7":-0.00894578261449733,"8":-0.8211342623107806,"9":0.23925099213273043,"10":-0.7382662536220326,"11":-0.6505857430124052,"12":0.7468486283448802,"13":-0.7515205601031699,"14":0.36338678681743397,"15":0.8638208881330037,"16":-0.6960918889961989,"17":-0.07095865218423551,"18":-0.9410434980806504,"19":0.49823675327325395,"20":-0.15591029538634305,"21":-0.8366414296094713,"22":-0.7270602301020858,"23":-0.02155771695681884,"24":0.7061674265977672,"25":0.24344358246867132,"26":-0.8922433065759169,"27":0.3804438597355218,"28":-0.06123178365470347,"29":0.333535060022061,"30":-0.7423106367911277,"31":-0.4981087249289626},{"0":-0.6995677138865302,"1":-0.8176446375362239,"2":0.9861530897882452,"3":0.18692946309806066,"4":0.8389807955388475,"5":-0.6072224632037209,"6":0.9013284936639315,"7":-0.5952878554005153,"8":0.7331551536241108,"9":-0.2225001003645916,"10":0.007375674067452642,"11":0.8574084598248236,"12":0.6956850363342476,"13":0.15771389326724647,"14":0.08894234980536408,"15":0.24231437229654101,"16":-0.045518983723796404,"17":0.12800762492870782,"18":0.12297628221376043,"19":0.09472051175259884,"20":-0.6785843259228165,"21":0.8878204605571935,"22":-0.7726119154702891,"23":0.14657911300007065,"24":-0.12911091153990126,"25":0.39812342822864566,"26":0.13402303844409555,"27":-0.6718011676721996,"28":-0.020021159779915833,"29":0.3049220485015635,"30":-0.13670433222429576,"31":0.5367592636148901},{"0":-0.6237767435060771,"1":0.9922446039218302,"2":-0.3077034536424914,"3":-0.3887434625820602,"4":-0.025551396224841563,"5":-0.9800637548942303,"6":0.09190899089274777,"7":0.7832979164280834,"8":0.9626742185850836,"9":0.11896945275116289,"10":-0.14302018875129538,"11":0.574133220594056,"12":-0.07917437572149247,"13":-0.5466660536986117,"14":0.6246441732858776,"15":0.7455194377368496,"16":0.6025058612055687,"17":-0.6355854882938933,"18":0.4930427871118659,"19":0.22390974478647088,"20":-0.5729561518977655,"21":0.6179028976427258,"22":0.3965050086859749,"23":0.5904915124143122,"24":0.5143038101668687,"25":-0.19819800911749422,"26":-0.6783483784307484,"27":0.8098685174911756,"28":0.7653035387284686,"29":0.21259702647039863,"30":0.8580795382511197,"31":-0.7675133836983834},{"0":-0.6024170065693497,"1":-0.6690333999596313,"2":-0.230124380940946,"3":0.8827390814588254,"4":0.28370516689948644,"5":-0.2583687761916223,"6":-0.7691745732626466,"7":0.924590214994767,"8":0.6537035092312007,"9":0.30736689339671974,"10":0.7623371356173596,"11":-0.03534397119102305,"12":-0.160057492389409,"13":0.7090945741929126,"14":0.5900034820670162,"15":-0.3655160212584012,"16":-0.22528840666585825,"17":0.929547946919802,"18":0.06490425064014654,"19":-0.24838394950748466,"20":-0.9246528439759172,"21":0.4798719264595597,"22":-0.47279385861685275,"23":0.9188146931597854,"24":-0.46052792037689594,"25":0.12408220833438974,"26":0.9983085852422708,"27":0.3445417857814512,"28":0.724623491511395,"29":0.8768523938184506,"30":0.9633633462908815,"31":-0.004588976178245319},{"0":-0.49857216697741435,"1":-0.5183212730305398,"2":-0.07750486245999877,"3":0.13278933921873737,"4":0.7447710575059503,"5":-0.3161175026224887,"6":0.4923718495831553,"7":0.025850396370868722,"8":0.4382859508651462,"9":0.7868957220860562,"10":-0.5318662158283862,"11":-0.23566442865237525,"12":0.39287493421541875,"13":-0.20044524427930632,"14":-0.18514877900054483,"15":-0.4136251759897571,"16":-0.2815755673578524,"17":0.6176047026770513,"18":-0.9750221746115222,"19":-0.5927972866902071,"20":0.6092126321453959,"21":-0.6282356172446355,"22":0.012447927120797786,"23":0.8153298556533279,"24":0.2863132482689683,"25":0.8644231877846948,"26":-0.5328771008279176,"27":0.9205143756581342,"28":0.7970779315765775,"29":0.2294427291913741,"30":-0.43854064073416454,"31":-0.8368030056579747},{"0":0.4844393680780432,"1":0.8287295238880139,"2":-0.23594917934353796,"3":-0.5000834180439544,"4":0.9737919383498805,"5":0.7209012586814896,"6":0.730393615345557,"7":-0.9086991217052188,"8":0.18776504503246685,"9":-0.08748776842644082,"10":0.07511232257508162,"11":0.6218778016560949,"12":-0.005365985430451576,"13":-0.2245103022990072,"14":-0.03201456804675114,"15":0.649310231847041,"16":0.9783553016477416,"17":0.4169954767420322,"18":0.40911291605560274,"19":0.04475319235186682,"20":-0.9189353311297584,"21":0.9146639557402586,"22":-0.40897521078096527,"23":-0.532194073801187,"24":0.5697416173717703,"25":-0.018583480403634008,"26":0.584686211768863,"27":0.1756891807619021,"28":0.009070734291014383,"29":-0.2864701180207626,"30":-0.564478588321734,"31":-0.37234869619806266},{"0":0.8960970101879042,"1":-0.6459425582707156,"2":0.7770521956515187,"3":-0.28413525082081453,"4":-0.8031382643734779,"5":0.06764059377617261,"6":0.7976618699721942,"7":-0.5503336676549418,"8":-0.8288758345797063,"9":0.5293955787441524,"10":0.17586557552739684,"11":0.5338564203777406,"12":-0.982921394115612,"13":-0.24672141516395873,"14":0.7324357579916951,"15":-0.8713549144042687,"16":0.6857471490539166,"17":-0.4658217547853136,"18":-0.6753068181903435,"19":-0.421071730785295,"20":0.8535856140320565,"21":-0.3919049087000014,"22":0.9538670178424579,"23":0.8366065859814954,"24":0.8081223175575207,"25":0.6748269863898926,"26":0.8490264696114304,"27":-0.5212691757132915,"28":-0.18368561528997412,"29":0.4289400708003467,"30":-0.2789772792569242,"31":-0.34044456121421063},{"0":-0.5910157743531954,"1":-0.7258145079732619,"2":-0.6211917034893997,"3":-0.6026572867108206,"4":0.1379243312673344,"5":0.9899507442506241,"6":-0.010210020815264453,"7":-0.1122591629137819,"8":0.5007471582228189,"9":-0.6802295210386031,"10":0.6415730071353587,"11":-0.8132417378114694,"12":-0.9762607152183471,"13":0.479505220014139,"14":0.9099493716527336,"15":0.44793985812939585,"16":0.21811576817797196,"17":-0.8187634446077916,"18":-0.8540023282048628,"19":0.4461562005796069,"20":0.6569195983394884,"21":0.2698275591531947,"22":-0.9616447813289586,"23":0.5110252863103497,"24":0.47230421934182454,"25":0.053446527375334174,"26":-0.09007041262639026,"27":-0.8255210174432093,"28":-0.8075777343011241,"29":-0.584619466334769,"30":-0.8259949127109363,"31":-0.2443172299941354},{"0":0.3631289406082846,"1":-0.39442264730018134,"2":-0.7595827596169599,"3":0.7381958906875656,"4":0.03306716902018447,"5":-0.11406006559326864,"6":0.4114263547431142,"7":0.2471435583687688,"8":0.5952178933958848,"9":0.8046013574389768,"10":0.32769353337397233,"11":-0.7405820845854412,"12":0.42324452946534397,"13":-0.034916277218090645,"14":0.5116753051985187,"15":-0.02770781875514322,"16":0.016578258844008376,"17":-0.8955581027357777,"18":-0.7681570380592213,"19":-0.6901063406256696,"20":-0.3971678100450638,"21":-0.33729972090849597,"22":0.6632818926143622,"23":-0.2968016808828375,"24":-0.48921058221835056,"25":-0.9846825304366121,"26":-0.771228327589368,"27":-0.6059518221084419,"28":0.3159719306199025,"29":0.680667546258008,"30":-0.9449991404786381,"31":-0.9206069111863786},{"0":0.7396691753589025,"1":-0.7943598262583761,"2":0.3151407144933435,"3":-0.5964137509620212,"4":-0.058061587271780006,"5":-0.5625689692534815,"6":-0.06914523678170938,"7":-0.0037407454143436702,"8":-0.795645245594467,"9":0.8091412764664897,"10":-0.0638386261196279,"11":0.33173614395723855,"12":0.17836893144994612,"13":0.7385196887293464,"14":-0.9244932618118531,"15":0.4980105576455813,"16":-0.6421946225974241,"17":0.2175879392729907,"18":0.5756677680954084,"19":-0.8632473315162527,"20":0.12771923140219618,"21":-0.14691604344888165,"22":0.590208633081939,"23":-0.6102735050283438,"24":0.9575660380319274,"25":0.9441101109930036,"26":0.08400297806123867,"27":-0.23519955470443257,"28":-0.6463600268850525,"29":-0.9169549615631749,"30":0.5746272825013847,"31":-0.7808735091972162},{"0":0.03796823449997078,"1":-0.16336370653100563,"2":0.7753398539093812,"3":-0.3569167009828451,"4":-0.3250336879435629,"5":-0.2273556228473308,"6":0.7304472718245809,"7":0.7007246968871379,"8":0.3019866071751669,"9":0.5887181053877448,"10":-0.0472903064867185,"11":-0.021191164964938558,"12":-0.44287961353158156,"13":0.18901697007656937,"14":0.8688903304634752,"15":0.556891605543512,"16":-0.7532290891619855,"17":0.6277866442877302,"18":0.20962174711856107,"19":0.9811760700276109,"20":-0.8221491710276507,"21":0.3303504596565947,"22":0.47176218117905977,"23":0.7969467492368145,"24":0.18060846393537755,"25":-0.030445802003345346,"26":-0.6992962830937657,"27":0.2852292050570391,"28":-0.09739662570122487,"29":-0.8735561900329283,"30":-0.49106117849044084,"31":-0.3040900155024917},{"0":-0.934547866013824,"1":-0.5149012197815424,"2":0.8732208848910443,"3":0.11666974354517867,"4":0.5228504275666093,"5":0.7156423550105568,"6":-0.11236300234687935,"7":0.5686996903361621,"8":-0.9766512553597413,"9":-0.6417339072286641,"10":-0.061139740943935816,"11":-0.49499843518075215,"12":-0.19066849435594113,"13":0.16376988943992554,"14":-0.5069933417656243,"15":-0.2888744017881937,"16":-0.22251223810433762,"17":0.6200029774292424,"18":0.18140989158154897,"19":0.3066525451303965,"20":0.17762008939568563,"21":-0.38073384881081207,"22":-0.016035880854473383,"23":0.4099119964574238,"24":0.7014022024909328,"25":0.24722026482294446,"26":0.46416830741002224,"27":0.19702142288896818,"28":-0.9563850985900935,"29":-0.8271361491534543,"30":-0.4033876956362943,"31":-0.06320448444815208},{"0":-0.8826739297302413,"1":0.5162584138765451,"2":0.40762221183415637,"3":0.25756760576025917,"4":-0.13493121193607882,"5":-0.6918518755249794,"6":0.09497684788903271,"7":-0.454979674329564,"8":-0.13662727976927203,"9":0.2951561347817657,"10":-0.8391461672002212,"11":0.555096259676402,"12":-0.13884836655822408,"13":-0.6222859384146187,"14":-0.1119615586584195,"15":0.9729334688559694,"16":0.2327804722942468,"17":0.041752312429793825,"18":-0.8473625079702805,"19":-0.37972716083162084,"20":-0.08398123674650204,"21":-0.27824463855580284,"22":-0.12683623388283305,"23":0.32185115905253836,"24":-0.2658129678746399,"25":-0.533921287032372,"26":-0.7514795124367386,"27":0.3904611073567201,"28":0.1586087294571228,"29":-0.9785842531919982,"30":0.6015063170886199,"31":0.27938471502214934},{"0":-0.8375845320324942,"1":0.36237462063361914,"2":-0.10690741895524569,"3":0.13252336975883816,"4":-0.06337533400259598,"5":-0.7757411043816118,"6":0.10315535067580184,"7":-0.4923177198679487,"8":0.8116658126647107,"9":0.803237976330859,"10":0.4482387829767873,"11":0.6332622901607152,"12":0.2875396726865902,"13":-0.8353256277457244,"14":-0.9276273915536883,"15":0.5011229183993482,"16":-0.1349371300409672,"17":0.0636556509239754,"18":0.2826996470696046,"19":-0.34991657803894194,"20":0.5827859020889661,"21":0.7927664488825967,"22":0.03249017501843943,"23":-0.006797046922498939,"24":-0.14184294005986198,"25":0.8366703930127457,"26":0.5502970821124364,"27":-0.29681003893314406,"28":0.4908821905536058,"29":-0.4187138837842541,"30":0.3189383413416338,"31":0.34512980151399164},{"0":0.05928623994073856,"1":-0.39044823707682985,"2":0.9325035203341003,"3":0.668237787500416,"4":-0.036621725552361095,"5":0.3287193820143428,"6":0.06283410763027364,"7":0.40497578849190585,"8":0.0674514058007274,"9":-0.4168428314697903,"10":-0.3224996135143141,"11":0.5175733250922634,"12":0.4855208793970389,"13":-0.4641558597325042,"14":0.9351227404599944,"15":-0.9643033224074791,"16":0.10538542118800498,"17":0.8006099309671924,"18":-0.04103897351820196,"19":-0.9998494118845014,"20":-0.40963144491666803,"21":0.217105582705317,"22":-0.28906833134338905,"23":0.7611818614963464,"24":0.16265253652896616,"25":-0.7903686916300185,"26":0.17773868960145034,"27":-0.24827315269150896,"28":-0.9057955788806358,"29":0.586211837125084,"30":0.7088456430830261,"31":0.9326474432145391},{"0":-0.4013019655038077,"1":-0.22640732785328144,"2":-0.23654286738076458,"3":0.4405233216200912,"4":-0.21971041501438515,"5":0.9310648857457622,"6":-0.6922069306886547,"7":0.6688690239863191,"8":0.6580551031624453,"9":0.026809575766856497,"10":-0.1373509827600019,"11":0.603567153466225,"12":-0.028589040515382802,"13":0.22374872649773447,"14":-0.16067992560291122,"15":-0.8173873717215452,"16":-0.9908720281885879,"17":-0.5114297485063117,"18":0.20878091930046905,"19":0.9878850823860654,"20":0.3234169014607775,"21":0.061756567044386035,"22":-0.04798881025070134,"23":-0.0035067780944042504,"24":-0.1757480056566827,"25":0.34308069748697845,"26":-0.8455176784865857,"27":0.9975586604427669,"28":0.5762791984812079,"29":0.9682583339617326,"30":0.9893228528612692,"31":0.2994920342171361},{"0":0.9971171983862313,"1":-0.9044300710674182,"2":-0.02625475895915219,"3":-0.99991573336969,"4":-0.23493454111676382,"5":-0.7629262211586538,"6":0.2557983091392746,"7":-0.9311059208546988,"8":0.36229420285790903,"9":-0.046744618061954846,"10":-0.7099356786517834,"11":-0.06995435787022242,"12":-0.17677134698611807,"13":-0.9697336875397986,"14":0.9495989261633064,"15":-0.0055099678256880225,"16":0.004937416315660581,"17":-0.14046536205572213,"18":0.7782070759887527,"19":0.4287562924156947,"20":0.9447569079378528,"21":-0.41412543790147405,"22":-0.47347332401347364,"23":-0.7350353817944129,"24":-0.9649759764252197,"25":0.160603926630972,"26":-0.3160226871483407,"27":0.5284652716022076,"28":0.321629819471835,"29":0.6216837513367515,"30":-0.7143236974615257,"31":0.8166911635034388},{"0":0.32362566564387185,"1":-0.7245497064939639,"2":-0.7962022868626604,"3":0.8116080450896379,"4":-0.5837874927573838,"5":0.12003049065958438,"6":0.3128841091804606,"7":0.23965066111649103,"8":0.9709209901318685,"9":0.9375230324623742,"10":-0.22868599836677905,"11":0.2658465437039692,"12":0.06278187847221295,"13":0.8645073814778681,"14":0.8711634959451455,"15":0.3076340316726127,"16":-0.27755902278997047,"17":0.7032347033804558,"18":0.9480069867691383,"19":-0.10160915400144388,"20":0.12904408121158362,"21":0.985480096535805,"22":0.1551308608462505,"23":-0.15714048769767341,"24":0.9899382652354514,"25":0.9374476398028877,"26":-0.3961734138349464,"27":0.92253286822841,"28":-0.3178279585607364,"29":0.9897316395479447,"30":-0.006794729386882192,"31":-0.9833272661315564},{"0":-0.703678763533722,"1":0.10277787866765253,"2":0.5784579243071075,"3":-0.12727519069297877,"4":-0.510385845713623,"5":-0.9274915826062609,"6":-0.9988166766324285,"7":-0.9066865420299393,"8":0.3719910721195956,"9":-0.6704200373381712,"10":0.3737678922667671,"11":0.9023321778797913,"12":-0.6836720809024226,"13":0.3275982019699968,"14":-0.17648675201253328,"15":0.8468065679847596,"16":-0.6044877249053351,"17":-0.8440843101655879,"18":-0.8570844651032954,"19":-0.10621775328238314,"20":0.8984917580875966,"21":0.31750921323997394,"22":0.2682175579875188,"23":-0.12980332451740795,"24":-0.7803869683619937,"25":-0.3628205927598662,"26":-0.2604102909332213,"27":0.7729186842152589,"28":0.602836476107754,"29":-0.7745623112552589,"30":-0.5448601435019831,"31":0.9488997160687132},{"0":-0.817494944150334,"1":0.07424822963998216,"2":0.6264258464158893,"3":0.7636999712679264,"4":-0.6356695159024467,"5":0.7342906191752243,"6":-0.004346460287157368,"7":0.9756881842345223,"8":0.485356880513498,"9":-0.9063133557760068,"10":-0.48363837179024566,"11":-0.1131109226874113,"12":0.8624701862720027,"13":-0.4225892198551802,"14":0.059469587323727396,"15":0.2484588882251258,"16":-0.7265807822032094,"17":0.07942370525842447,"18":0.48381830122264396,"19":-0.6849132873490135,"20":-0.8225001127860012,"21":-0.07695759750096869,"22":0.2931243828696771,"23":0.2610612017680709,"24":-0.4895520352260387,"25":-0.5365543641931979,"26":-0.4453236147665627,"27":-0.31804353307535194,"28":0.8293605403051958,"29":0.8820815830475162,"30":0.1808512759388621,"31":0.21666607857542172},{"0":0.9379930389616984,"1":0.6027254299766103,"2":0.8050102761361262,"3":0.32300317609302187,"4":0.34232923902138745,"5":0.783257222532916,"6":-0.8508483501793012,"7":-0.9393718386256578,"8":-0.37826243485009314,"9":0.7186356966115608,"10":0.7297275746773977,"11":-0.3606642863662106,"12":-0.5994637608857114,"13":-0.13208674124694353,"14":-0.2486640843821255,"15":0.9078772021797485,"16":-0.2816422433317012,"17":0.2889556989344375,"18":0.6778364570800823,"19":-0.42143435013143327,"20":0.9758737982630317,"21":0.9291399121622628,"22":-0.22823419346835783,"23":-0.894489860488997,"24":-0.6337484701907563,"25":0.5947592102495465,"26":0.3277390703567362,"27":0.7127553810493188,"28":-0.635378751543243,"29":-0.36495050336341306,"30":-0.9114338264745219,"31":0.6152147246761146},{"0":0.8308051715912367,"1":-0.7878262893347856,"2":-0.78521919806708,"3":-0.5169121737805428,"4":0.4331932429104601,"5":0.1309118454898008,"6":0.10098642113147593,"7":0.43027152266548496,"8":-0.06056431752962053,"9":0.23594563397463805,"10":0.9532545654259933,"11":0.2143666535294311,"12":0.8028625061725163,"13":0.29203369177701516,"14":0.5810193570749144,"15":0.4300989614514922,"16":0.6837099450800546,"17":-0.3013373896836339,"18":0.8885651838840894,"19":0.05978606336779963,"20":-0.6767981897175243,"21":-0.1826663660544777,"22":0.14525091256361458,"23":-0.018150854501333576,"24":-0.21839533859630822,"25":0.6364052526997712,"26":0.5273767319681754,"27":-0.9663558799158121,"28":0.7526824063322984,"29":0.9543351186696677,"30":0.2782746350768124,"31":-0.8745207720859466},{"0":0.559700921240772,"1":-0.7165519981971199,"2":-0.10678378412153504,"3":-0.32910401032883496,"4":0.854734469245914,"5":-0.4605511990855665,"6":-0.4602781000202532,"7":-0.9971450619865202,"8":-0.5669872077871952,"9":-0.11098728833188021,"10":-0.9436955037423619,"11":0.6316522474434567,"12":-0.06183058657965659,"13":-0.7564718084945149,"14":0.3422883680120152,"15":0.12277373979069794,"16":0.020690830673009974,"17":0.6839429937971513,"18":0.45649908733494027,"19":0.7479975056711016,"20":-0.368561980533192,"21":0.30697916712332307,"22":0.2754185681851125,"23":-0.7087290337458405,"24":0.16348890669576266,"25":-0.4851240652076997,"26":-0.0922651429245377,"27":-0.28885178735124617,"28":-0.48422227989646327,"29":0.26856397151679684,"30":-0.2459708876166043,"31":0.6938729622104011},{"0":-0.33700646742320595,"1":-0.38546970704830796,"2":-0.8489555427830172,"3":0.39948519180445086,"4":-0.5895507314828745,"5":0.8963947498276423,"6":-0.46145521430221936,"7":-0.8559765112806574,"8":0.3550413660033541,"9":0.012214938837650569,"10":-0.6739752842114419,"11":0.40851259574936855,"12":-0.02782602952391939,"13":-0.13823825360739914,"14":-0.520751963021027,"15":-0.0690434262390317,"16":0.32147903653364834,"17":0.3035862010381951,"18":0.4899736553967646,"19":-0.03912062671985857,"20":0.19487827904092409,"21":0.5252623786479854,"22":-0.8486042336687729,"23":-0.654504360215447,"24":-0.06451547933740596,"25":0.5966570951234387,"26":-0.700837998591827,"27":0.7617502624044613,"28":-0.6107497195939914,"29":0.7491054520372945,"30":-0.15510096412296345,"31":0.7073717046838566},{"0":-0.7221522396001071,"1":-0.517324250871241,"2":-0.7189422735360033,"3":0.6375334701183143,"4":-0.08316428230649792,"5":-0.5988469016993901,"6":-0.18197927558931287,"7":0.523755293546142,"8":-0.42867483137733536,"9":-0.03225991415241173,"10":0.4981391481353614,"11":-0.553461215076933,"12":-0.2667505511545254,"13":0.5577677024253109,"14":0.21911759598247568,"15":-0.9359040033832963,"16":0.31583401745322903,"17":-0.6453513222666446,"18":0.47485629661378415,"19":0.6969735036634163,"20":-0.16694145203605149,"21":-0.0633713061201919,"22":0.7996646610776519,"23":0.9302260894345677,"24":-0.5779970882458841,"25":-0.5991370490499529,"26":0.22876246326816035,"27":-0.5947628267956456,"28":0.99801746969262,"29":0.04833492544240447,"30":0.0433326969405484,"31":0.6443334894295645},{"0":0.6850222154673385,"1":-0.3315144174683615,"2":0.5482220216554392,"3":-0.27671200158347464,"4":0.5939062542826354,"5":0.4694777647986935,"6":-0.403231599958283,"7":0.009936975683640692,"8":-0.7031043971761055,"9":0.9262802685387084,"10":-0.4679344606507131,"11":0.650424906457122,"12":-0.9429719654414339,"13":-0.3947447357757457,"14":-0.7643361153135582,"15":-0.376217954554717,"16":-0.2833214805533348,"17":0.08420841460692141,"18":-0.08903328424023654,"19":-0.025016234611687622,"20":-0.023443139240826562,"21":0.3154928051425142,"22":-0.25853018098519887,"23":-0.46668353814461566,"24":0.8263622293568058,"25":-0.5947262644568764,"26":-0.16756396837749837,"27":0.6199322515456095,"28":-0.13618390499637242,"29":0.1335625699388098,"30":-0.8078019459542736,"31":-0.23659716566964348},{"0":0.9502002634150596,"1":-0.17601966074133954,"2":-0.6961450023415624,"3":-0.10069225447931483,"4":0.8704888663882872,"5":-0.5040674930284036,"6":0.9073119251090007,"7":0.7095941263005948,"8":-0.7758917143354244,"9":-0.4809840906307988,"10":-0.018489314898717774,"11":-0.5686341283198847,"12":-0.6198612465595577,"13":0.4391104958292978,"14":-0.04523396696052244,"15":-0.25754193069708714,"16":-0.8353523422078278,"17":-0.7321686099123502,"18":0.12452624776590246,"19":-0.3055082416773118,"20":-0.14333134654392754,"21":-0.24163322342589788,"22":0.5503613194985936,"23":0.6140046298722602,"24":0.3156065397302811,"25":-0.04056195852383701,"26":0.5379758399340764,"27":0.652010684543219,"28":-0.7070480573315056,"29":-0.660785977794025,"30":0.9394707219041132,"31":0.5585718409488661},{"0":-0.8391173198453008,"1":-0.5439404452174765,"2":-0.8786541402282534,"3":0.19361526641166962,"4":0.7298459006879168,"5":-0.476148846590868,"6":-0.4990860260150663,"7":0.09240751791177018,"8":0.362228850371718,"9":-0.670642319319431,"10":0.6697595707093427,"11":0.8428226643591591,"12":-0.8585064061026967,"13":-0.7362699144324644,"14":-0.3742028092768026,"15":0.9727443004384186,"16":-0.814404422040243,"17":0.8069219229240294,"18":0.36259455475648705,"19":0.9416409141773611,"20":0.29598745085669215,"21":0.6229336882918675,"22":0.7647019923647437,"23":0.5785049075774829,"24":0.20489414387142452,"25":-0.07546434584456163,"26":-0.4277639157778101,"27":0.5667516228658664,"28":0.35907147819079893,"29":0.9878892830450654,"30":0.40092502549024656,"31":0.8421758788251964},{"0":0.6143088235848008,"1":0.4924916831377413,"2":0.20429296842165845,"3":0.8105155075495785,"4":0.5349538873647521,"5":0.7403258128514588,"6":-0.6792695053073093,"7":0.6300397780430671,"8":0.4105164950355877,"9":0.06403704538610983,"10":0.30039559039478064,"11":-0.3328738254910426,"12":-0.4681391347376512,"13":-0.5271441377871353,"14":0.014409191800747036,"15":0.42599178683995587,"16":-0.8351689404533945,"17":0.23654968001935522,"18":0.304903287659102,"19":-0.3109901888447483,"20":-0.014166442384329504,"21":0.8733950775854621,"22":-0.880521239345477,"23":0.7421209657681043,"24":0.5652748506155403,"25":0.9816319317775434,"26":0.7576173101409837,"27":0.34314827458231817,"28":-0.09192818616967245,"29":-0.20562416898652214,"30":-0.8222073223314021,"31":0.2686766528430256},{"0":0.3197715653040381,"1":0.8494507207589649,"2":0.6360474319843002,"3":0.3381387632564608,"4":-0.9287078527093093,"5":-0.647030704954519,"6":0.044967656131264085,"7":0.08368302741813222,"8":0.2860440045995752,"9":-0.30025541546747686,"10":0.2731818151067302,"11":0.6047627955301116,"12":-0.7828159106515294,"13":0.3663587127937257,"14":-0.42894741966305655,"15":0.5389296564112128,"16":0.6024192390149956,"17":-0.5651015645034045,"18":-0.9004827105133707,"19":-0.8282149635230727,"20":-0.30338927778638686,"21":0.8318767417344985,"22":-0.47146924645920535,"23":0.6911863110201407,"24":0.22388878998447626,"25":0.9727168432724231,"26":0.9173147383985633,"27":-0.43498627025452447,"28":-0.3010368178759887,"29":-0.4862090676448686,"30":-0.5236416664113047,"31":-0.9604005292001523},{"0":-0.6596219314053269,"1":0.2162298471424412,"2":0.9987215698721817,"3":-0.7706798198184428,"4":-0.903234708104959,"5":-0.048148742299628615,"6":-0.3678984116526982,"7":-0.8394575404209434,"8":-0.7635405625639989,"9":-0.8651172067695697,"10":0.2662691800846518,"11":-0.4697483073144214,"12":-0.3008865292999635,"13":0.48669694249385326,"14":-0.009788254218259683,"15":0.24368755575294346,"16":0.40264836715680147,"17":0.884314096931788,"18":0.532936779997277,"19":0.4190662789957164,"20":0.76314503640212,"21":-0.8147329482048726,"22":-0.8239191722846393,"23":-0.7315346258405445,"24":-0.5371261191894667,"25":0.4650263133500725,"26":-0.17658668266380984,"27":0.09632968696619601,"28":0.3210929473233103,"29":-0.14793013826057927,"30":0.4453376970717364,"31":0.7260431266462117},{"0":0.5536932760342642,"1":-0.454034519434147,"2":-0.7901562144000623,"3":0.9263967229907252,"4":0.9985391259417625,"5":0.2136684054765543,"6":0.060396441587164985,"7":0.7539257611345399,"8":-0.8985138854089411,"9":-0.5450632238327632,"10":0.9349309108511991,"11":-0.06201487316121835,"12":-0.9149999979107042,"13":-0.6117295629964579,"14":0.39504801302149883,"15":0.592017349729672,"16":0.23208059926359165,"17":0.5094803390833842,"18":-0.9632482860160452,"19":-0.48808728497748854,"20":0.31900397597780844,"21":-0.37031786469853856,"22":0.8344548371430992,"23":0.3711436709334951,"24":-0.8509136314690303,"25":0.4298757479729354,"26":0.4521360779797688,"27":0.19594360171095296,"28":0.6191952851533651,"29":-0.7905525668367872,"30":0.020940813044989206,"31":-0.7855361794642076},{"0":0.21424155454423,"1":0.825975829838227,"2":-0.07436268676417324,"3":0.05250956807608857,"4":0.39572471733453274,"5":-0.5786700089779825,"6":-0.06756286618140245,"7":0.3004944283518474,"8":-0.6260137238704966,"9":-0.5388271950431794,"10":0.9895582549187508,"11":0.8773179026994992,"12":-0.045807407004604624,"13":-0.1089221767229106,"14":-0.35883278872416896,"15":0.6462265808157681,"16":0.650732344767627,"17":0.8851164345190753,"18":0.7086663943005053,"19":-0.5084486993909392,"20":0.780513276510767,"21":-0.30223245841217333,"22":0.5524100149471142,"23":0.5839153280902615,"24":0.27235522602428897,"25":0.07935255782477384,"26":-0.9471810568094733,"27":0.9919360539909209,"28":0.4283233759160507,"29":-0.9427558967028294,"30":-0.7670252534208696,"31":-0.23559331188470697},{"0":0.7704428032035358,"1":0.4110165425801119,"2":-0.6871093232220843,"3":0.9213727173619115,"4":0.28870075692677255,"5":-0.13046976546396144,"6":-0.786011303328046,"7":0.0159895999438378,"8":0.5843298334046985,"9":-0.8038928375352736,"10":0.8232113259826204,"11":-0.6965988280722134,"12":-0.31653845887129833,"13":0.001597927145972428,"14":-0.20934695598260952,"15":0.2007396206518789,"16":-0.4355492326156821,"17":0.24212857737260293,"18":-0.8397555646448003,"19":0.4514620721336959,"20":-0.2411935409826227,"21":-0.9493099177832003,"22":0.8014718172661272,"23":-0.061147407586655524,"24":0.8420003944528486,"25":-0.13091527872985964,"26":-0.8957140777627867,"27":0.622801289471249,"28":-0.2685145051207726,"29":-0.5605317221585007,"30":-0.7974608233774471,"31":0.2839731299930418},{"0":-0.7246083073919761,"1":0.5633238379333818,"2":0.2941843152206952,"3":-0.9309541414257086,"4":0.7918847168893068,"5":-0.18643054348123383,"6":-0.05912467475644455,"7":0.49951505008622143,"8":-0.47459601914078214,"9":-0.774554436803752,"10":0.8556598124622071,"11":0.13816862663950372,"12":0.11671154292882686,"13":0.8271806601954246,"14":0.06984109574441204,"15":-0.4886943527374452,"16":-0.13693252739845302,"17":0.5375195810073545,"18":0.41275800753166175,"19":0.9269852212767768,"20":0.042174276325611264,"21":-0.3084525947569937,"22":-0.3516802973014969,"23":-0.9413212118453546,"24":0.08555685525962671,"25":-0.9934754908875071,"26":-0.9666286928856869,"27":0.5784384154930909,"28":-0.6899321978549751,"29":0.02987511300273634,"30":0.4587609519253587,"31":-0.9000378122287506},{"0":-0.7200697556876559,"1":0.554564707573402,"2":-0.3176832869283208,"3":-0.34108998481909836,"4":0.6814903970416489,"5":-0.3975735592926661,"6":-0.5095694278336772,"7":0.31573823544153595,"8":-0.8650127022413131,"9":0.8049204254390525,"10":-0.9661512229578335,"11":0.12332369721368494,"12":-0.22431016211566493,"13":-0.9143249371891992,"14":0.7430285066508365,"15":0.2896457271853116,"16":-0.3544458521036472,"17":-0.6805696231694562,"18":0.9567149410055175,"19":0.9813731464944807,"20":0.9926921286150588,"21":0.767646961077772,"22":0.5252902335461415,"23":0.5561458754109956,"24":-0.6644382883772059,"25":0.3012304879287,"26":-0.32998375974825533,"27":0.271022963495449,"28":-0.4546308297567819,"29":0.14400747864675695,"30":0.04476786632151222,"31":-0.8601646078719716},{"0":-0.2676415161830483,"1":-0.16609901299668062,"2":0.8971936731631892,"3":0.5696951268508685,"4":0.8160159538171099,"5":-0.9402708527861409,"6":-0.8135875722829641,"7":0.5070152191596987,"8":0.35554386667229837,"9":0.39983484948893233,"10":-0.24087249990320736,"11":0.49835429099519507,"12":0.9277472754843794,"13":-0.7139320516803472,"14":-0.4572342128048399,"15":0.17578217246477462,"16":-0.5342185659228678,"17":-0.4344039316511209,"18":-0.6187114085368446,"19":-0.3138737975898258,"20":0.23985460038677245,"21":0.11260499226043968,"22":0.38354885541701594,"23":0.9772258233476148,"24":0.33412230120485553,"25":0.36952772005371326,"26":0.8356663361550807,"27":0.1410121369601039,"28":-0.7188405830395828,"29":-0.5965916297122509,"30":-0.47703215480758215,"31":0.6857552604736004},{"0":-0.9227842837788304,"1":0.8098075416575796,"2":0.3660062282160938,"3":-0.8158286639824663,"4":0.1163247994445249,"5":0.5465711598583651,"6":0.1744312761000721,"7":0.5035952803723516,"8":0.7232780789951003,"9":-0.6254735252347159,"10":0.6310165167356101,"11":-0.9533284953853183,"12":-0.598199812107333,"13":-0.38795414474346135,"14":-0.14151045375457244,"15":-0.7180703267000864,"16":-0.12866327050065302,"17":0.8129777144532773,"18":-0.12692083359858447,"19":0.9019597858370141,"20":-0.46814996805492326,"21":0.8000708443850418,"22":0.1634747742859098,"23":-0.8525090587736132,"24":0.9645112489850258,"25":-0.5029270053564692,"26":0.25739867187934595,"27":0.5638930386567065,"28":-0.39930764260266105,"29":-0.1893927738268887,"30":0.40099624579902715,"31":-0.5553024373007582},{"0":0.37160542997010904,"1":-0.14961100030245778,"2":-0.662966988592248,"3":0.8587495480380269,"4":0.7945716711565409,"5":0.7851142698259088,"6":0.3182534365573426,"7":-0.8988079426858029,"8":-0.0522399273496279,"9":-0.8875743190287295,"10":-0.627733624927453,"11":0.9973714038945767,"12":0.16610461967212187,"13":-0.08217975537945188,"14":0.8569147713382486,"15":-0.33962922140546103,"16":0.4242181921324728,"17":0.442334974496823,"18":-0.9781200772910106,"19":-0.07431821880720557,"20":-0.9746712524882759,"21":-0.14725444428137457,"22":0.09422537878197135,"23":0.8082397043372294,"24":-0.8024817833665074,"25":0.12220536320892084,"26":-0.016119261258886297,"27":-0.8169405710445155,"28":0.1297175829352093,"29":0.22813274970348818,"30":-0.6613680953680974,"31":-0.9606381176175471},{"0":0.7215563623608441,"1":-0.3995576255781894,"2":-0.019047993180219436,"3":-0.829196419070704,"4":0.8070744416807347,"5":-0.027131425142681298,"6":0.664116217555792,"7":0.9782434298557496,"8":-0.652401204887211,"9":-0.7644260381997077,"10":0.22702781794376214,"11":0.15554310451581888,"12":-0.7159216005993518,"13":0.818946688811097,"14":-0.8707301951794881,"15":-0.5542641269659518,"16":0.1679019303844247,"17":-0.016857190378328113,"18":-0.7129812724046611,"19":0.3062534316922476,"20":0.581553766497835,"21":0.023857100221393424,"22":0.8197418763904318,"23":0.8820165647381994,"24":-0.26614707158912054,"25":0.5210167018084055,"26":-0.384678407001553,"27":0.10836291469205594,"28":0.24440940872822647,"29":-0.9387063781672116,"30":0.2824030487870832,"31":0.5643657257342527},{"0":0.756497991082846,"1":-0.8946203835482751,"2":0.866148236631453,"3":0.8944456743689315,"4":-0.6555745147964536,"5":-0.7695563406875441,"6":0.4385253277452854,"7":0.6947647311641689,"8":-0.7180730655325762,"9":-0.9437720814816268,"10":-0.8492397811192727,"11":-0.6358575272521443,"12":0.4856201447290678,"13":-0.6633065383194827,"14":-0.5441153799977241,"15":0.3190187752160787,"16":0.2761164175770876,"17":0.42509811923007845,"18":-0.7716987058278488,"19":0.9205077574661185,"20":0.7851417181818046,"21":-0.039065737905380704,"22":-0.8816119268031644,"23":0.6380700212496082,"24":-0.8032143640039839,"25":-0.4352959386728865,"26":-0.49664328891353193,"27":0.15507521851489603,"28":0.708082684397183,"29":-0.044324350396809375,"30":-0.6134069994647975,"31":0.852777397316907},{"0":-0.7690927482230316,"1":0.7160826732760421,"2":-0.9890804819172834,"3":-0.8072016813069962,"4":-0.15842117141977452,"5":-0.1177146397684945,"6":0.8732433212572164,"7":-0.4280012043896604,"8":-0.012274778809191478,"9":0.6878871762535601,"10":0.45052292923911796,"11":-0.5661689432967352,"12":-0.4488137284043874,"13":-0.815310859436531,"14":0.15468234092316324,"15":0.7101958678420868,"16":-0.9441992509553501,"17":-0.44756684130141,"18":0.7456409026756643,"19":-0.3443065191003245,"20":-0.6738208184376373,"21":-0.052722689296818004,"22":0.04905887579651447,"23":0.22862920376125517,"24":-0.4908088798071266,"25":0.21536142378336143,"26":-0.6114611821027927,"27":0.14347796930263979,"28":-0.6811193123299493,"29":-0.9933705978726359,"30":-0.14590256907406873,"31":-0.7114769728930286},{"0":-0.32206031728178264,"1":-0.7951356395490241,"2":0.5095723995756534,"3":-0.4988721356283281,"4":0.02727222664075679,"5":-0.5599939869311856,"6":0.566700804652307,"7":-0.9330201220835659,"8":0.7930322043579467,"9":0.06882390926901039,"10":-0.6511701923611994,"11":0.10351399457039356,"12":-0.86413891522461,"13":0.7365794797238663,"14":0.4337996176218537,"15":0.4208731316670793,"16":-0.26796737321031205,"17":0.4843512378405639,"18":-0.1284211727194844,"19":-0.14946276072140696,"20":0.6071466942356705,"21":-0.9125707947235187,"22":0.45037305274916317,"23":-0.7658799445387166,"24":0.19066124801503204,"25":-0.7140487124761914,"26":0.5583754736184932,"27":-0.030524820127890262,"28":0.5630069854663944,"29":-0.04526309836426723,"30":-0.6706126704328703,"31":-0.41548249609745946},{"0":0.4238049975788627,"1":-0.9421193179831571,"2":-0.14303711345128978,"3":-0.38633963062581467,"4":-0.030100972300051154,"5":-0.6877393523973927,"6":0.4833583589754187,"7":0.5735052407774854,"8":-0.9504927518999597,"9":-0.3742950864484431,"10":0.665977600495181,"11":-0.05464268088352675,"12":-0.908632360813276,"13":0.2982794834484288,"14":-0.9703493878908582,"15":0.3680415255884677,"16":-0.7651110414847948,"17":-0.43151045422132484,"18":-0.1907245654041172,"19":0.25751794841328346,"20":0.5431571033777924,"21":0.9638668579854461,"22":0.08898370501309216,"23":0.967828880870989,"24":-0.5361680277969674,"25":-0.052768296090865974,"26":-0.3411524088987097,"27":0.7745735182500422,"28":-0.09065228413240778,"29":-0.4020073751018165,"30":-0.7493850952205552,"31":0.8196612638048006},{"0":-0.539729608147232,"1":-0.08752688132869002,"2":0.4717860093899766,"3":-0.7003874937607999,"4":-0.7431359935055988,"5":-0.029439812053012826,"6":-0.3999817221521793,"7":0.5001094201206135,"8":0.10419964939091475,"9":-0.37456771977322045,"10":-0.1380339385476379,"11":-0.1527425477680029,"12":-0.34638754878104683,"13":-0.03234761578125589,"14":0.6011807662687794,"15":0.9092751176069438,"16":-0.6673405002626525,"17":0.12984926850639456,"18":-0.9164429449162559,"19":0.686294151437898,"20":0.24881059181978982,"21":0.5057967982599672,"22":0.5403718001261542,"23":0.9445474124003557,"24":-0.724508972316952,"25":-0.4313887176775322,"26":-0.7897395031652912,"27":0.8824485864812965,"28":0.9464287936903402,"29":0.4489275670165229,"30":0.04414505320998474,"31":0.356274263273086},{"0":0.175906819634072,"1":-0.32774401355794075,"2":0.13211595423379258,"3":0.541492290209405,"4":0.6882058205107418,"5":-0.1344757574134799,"6":-0.2596628778033978,"7":0.5118299578460033,"8":0.5788141090889152,"9":0.5816895383051797,"10":-0.9134549480608908,"11":-0.26698399576145715,"12":-0.1419310219402786,"13":0.19550573477078595,"14":0.13590534582982525,"15":-0.8318502990065335,"16":0.4381467014692379,"17":0.12603099997179973,"18":-0.5078441915838199,"19":-0.6155300963378657,"20":0.6985890459100822,"21":0.18102014268904093,"22":0.2068122842677307,"23":-0.6565480140126854,"24":0.09001585886709222,"25":0.6046672524861963,"26":0.49154763218690867,"27":0.14103787060600742,"28":-0.44502939868678526,"29":0.07503255975329653,"30":0.08425183361538305,"31":-0.7161240067724437},{"0":-0.491507049897513,"1":-0.12333498311965722,"2":0.9947093601806977,"3":0.08254200707643826,"4":0.8457266923526797,"5":-0.8144492339017841,"6":-0.730018307451918,"7":-0.8600381871408176,"8":-0.12880839774996392,"9":0.02904912907076901,"10":0.48199802274816134,"11":-0.33627775740678234,"12":0.08946766320836348,"13":-0.2012142039777043,"14":0.04418201161147322,"15":-0.3538591417087106,"16":0.961352135212132,"17":-0.6852110085039801,"18":0.9649299981187381,"19":0.5141468524579631,"20":-0.22766156046114003,"21":0.5476819863228067,"22":0.03690168853698526,"23":0.8813176601003978,"24":-0.5675720201354684,"25":0.4189722966357457,"26":-0.3769555632467054,"27":0.38995620444221574,"28":-0.043150947499121205,"29":0.8418890004933364,"30":0.6671138008223153,"31":0.22078617449149684},{"0":0.41506194447651856,"1":-0.7732630054476037,"2":-0.19728808085695967,"3":0.8287529655745617,"4":0.279590509546813,"5":-0.4093358903840824,"6":0.4230669710122623,"7":-0.9828592324022407,"8":-0.09441687987225963,"9":-0.16781066889061527,"10":0.20663255664992794,"11":-0.2160143041023677,"12":-0.3424472127786674,"13":0.10311149848482419,"14":0.5954165185887899,"15":-0.051845177436114956,"16":0.6222202194830613,"17":-0.10734552842942767,"18":0.2540402191969567,"19":0.5434814975747667,"20":0.2912802916589055,"21":-0.5898236447326477,"22":-0.7236505094612775,"23":-0.4518710341344783,"24":-0.4077301909967754,"25":0.25695912971890433,"26":-0.01759444782035349,"27":-0.8195794973394401,"28":-0.010155245563753298,"29":-0.767709291190372,"30":-0.9999948751516332,"31":0.44084484888612085},{"0":0.9303056579159146,"1":0.0494996315282319,"2":0.4981322336027775,"3":-0.10994786010039823,"4":-0.9899559844856012,"5":-0.07387967033287843,"6":0.7366675546911585,"7":0.6932693776388396,"8":0.9828328576643339,"9":-0.5781453455869747,"10":0.23227377533455987,"11":-0.06035787251565643,"12":-0.22250352305874493,"13":-0.21559085611018186,"14":-0.804062580032238,"15":0.43311928902630753,"16":-0.41411306934506653,"17":-0.1177719847752346,"18":-0.5931350466453924,"19":0.3595321486445289,"20":0.3780424578082618,"21":0.4901207965940294,"22":0.7550658319907086,"23":-0.44785889234837734,"24":0.6250040585605939,"25":0.7822226046943285,"26":-0.9364143077021806,"27":-0.11213647267864461,"28":0.08186528599608361,"29":0.8541904142550371,"30":0.8944873238692088,"31":0.9451762809159701},{"0":-0.4442638795502894,"1":-0.8268175526796475,"2":0.37854501503076754,"3":0.4683591493611395,"4":0.7457191777686538,"5":-0.5673840104073806,"6":0.14833894194636485,"7":-0.9256127634077094,"8":0.8942479967613006,"9":-0.9830414587094927,"10":-0.0950248971090235,"11":-0.5985848748178607,"12":-0.7054077770182908,"13":0.8086533050492747,"14":0.6841449579783857,"15":0.0690981615233138,"16":0.4551352497473049,"17":-0.39616003717660314,"18":-0.6810765808530799,"19":-0.4712330724677483,"20":-0.3995355463480748,"21":-0.21773752978850222,"22":0.43662571997748584,"23":-0.710689078592455,"24":0.3412798711104376,"25":0.6265100170972447,"26":0.8188229849768388,"27":-0.6141391401155432,"28":-0.6509618257101015,"29":-0.09464888702316776,"30":-0.20007389692961808,"31":0.7378855634042131},{"0":-0.3940484119296387,"1":-0.3700414887662449,"2":0.3881147575143909,"3":0.885147042445666,"4":-0.7915010624874358,"5":0.5771308141834937,"6":0.2546131101846883,"7":-0.4499098282628277,"8":0.06033743842172351,"9":0.8681985326592386,"10":-0.5544930432449798,"11":0.37865061421373447,"12":-0.9895163520042939,"13":-0.8602457927084879,"14":-0.02617518839839326,"15":0.7321197549520702,"16":0.867535265049794,"17":0.06929538563059678,"18":-0.9938696524772469,"19":0.4498064514752839,"20":0.9095999497316547,"21":-0.7659467433404176,"22":0.9750092608287007,"23":0.8942870956632419,"24":0.30024052823760805,"25":-0.20833972415119478,"26":-0.6404837594059507,"27":-0.7969765743048443,"28":0.08396119616039915,"29":0.6190453319872504,"30":-0.7946527560708363,"31":-0.30595809741932334},{"0":-0.7766182765218032,"1":0.9284621345722676,"2":-0.7658601854475231,"3":-0.3606774026943137,"4":0.6058843671422908,"5":0.5156841023452802,"6":0.9331727768621303,"7":0.25244724574308536,"8":-0.008899933193792087,"9":0.2761870906237918,"10":-0.9309773812305099,"11":0.011457579343641127,"12":0.4461003767062094,"13":0.9140547520592872,"14":-0.46982627423092765,"15":0.15549992143910196,"16":-0.3730323575723284,"17":-0.971561836528819,"18":-0.4529793735733672,"19":-0.9100537411585389,"20":0.9776424089714224,"21":-0.9677677009857184,"22":-0.4153612448926611,"23":-0.5977930312508314,"24":-0.7738565834552826,"25":-0.9137735751542146,"26":-0.8445121959632034,"27":-0.16721797238661462,"28":0.1381720261310194,"29":0.034929572201952884,"30":-0.012539350751041494,"31":-0.39247109321443324},{"0":0.775910934529534,"1":0.8710980299667955,"2":0.25834766962077466,"3":-0.21144143282991754,"4":0.18220223682862233,"5":0.5246588824786413,"6":0.6182795571839086,"7":-0.9184636944190693,"8":-0.02947200617256313,"9":0.6495330712229538,"10":-0.6806190195303615,"11":0.01587702960475708,"12":-0.47029136543830624,"13":-0.46782683252854673,"14":-0.9447704392681998,"15":0.7259187829145012,"16":-0.8083876167425774,"17":-0.5670139136343952,"18":0.34269843142248163,"19":-0.18248615006704408,"20":0.5412439686041234,"21":0.9507990991281803,"22":0.6606053790147685,"23":-0.36898395486620417,"24":-0.830828026110254,"25":-0.1280431564733321,"26":-0.7586872076476372,"27":-0.8347608899683772,"28":-0.3842200476817696,"29":-0.9119158233428469,"30":0.7845044576245291,"31":-0.6082955219207486},{"0":-0.3734409836550756,"1":0.3851650257189163,"2":0.20601168637554157,"3":0.7462439125917035,"4":0.008137711710576784,"5":0.74203693838249,"6":-0.4803153201891406,"7":-0.2200400550620259,"8":-0.5934216399647453,"9":0.24329203048315623,"10":-0.41608978840123917,"11":0.7997575547823738,"12":-0.9624400876900877,"13":0.0919546932232558,"14":-0.43298895787202085,"15":-0.8383326709469048,"16":-0.7225948230975994,"17":-0.019783411182222516,"18":0.7542205121656803,"19":-0.3717485339851128,"20":-0.19705591191928878,"21":-0.20019965876877685,"22":0.028628785651165452,"23":0.43671027557603165,"24":-0.7492733533808732,"25":-0.34423163043114086,"26":0.4980428640435552,"27":-0.2271478012553756,"28":0.2021666175766425,"29":-0.06332591569889896,"30":-0.3759354671563771,"31":-0.9127158853232658},{"0":-0.008497908086524633,"1":-0.02605619759816642,"2":0.7791998307925304,"3":0.23720906606371242,"4":-0.2770147952796414,"5":-0.511146797636556,"6":0.3308461478118987,"7":-0.26563320344789365,"8":0.48553432497609506,"9":0.6720283142890796,"10":-0.11811592164109763,"11":-0.10830541426067908,"12":0.33299426092792567,"13":-0.5890622999749601,"14":0.4401196553001642,"15":0.4147554249096314,"16":0.15566545147327215,"17":0.9688904802067979,"18":-0.5486142827465297,"19":-0.9924475602025187,"20":0.6652823412891499,"21":0.5621729331339306,"22":-0.6847898139306768,"23":-0.07688133441080341,"24":0.07634623339199777,"25":0.28980956043858613,"26":0.9627544237676561,"27":0.12549156561740496,"28":-0.6142130514241864,"29":-0.0752370987148864,"30":-0.6961321175924141,"31":-0.5478888006984972},{"0":-0.9991643644541761,"1":0.6620872280773868,"2":0.6159498409624674,"3":0.7438820363423236,"4":-0.7842538006995576,"5":-0.4233897797093753,"6":0.24808211608405453,"7":-0.6188102659344022,"8":0.33547957297519615,"9":0.04733028383017401,"10":-0.7716139801987391,"11":0.07690700875852977,"12":0.6503496475365113,"13":0.4752957877693409,"14":-0.8139327544381124,"15":0.5027194697239976,"16":0.46320693050679496,"17":0.623107683562196,"18":-0.5578134780297375,"19":0.14421105849238472,"20":-0.5726188184294828,"21":0.1286880129706922,"22":-0.9573011383416856,"23":0.7953382239150031,"24":0.26539347842099437,"25":0.6629983009345071,"26":0.13482880845193346,"27":0.7564573032208866,"28":0.010971640408533207,"29":-0.2043141504747796,"30":-0.9977733698456384,"31":-0.2315151090001619},{"0":-0.17423126299363215,"1":0.04460115901803559,"2":-0.6992010348060693,"3":0.12074052549418841,"4":0.5212535800133055,"5":-0.17075465747781943,"6":-0.5841253853136457,"7":0.5211517753884545,"8":-0.3887879994955007,"9":-0.5336353891264317,"10":0.34664032854847104,"11":0.9633923898666638,"12":0.6627975293261921,"13":0.7620509620327429,"14":-0.2353290948681101,"15":-0.9993851056717453,"16":0.9516028973989069,"17":-0.8854212221865131,"18":0.5388827256049603,"19":0.17554354306063025,"20":-0.19340023324367267,"21":-0.2801358234440427,"22":-0.012268279856364342,"23":0.49395541713652763,"24":-0.2154041298902185,"25":-0.40533154846427377,"26":0.039891354320724784,"27":0.44827399425321574,"28":-0.4222263140707248,"29":-0.9222936752213675,"30":-0.1404470487314771,"31":0.530272898541615},{"0":0.0609906054480003,"1":0.3122569795344052,"2":0.44622040838049715,"3":0.7295469379023436,"4":0.698943317244522,"5":0.6392084992514425,"6":-0.01339012976404102,"7":0.33570219450975874,"8":-0.3296852786853126,"9":-0.4054335000212271,"10":0.185464387936917,"11":-0.932438872217789,"12":-0.7596972436575893,"13":0.9719868926096992,"14":-0.24020088428252076,"15":0.8149514239391172,"16":0.9398175798840668,"17":-0.7404468499069755,"18":-0.5575098818063872,"19":-0.16474671883954467,"20":-0.12755967727388084,"21":0.3675065022659422,"22":0.7147135154755833,"23":0.9085243331980494,"24":0.27459850524926915,"25":-0.5096343269318274,"26":-0.8786600726236424,"27":-0.46630995390822294,"28":-0.4429396801890121,"29":-0.05782343660390327,"30":0.13515221413939438,"31":-0.09497696909800488},{"0":0.739760567915718,"1":-0.7890998123620021,"2":0.2710695490614609,"3":0.6255623356872841,"4":-0.02337373773519743,"5":0.8206365377373703,"6":0.10686708311016029,"7":-0.14132251280413033,"8":-0.7109504753936247,"9":0.7391743217637908,"10":0.11999129151771347,"11":0.8076771361678237,"12":0.9458648092187063,"13":-0.5681007043916599,"14":0.2951656435537682,"15":-0.906940929374315,"16":-0.4221934008605527,"17":-0.7813918427039739,"18":0.2669611409196221,"19":-0.9662411163028737,"20":-0.8116806981982099,"21":-0.5859218218060563,"22":-0.18504016575719498,"23":0.7287328956903699,"24":0.18203808294471904,"25":0.5944447363727464,"26":-0.7446379821245716,"27":0.05572222944177412,"28":-0.2822166410843212,"29":0.1400012761619288,"30":0.44669433719449586,"31":0.6478378320345414},{"0":-0.6320395133215303,"1":-0.42684891893747173,"2":-0.7024768635749189,"3":-0.018222246004864183,"4":0.5945762253157347,"5":-0.11979413206117469,"6":0.9519437556689334,"7":0.7722619870635762,"8":0.025761372866478803,"9":-0.5088225243549532,"10":-0.09835902214230251,"11":0.223157159421482,"12":-0.8766806181658234,"13":0.12435215096358147,"14":0.5470533350901702,"15":-0.8256342107894027,"16":0.34566695509065776,"17":0.8862191325552621,"18":0.3919358872654676,"19":0.9883373189590712,"20":0.7869999960489471,"21":-0.295369530705895,"22":-0.6411436478591754,"23":0.8254591901304912,"24":0.3872022631662571,"25":-0.16437905543973735,"26":-0.9306938456950823,"27":0.30460595344053154,"28":0.5636728588447059,"29":-0.6638655336228959,"30":-0.31328460256630075,"31":-0.9274355247435219},{"0":-0.13799809984720293,"1":-0.6398493545686911,"2":0.7524402664845776,"3":-0.025336682693708402,"4":-0.009363489937925422,"5":-0.6684693319046935,"6":0.11616644929178271,"7":-0.04687639513152265,"8":0.6125198341454847,"9":-0.12249704101107511,"10":0.23159592848594518,"11":0.21925119379706226,"12":-0.11842117113019325,"13":-0.4479898305310707,"14":-0.21158648001018804,"15":0.02012900842474047,"16":0.6974485178568202,"17":-0.11646123294300036,"18":0.941029630364186,"19":-0.8022416454069201,"20":0.474710693256616,"21":0.1565797191391159,"22":-0.48317769850110265,"23":0.17469712419562633,"24":0.9797857816309422,"25":0.7125252037225436,"26":0.7558581564104583,"27":0.8893265566392655,"28":0.384527529584619,"29":-0.43815854428985357,"30":-0.4329664387923509,"31":-0.2580783057901214},{"0":0.335158619824054,"1":-0.7618999823785818,"2":0.4916506107343084,"3":-0.23999018875608918,"4":-0.7203675283681417,"5":-0.8857347070729822,"6":-0.07846158921956857,"7":0.019176648875335055,"8":0.2763580331943226,"9":0.9176688957809502,"10":0.7696706069595532,"11":0.2794255321270913,"12":-0.017635695184125416,"13":-0.9036277159693945,"14":0.24320584493766126,"15":0.3945773965682979,"16":0.009074707419152875,"17":-0.8821378206931185,"18":-0.18576139370266437,"19":0.5058263009756482,"20":0.40604209206300074,"21":0.21865537613385144,"22":-0.7109658540095962,"23":-0.02997941219261577,"24":-0.2787167514500095,"25":0.7218179595699697,"26":0.1337398592890742,"27":0.32176425466088693,"28":-0.43240680760070316,"29":-0.8095256569976594,"30":0.9595412318828187,"31":-0.6699841294525878},{"0":0.3742259363294243,"1":0.8959593451283716,"2":0.8953938309676782,"3":-0.5374156104747735,"4":0.12948603611770793,"5":0.8322484422688581,"6":-0.6480800772832883,"7":0.18632776951308555,"8":0.9613301760384647,"9":0.7078467901851442,"10":-0.9266459283738155,"11":-0.6461786437154206,"12":-0.5707744296552877,"13":-0.16380541322880396,"14":0.22868299477215004,"15":0.13362307827181413,"16":-0.7826349596006696,"17":0.6467397244020416,"18":0.4910308919666001,"19":-0.7989033690419414,"20":-0.1456762899033676,"21":0.7282699562682485,"22":0.651051251681527,"23":0.007153983921174955,"24":-0.5992774547886304,"25":0.298625456191976,"26":-0.6554317477834987,"27":0.35195197821747815,"28":-0.8698470319142712,"29":-0.1340179229465605,"30":-0.5268990996285793,"31":0.04850963917196404},{"0":0.2921627971276663,"1":-0.02900340179868624,"2":0.7262600214155153,"3":-0.05364374197939357,"4":-0.8606409577335448,"5":0.13700776591247246,"6":0.40924778455980065,"7":-0.5965226686492259,"8":0.9002600419138795,"9":-0.4230150934642981,"10":0.6536835678179241,"11":-0.7015390397553721,"12":0.13343673467226805,"13":0.326878244866406,"14":-0.2349250930572035,"15":0.3297964091350403,"16":-0.31411268922502866,"17":-0.15350729274356864,"18":-0.43086341372040565,"19":-0.9559094516239997,"20":0.0752867383036342,"21":-0.5822598805540996,"22":0.872520142629143,"23":0.7544962672595905,"24":0.788394833541043,"25":-0.07099787114973513,"26":0.3007054606593523,"27":-0.8890709598720589,"28":-0.5830007694015692,"29":0.42115473560201744,"30":-0.20326131124213095,"31":-0.6565759866868239},{"0":-0.38109533040938925,"1":-0.357977461806009,"2":-0.37268790389004297,"3":-0.03408609424463947,"4":-0.5963970890401263,"5":0.8136771950058789,"6":0.7154871489593331,"7":0.08027932641993764,"8":-0.8374581082100537,"9":0.38495440265915426,"10":-0.10256574139345914,"11":0.7745145464460929,"12":0.0957637479003912,"13":0.43863141020593854,"14":-0.15394909530889192,"15":-0.5460441704860722,"16":0.13564197309980316,"17":-0.9998706772851423,"18":0.7981987294705973,"19":0.9032382813232198,"20":0.30573023676276545,"21":0.42944040985655085,"22":0.615159873160823,"23":-0.551618199002839,"24":0.3139162638761874,"25":0.993584805682643,"26":-0.10543441876223786,"27":-0.014765268545472995,"28":-0.9304325446858454,"29":0.5963204070999634,"30":0.07141848325540319,"31":-0.5674048921559643},{"0":0.6234640764517605,"1":0.6834392446610221,"2":-0.12286589919845563,"3":0.3464006781868148,"4":0.08814600671646465,"5":0.9796841632787489,"6":0.05669341918689883,"7":0.646428762092711,"8":0.581558099606204,"9":-0.9170230524069002,"10":-0.8892926418635592,"11":0.5072778364489002,"12":-0.44679278531844424,"13":-0.1640013706541039,"14":0.2209712975097158,"15":0.6269170929686743,"16":-0.9370037244506151,"17":0.6671712909770596,"18":-0.03693259884523714,"19":-0.07059709294106324,"20":-0.8054538773593245,"21":-0.09333962590468689,"22":0.29981632023484067,"23":-0.04542562460243916,"24":0.2625116797115818,"25":0.824681821992576,"26":-0.7135490447869692,"27":-0.004268830827505812,"28":-0.011353731109883096,"29":-0.381490846400249,"30":-0.5812943422949998,"31":-0.13579224270039758},{"0":0.8887304434661684,"1":0.40190311541144347,"2":-0.16575923537861523,"3":-0.9681413963285594,"4":-0.5989378693391431,"5":0.7887803904783947,"6":0.4450746140810525,"7":0.5792295932090583,"8":-0.5759815517523491,"9":0.583262104695042,"10":0.5741992943763919,"11":0.5365532988227995,"12":-0.2577336358343794,"13":0.33190772872134466,"14":-0.7487352942728769,"15":-0.07980961406865404,"16":-0.96355607130959,"17":0.06990320825908017,"18":0.9725422486973074,"19":0.5461665552979845,"20":0.4860638251975277,"21":0.27879763936890617,"22":0.5888830431542516,"23":-0.045656170729462674,"24":-0.6674527257615104,"25":-0.04010705257116438,"26":0.4137486064087646,"27":0.05564677275162135,"28":-0.46810700713829123,"29":0.9180766920579536,"30":0.7679629196173924,"31":0.7171140650891927},{"0":0.026858435160070287,"1":-0.9562391994238395,"2":-0.09771407230218647,"3":-0.7748367634729565,"4":-0.24906624715441686,"5":0.2856437217552017,"6":0.8286975584493724,"7":0.5044062776685049,"8":-0.1408981512046122,"9":0.3871757958848435,"10":0.45050299321571646,"11":-0.17013250612961925,"12":-0.19967296655445518,"13":0.16017440319209464,"14":0.18991085648337738,"15":0.5659308695926822,"16":-0.6976631635116742,"17":0.2690997360222899,"18":0.6537279808460641,"19":-0.321682562409771,"20":-0.17036378710681857,"21":0.9003470141424609,"22":-0.33388975846715596,"23":-0.8977552012252737,"24":-0.9474010824177131,"25":-0.03263651133008419,"26":0.6461260878898172,"27":0.9592205565744171,"28":0.6948750473987254,"29":0.37092651232754226,"30":0.5952810491812723,"31":0.19905446035799237},{"0":0.6058578276558709,"1":-0.6457254276152118,"2":0.5931240298232358,"3":-0.1738677264594597,"4":-0.6052742459651779,"5":-0.8896683237124481,"6":0.7915427018533205,"7":0.9403529008625131,"8":0.9817555089845984,"9":0.17204274864730917,"10":-0.5327215193337472,"11":-0.02181190923841998,"12":0.2278708347999756,"13":0.2535888065426932,"14":0.39460441233832516,"15":0.6407857648881777,"16":-0.04179512337208791,"17":-0.6985675551039235,"18":-0.7846163254653552,"19":-0.08499511635213051,"20":0.09790910279233045,"21":-0.7121451675514956,"22":-0.25073605469529175,"23":-0.24558317848280592,"24":-0.1665358248791469,"25":-0.4741173773457634,"26":-0.8957288291301588,"27":0.03852225075621126,"28":-0.8567411532119263,"29":-0.7514695732745027,"30":-0.8024248207599473,"31":-0.282107786444731},{"0":0.33414912521009477,"1":0.3324647680985473,"2":0.43713658279474954,"3":0.9954147060182468,"4":-0.5030714357023074,"5":-0.8050005808209888,"6":-0.8813297372602915,"7":-0.20044220837449878,"8":0.876346015645384,"9":0.2895915987134954,"10":-0.04033537216608751,"11":0.22395426354335157,"12":0.9885337585182006,"13":0.32477159396833644,"14":-0.40919038977213207,"15":0.08282909597594434,"16":0.12186582257230061,"17":-0.6542825314570178,"18":0.04312471147740915,"19":-0.3192806254192089,"20":0.31931220971276275,"21":-0.9515793381281532,"22":-0.2505514761427383,"23":0.18644447439165557,"24":-0.0957880657594048,"25":-0.6516302144471338,"26":0.6758061737442689,"27":-0.5927546487971522,"28":0.3926661767868529,"29":-0.864016630665517,"30":0.531491614073258,"31":-0.9218397444301325},{"0":0.2768913334858589,"1":-0.5041578802934219,"2":-0.9394000509960452,"3":0.8270959420193531,"4":0.6141000096880855,"5":-0.7734841744132837,"6":-0.4795175632609965,"7":-0.8162133005419197,"8":0.847056323156782,"9":-0.6462226299229954,"10":0.8179483801001775,"11":-0.5575902486649404,"12":0.2965930606178979,"13":0.7486127042389947,"14":-0.5031410998293531,"15":-0.517478498133022,"16":-0.30393401229638606,"17":0.11748526601150822,"18":0.2587529337608121,"19":-0.24318496996297512,"20":0.9172044290720134,"21":-0.45776466944480365,"22":0.3534429345628194,"23":-0.26256305887987796,"24":0.8969819560079046,"25":0.9380935026829267,"26":0.5425922420711289,"27":-0.06078499057560949,"28":-0.6328640992668038,"29":0.4193520279769274,"30":-0.006044651924687283,"31":-0.8065021463541631},{"0":0.5045321521769224,"1":-0.25904585198627705,"2":0.542683447907593,"3":0.24640703589549728,"4":-0.4358374897466639,"5":-0.9608405057825813,"6":0.46714400406265977,"7":0.6621495280760117,"8":0.11478850406767949,"9":0.4269590199347961,"10":0.03817456677301223,"11":0.4145768949117987,"12":-0.44950354889240485,"13":-0.15786156740350865,"14":-0.24799792656234132,"15":-0.7765524172455067,"16":0.5531567876082257,"17":-0.44641456328202667,"18":-0.9495326221085159,"19":-0.0014287834079298456,"20":-0.8667155721493116,"21":0.5284644788874657,"22":-0.7875118762261555,"23":-0.8538020158865853,"24":0.44089071631352716,"25":-0.595051861322581,"26":0.3587582468235806,"27":0.870971546760027,"28":-0.3779008265668189,"29":0.2522325521075075,"30":0.7187626845326296,"31":0.7057379839130138},{"0":-0.33387224088672607,"1":-0.7123063395072062,"2":-0.024076210816429633,"3":-0.8513535752471761,"4":0.9251967906062117,"5":0.13944302937022357,"6":-0.19202852168311146,"7":-0.8103027502461879,"8":-0.9880486739138705,"9":-0.17657650946925507,"10":-0.06193850847108262,"11":-0.32567852069148406,"12":-0.06919280309041431,"13":0.8085524496061547,"14":-0.9377127665671594,"15":-0.47410592078930414,"16":0.7911807614589663,"17":-0.5184255580479942,"18":0.378546573763868,"19":-0.3538604086316952,"20":0.13481389312575187,"21":-0.8018706192631955,"22":-0.49856071900756005,"23":0.8223935814729928,"24":0.8450880695621228,"25":-0.12421740082823574,"26":0.8962637023467823,"27":0.0010936283614362274,"28":0.08578466659614392,"29":-0.06198896208092686,"30":0.8065629208842653,"31":-0.38450078489710293},{"0":0.8559392678748159,"1":0.9598310457689255,"2":0.5722468114233735,"3":0.5444289603561477,"4":-0.7534623036578221,"5":-0.05971390416201809,"6":0.37979668696853447,"7":-0.3816762696630532,"8":0.42238413393102653,"9":-0.31441909166478726,"10":-0.7716559041730431,"11":-0.5425611204587139,"12":0.6144171213317657,"13":-0.45734069461954574,"14":0.30603915370485835,"15":0.7116570852268789,"16":-0.6991804279305315,"17":0.852240682238519,"18":-0.31895950124167827,"19":-0.38858272758510926,"20":0.862214978131707,"21":0.6227138385012003,"22":0.6618808733294231,"23":0.49977526670942063,"24":0.5522845602409776,"25":-0.46590333330335415,"26":-0.11172885170148127,"27":0.7220270709033807,"28":-0.6643720649554649,"29":-0.0196523543610941,"30":-0.5637861151068999,"31":0.3340384592333518},{"0":-0.6259560130180237,"1":0.6779539304015192,"2":0.2317459156619399,"3":0.5933827066858824,"4":-0.539763928664414,"5":0.9759313088838337,"6":-0.5475114490953578,"7":0.8230600336185879,"8":0.9084421136343179,"9":0.2301162643854028,"10":-0.2390038356225437,"11":-0.15708148199997107,"12":0.6553808728110493,"13":-0.7208788567733586,"14":-0.3405320597232143,"15":0.4715049560655031,"16":0.9182504653227156,"17":-0.5711352100703568,"18":-0.16811056947108896,"19":-0.36565787301807123,"20":-0.04018549123679558,"21":-0.030333342442998693,"22":-0.3935291988469885,"23":-0.7841232473655113,"24":-0.6542810008341261,"25":-0.3333113014571031,"26":0.6651925346481914,"27":-0.4460893098699818,"28":-0.6921122582462086,"29":-0.3449013640532283,"30":0.171387291967855,"31":-0.15527477221341168},{"0":0.4364375427365,"1":-0.6441534889545045,"2":0.41667158148409056,"3":0.6574847410537606,"4":-0.08596998497574906,"5":0.19585541521138783,"6":0.9056541961129246,"7":0.43128670038837963,"8":0.2940404002021462,"9":-0.026796327528425798,"10":-0.6374144510989687,"11":0.5024011313941397,"12":0.808626341526342,"13":-0.023419556566007523,"14":0.13508159365662303,"15":0.8202632264355676,"16":-0.859375802028289,"17":0.3203246438013214,"18":0.5303917400926365,"19":-0.6530003155376318,"20":-0.838144703345718,"21":-0.9767137449868111,"22":-0.9893954470474807,"23":0.9539491489463219,"24":-0.1696828945039597,"25":0.00010205474928488405,"26":-0.8671748251126461,"27":-0.7347749251161808,"28":0.19898685297728963,"29":-0.8864470724404591,"30":0.3544912708893393,"31":0.9116641038251408},{"0":-0.851699168538597,"1":0.8550831645649003,"2":-0.1937673574960552,"3":-0.47702516059585803,"4":-0.11418655941485158,"5":-0.6538493285667677,"6":0.675686755793949,"7":0.38345086536544293,"8":-0.2102879387060806,"9":0.5329000202203954,"10":0.7194526720521232,"11":-0.21788001159884754,"12":-0.5095453748853471,"13":0.43002757939546676,"14":0.5344784730807179,"15":-0.9544084793104103,"16":0.6709380227306827,"17":-0.8117082370164987,"18":0.22029764199650775,"19":-0.1825224573593618,"20":-0.21911551639972396,"21":0.2508668670726253,"22":-0.5560994838574822,"23":-0.975739086141648,"24":0.51011102626783,"25":0.8792277705716955,"26":0.7400463002692733,"27":-0.7879272409627971,"28":0.9838173460438073,"29":-0.9352842205416511,"30":-0.10887061458900055,"31":0.6361160479063195},{"0":-0.35788515478607263,"1":0.8289922282941918,"2":0.7248850029133561,"3":-0.6925801318817685,"4":-0.8285836523393285,"5":-0.6673439757154206,"6":0.23936749497783433,"7":-0.7904521581043447,"8":0.24041259163146972,"9":0.007497742644590371,"10":-0.7707610792515833,"11":0.8099478309310294,"12":-0.47711215176822935,"13":-0.1767698365607687,"14":0.6035357360460484,"15":-0.548461291230534,"16":-0.12948726997747728,"17":0.5939076762820634,"18":0.32509033020105094,"19":-0.13154727321271534,"20":0.5098001892289539,"21":0.7973464386788742,"22":-0.4123770608728188,"23":0.09480639194876998,"24":-0.9551645034040751,"25":-0.4893447106875747,"26":-0.24566113311644652,"27":0.14595936619546632,"28":0.6362658621660384,"29":0.044474341884525245,"30":-0.6300717931465198,"31":-0.6522731591857887},{"0":-0.29066616351994756,"1":0.9850911078075638,"2":0.6325548073111616,"3":0.75941029459055,"4":0.056912207528748905,"5":-0.7594574739170962,"6":0.8623795708315555,"7":-0.2857868806004235,"8":0.15286750344998523,"9":-0.4120738147206314,"10":-0.8894253319611471,"11":0.4530128274018735,"12":0.7916381426459668,"13":-0.43898618523731575,"14":-0.2651235128985832,"15":-0.16558902006961376,"16":0.9628569902646077,"17":-0.9696734724739995,"18":-0.29277643725278657,"19":0.8090107083978471,"20":0.6737533769535775,"21":0.4547550080635368,"22":0.4142056111501586,"23":-0.7192052802393982,"24":-0.8215959076551193,"25":0.4681291045503403,"26":0.8626320015083565,"27":-0.6277897035850815,"28":-0.4746882327895225,"29":-0.008216734606338096,"30":0.07672309710196012,"31":-0.726061445678845},{"0":0.4233860290933216,"1":0.3539753819356141,"2":-0.6999422035161743,"3":0.09996978340199306,"4":-0.681537866153753,"5":0.1877529627780348,"6":0.8091817288968344,"7":-0.6204797135144391,"8":0.37578988290867194,"9":-0.424847050638264,"10":0.09676607533263863,"11":0.23885725100235664,"12":-0.5181695373348414,"13":0.48482522468062106,"14":0.311338566150027,"15":0.9354148216632138,"16":-0.05900569206865542,"17":0.0652334948661095,"18":0.5434756160559796,"19":-0.5947486277595267,"20":-0.5566609048458648,"21":0.3252937975394351,"22":0.7046432878096871,"23":-0.7452370028710429,"24":-0.16511680013220476,"25":-0.8796732548130196,"26":-0.40504895948100966,"27":-0.26357117999293284,"28":0.3467018211330346,"29":-0.26025809241756714,"30":-0.32198839635198123,"31":-0.6955798005397025},{"0":-0.11541872718533733,"1":-0.7564238973403905,"2":-0.1162007053853906,"3":-0.5574102654752056,"4":-0.42060338711148754,"5":0.7341460192974764,"6":0.3234042822989191,"7":0.2453055806843702,"8":-0.6719937756547172,"9":0.22122661430148205,"10":0.9829391451112728,"11":0.5892149527061549,"12":-0.08879175322652848,"13":-0.4767720279092941,"14":0.7463267884192215,"15":-0.3259888575774726,"16":0.9634853886583594,"17":0.931905456385918,"18":0.7987923042114234,"19":0.769091540187163,"20":0.4199005307586313,"21":0.8422655095983296,"22":-0.4807823007721515,"23":-0.7670268905344749,"24":0.4691085192493756,"25":0.0941122959653403,"26":0.966859771278915,"27":0.4559313056922293,"28":-0.18487420232852403,"29":-0.10848458066084371,"30":-0.9535807625519295,"31":0.24902368443451142},{"0":0.5763213831995103,"1":-0.6946730295303815,"2":-0.626356723541419,"3":0.825014455232141,"4":-0.47190618993813493,"5":0.6360457802995446,"6":0.3529150828960325,"7":-0.7201514450785108,"8":-0.006117700858933195,"9":-0.5933023144913322,"10":-0.49098432908865786,"11":0.3966640916232126,"12":0.3642910888684502,"13":-0.8367567177963878,"14":0.7951636671934257,"15":0.1988358117818933,"16":-0.6194675419566413,"17":0.15559258459250563,"18":-0.7428942341651409,"19":0.15436868805535198,"20":0.49308881995168596,"21":-0.21870714481093498,"22":-0.05212738485685071,"23":0.8922871925897382,"24":0.46243310398290605,"25":0.6814658633897834,"26":-0.9460150780132857,"27":-0.7355878870440428,"28":0.3359489326314011,"29":0.030172768671151942,"30":-0.7332025533664948,"31":0.31532401998404797},{"0":0.07217681513910564,"1":-0.08868834341876537,"2":-0.823942390796749,"3":0.3282209956633035,"4":0.813907814565163,"5":-0.9838867051532786,"6":-0.5131896497150699,"7":-0.509766269539305,"8":0.32259074325697706,"9":0.6754952132519118,"10":-0.886506902106148,"11":-0.5907334420839709,"12":-0.3549066874803042,"13":0.5901540221841782,"14":0.8802791041482688,"15":0.6734827253889264,"16":0.0905822678816315,"17":0.973125199452337,"18":-0.4088998033908167,"19":0.3508022790701736,"20":-0.4081907519270662,"21":0.18139254610048938,"22":-0.7475164501006281,"23":0.6653542913570469,"24":-0.5705560907416216,"25":-0.6183067421195863,"26":-0.09860989684295517,"27":0.8673716085414711,"28":-0.7697496094807684,"29":-0.8602396349258677,"30":-0.9328439765307291,"31":0.18094043226437684},{"0":0.6205155081060265,"1":-0.40344381225682086,"2":-0.8075362513338392,"3":0.7949534919010119,"4":0.244675178167122,"5":0.11427126842337469,"6":0.39175497385684604,"7":0.6686727326162818,"8":-0.43131009897306644,"9":-0.7153706170032452,"10":0.6217527856980206,"11":0.8946739408440153,"12":0.36800205947548664,"13":-0.5952642566148707,"14":-0.355521206185332,"15":-0.30234761961221174,"16":-0.2513756184875706,"17":-0.4334907218128746,"18":0.6522304446685642,"19":-0.5885637383766618,"20":-0.6644322143739754,"21":-0.8309607442922824,"22":-0.660900628530843,"23":-0.14679131192855258,"24":0.8318361242701343,"25":0.2694628971478171,"26":-0.41210786928884,"27":-0.21647262171298742,"28":0.40257822999346055,"29":-0.02117366232478548,"30":-0.44496559774118793,"31":-0.596548096636988},{"0":0.8807097089940454,"1":-0.20544715015846202,"2":-0.030141559842564832,"3":-0.8531158465617963,"4":-0.5111666751645351,"5":-0.14334875868315597,"6":-0.6751636563847062,"7":-0.3970143142908247,"8":0.321315111813912,"9":-0.38512636322502,"10":-0.6927870858936204,"11":0.9626091069416384,"12":0.9343087039682852,"13":0.7589621458760955,"14":-0.1313325405917533,"15":0.928006452933909,"16":-0.2918072726627036,"17":-0.13715633856288043,"18":0.10562470785565894,"19":-0.31833183920902497,"20":0.5407894109169546,"21":0.24265313378471248,"22":0.6698007965132461,"23":-0.2097281926175464,"24":0.25374022019338016,"25":0.7911627440133853,"26":0.9404565219169775,"27":-0.8461792515292591,"28":0.2048759201970563,"29":-0.2165303254412221,"30":0.8091704848478891,"31":0.6671827900152559},{"0":-0.16453510486329218,"1":-0.7597533334373716,"2":-0.7774548028971418,"3":-0.1970984307353685,"4":-0.42545067205284964,"5":-0.11769112437657597,"6":0.6490396067145243,"7":0.28127471816188443,"8":0.17823369846362766,"9":0.33587569504791015,"10":-0.05912590061480732,"11":0.19002091886150074,"12":-0.7909106526395355,"13":0.48965055999969676,"14":0.46862481698175845,"15":0.4400601908833032,"16":-0.6288967055542088,"17":-0.006199605894358334,"18":0.6770965166170407,"19":0.12202303242779591,"20":-0.8255022590008972,"21":-0.09164875110820675,"22":-0.3655104686135505,"23":-0.705138450116845,"24":0.27084669837606146,"25":0.719400140633761,"26":-0.8384819605435315,"27":-0.40592910335922916,"28":0.6866968481578276,"29":0.35315207473805693,"30":0.8092693990255986,"31":0.6077417214423836},{"0":0.8949440455134519,"1":-0.1728548191495511,"2":0.06280311191261208,"3":0.7349556541323022,"4":-0.7216530930525806,"5":-0.58650142946597,"6":-0.3694469377502981,"7":0.5590158944233324,"8":-0.7442243100152296,