{"layer_keys":["layer_0","layer_1","layer_2"],"layers":{"layer_0":{"weights":[{"0":-0.5178138010619182,"1":-0.7328920186356012,"2":0.133355642521228,"3":0.32084541952209245,"4":-0.15244777606439894,"5":0.9106347270141408,"6":0.3639659155653365,"7":0.7090632520228611,"8":-0.9990125554333144,"9":-0.48776380314635304,"10":-0.9513392853788987,"11":-0.1813851167768232,"12":-0.6799415830573703,"13":0.154071064914293,"14":-0.6247377703846796,"15":-0.3172243203414528,"16":0.5370623055041958,"17":-0.2367924824758103,"18":-0.8902704712208541,"19":0.12014138490471689,"20":-0.46312201874057823,"21":-0.5576780973334361,"22":-0.6152463690512288,"23":-0.8149168921674242,"24":-0.8146795658496311,"25":0.28200098533903273,"26":-0.05716385689652093,"27":-0.43590184974895113,"28":-0.38654267647333146,"29":-0.3496163660616834,"30":-0.7010602347815189,"31":0.9514471366246989},{"0":0.036258782431760395,"1":-0.39906306422435955,"2":-0.5942616503416636,"3":0.41788525364892637,"4":0.11204267364998177,"5":0.38414038159577224,"6":0.3294607599644297,"7":-0.3858620323140767,"8":-0.3162384748471445,"9":-0.9006013668823489,"10":-0.2795641356662366,"11":0.8898536278019149,"12":-0.9076648596657888,"13":-0.45225292800767525,"14":-0.6462647015791276,"15":0.04241631758648268,"16":0.3586540275824053,"17":-0.4002112408618155,"18":-0.5209255549134473,"19":0.06270574924261396,"20":0.29902960646067633,"21":-0.7290787576430837,"22":-0.6582570827251986,"23":-0.5418827052339221,"24":0.516600090087509,"25":-0.5733643042334764,"26":0.21452008182340387,"27":-0.6943758624238896,"28":0.006028947122182604,"29":0.40619804351127486,"30":0.017053530628182045,"31":-0.31403841999034965},{"0":0.013140952738580403,"1":-0.7771555544091835,"2":0.3605115889140511,"3":0.19710067994978386,"4":0.12920729032476874,"5":-0.9140255426083304,"6":0.479528940201174,"7":-0.6112729239918289,"8":-0.18697264353257292,"9":0.921910926530606,"10":-0.6403547077461731,"11":0.4494470074382795,"12":-0.3619602265366133,"13":0.8691632816807164,"14":0.8147304864932945,"15":0.6958629769347144,"16":-0.3031014423722902,"17":-0.9077290185442668,"18":-0.06410213818945554,"19":0.6627873562465547,"20":0.9261799655540419,"21":-0.9500322004371551,"22":0.37849885281534146,"23":0.2746260363541033,"24":-0.04122056632664384,"25":-0.49892530428449655,"26":0.6628684832348508,"27":0.7854019258654468,"28":-0.2574516689815889,"29":0.3924470038335808,"30":0.4760158824429772,"31":0.32959500411218867},{"0":-0.5414332929780281,"1":0.589196052318441,"2":-0.5487773939047482,"3":0.8970506195677284,"4":-0.1423028345660753,"5":-0.3233397514303351,"6":-0.03021686575061855,"7":-0.10602084471277484,"8":-0.5010780826538426,"9":0.9075323879784412,"10":-0.6204137845177922,"11":-0.974107556116659,"12":0.01008193432225779,"13":0.13243724677104574,"14":-0.9858071651216904,"15":-0.4661708274273164,"16":0.4919486003840441,"17":0.3105216893162832,"18":-0.007187032768498636,"19":0.965505871218006,"20":0.9842907129666685,"21":0.7458262081480318,"22":0.5584556813753347,"23":0.22709405898475055,"24":-0.6437095478729131,"25":0.9820135358941284,"26":0.6094527525513964,"27":-0.41251767379222715,"28":-0.3717630306700541,"29":-0.7060951601954657,"30":-0.7964490801334141,"31":0.7327117643807335},{"0":-0.5807349778551982,"1":0.38589494466332885,"2":-0.3777764333272082,"3":0.6520486303713797,"4":-0.43368891935099585,"5":0.8676658757224875,"6":-0.6156176121423882,"7":0.5401251568632812,"8":0.26868494456581304,"9":-0.6161398083024534,"10":0.9993158399003823,"11":0.051472016017295896,"12":0.31012388952208036,"13":-0.15963404373341916,"14":0.6817271964448404,"15":-0.2698378845583531,"16":0.8919230626121366,"17":0.8107712944928123,"18":-0.584868638954974,"19":0.8867976995193758,"20":-0.1301184483101392,"21":-0.45251921491115166,"22":0.33014190479885475,"23":-0.5119612643840545,"24":-0.6712773459375145,"25":0.4314929575802413,"26":-0.8209751734876312,"27":0.9132564861380112,"28":0.8299675064183498,"29":-0.6971466018799277,"30":0.8049707822161771,"31":0.44023692009568594},{"0":-0.3531891020438029,"1":-0.09811167755008408,"2":0.85503653168959,"3":0.7708243878905319,"4":0.5956086456405683,"5":0.13990400120454002,"6":0.8739277883406161,"7":-0.6227330798980226,"8":-0.35209556304388906,"9":-0.7423379408118307,"10":-0.6731685441315453,"11":0.5098733252759272,"12":0.5599302704033655,"13":0.3878368267802948,"14":0.4132842677538005,"15":-0.34271622420978254,"16":0.9818767544888383,"17":-0.6031947147041166,"18":-0.21264792842346933,"19":0.8891716738459038,"20":-0.3525079080477832,"21":-0.49865267266500934,"22":0.7356100540343599,"23":0.03581653470672932,"24":0.2985101451699824,"25":-0.1067418773362153,"26":-0.9714910596878386,"27":-0.2731881004322384,"28":0.6019874002936281,"29":-0.12410050532133764,"30":-0.2232354853995455,"31":0.5337693358411758},{"0":0.6703711354333033,"1":-0.4718370196146406,"2":-0.6777786267586243,"3":0.21486600573177397,"4":-0.49933758766715153,"5":-0.4442360999872183,"6":0.029027589596214473,"7":-0.19044613473028993,"8":-0.17305699108095582,"9":0.7970504247715682,"10":-0.6874100647922182,"11":0.08076719668993725,"12":0.9612257468430075,"13":-0.7373606712608588,"14":0.4666357043118728,"15":0.8704031661672198,"16":0.2602865970241001,"17":-0.6107530119420166,"18":-0.9855546223386319,"19":0.9741143775866068,"20":-0.43584539081733137,"21":-0.28084338721544966,"22":0.663420457825037,"23":0.7256884409751095,"24":-0.9341053559751462,"25":-0.023063067872670116,"26":0.7351011303654722,"27":-0.6807109880449399,"28":-0.9082092619213528,"29":0.2821357085708679,"30":0.9583862960883862,"31":-0.45517291471421756},{"0":-0.22737648085626083,"1":-0.24820236873313287,"2":0.3467354159141019,"3":0.5060656618193491,"4":0.5667717077409417,"5":-0.311377067985888,"6":-0.16020535505594752,"7":0.20684668601610395,"8":-0.6537924448897817,"9":0.5040892785197522,"10":-0.24407210197783558,"11":0.3492430661886792,"12":0.3578902888754484,"13":-0.5370031721793426,"14":0.08037713132916488,"15":-0.9238448463868343,"16":0.7090045854173113,"17":0.36117371627678035,"18":-0.4225972764174117,"19":0.40295741583393074,"20":-0.895584633096602,"21":-0.07776152585145255,"22":-0.3970319731168926,"23":-0.7007140298784914,"24":-0.6787088923430079,"25":0.5414617456093523,"26":0.7402326210169373,"27":0.5647953384812648,"28":0.6737509077912992,"29":-0.22852218963966572,"30":0.884539086200842,"31":-0.6159950424021164},{"0":0.22408242020231114,"1":-0.14888702863286762,"2":0.6782091562343204,"3":0.20138020225536526,"4":-0.2220157458480175,"5":0.37943334242801796,"6":0.3972327021900547,"7":-0.22348173779928912,"8":0.22886530750041406,"9":0.024216788806155447,"10":-0.3392914177171411,"11":-0.07807014285704611,"12":-0.31307999984563495,"13":-0.4456239068250783,"14":-0.687810752106008,"15":0.5254469518281767,"16":-0.1774069350994658,"17":-0.625131535112344,"18":-0.9055104750567152,"19":-0.09981225843077374,"20":-0.9292745319708879,"21":-0.7161424380736534,"22":0.16673944922273126,"23":0.36726273892232203,"24":0.6826857764576071,"25":-0.836363983094935,"26":0.8596202991291213,"27":-0.2663353671397758,"28":0.6103395096663066,"29":0.8824286155113317,"30":-0.45605558565164045,"31":-0.9568701755989383},{"0":-0.013747608350984713,"1":0.3467687776588342,"2":-0.7745501048098167,"3":-0.7490680018996763,"4":-0.2915418331490555,"5":0.9771862495771215,"6":0.9076026988723461,"7":-0.3894311976636686,"8":-0.7549148017659197,"9":-0.5259470510134641,"10":0.9890649638304321,"11":0.8227822119235001,"12":0.9937001986424772,"13":0.9193104882627681,"14":0.19446457231239983,"15":0.4668502555446391,"16":-0.863601092162845,"17":-0.9240021196147319,"18":0.9627574631301888,"19":-0.5165993799610056,"20":0.33840350271362507,"21":-0.846241744308275,"22":-0.39144484335265795,"23":0.28268532239777616,"24":-0.9059360132442467,"25":0.5692273082299258,"26":-0.5224650915097095,"27":0.09795408890702073,"28":-0.8460284126063993,"29":-0.3379621186537431,"30":-0.5172474546739477,"31":-0.13734770608323554},{"0":-0.7825692096198366,"1":-0.6836213878218732,"2":0.7643358621265441,"3":0.3893739100367568,"4":0.5349392899788409,"5":0.1215771290983727,"6":-0.5536521926406496,"7":-0.3673277561601725,"8":0.8504386904013033,"9":-0.5006255099410205,"10":-0.12098324724938447,"11":0.20564948478931655,"12":0.05024552984842115,"13":0.3836634639518397,"14":0.43444835798045767,"15":-0.8627063739443992,"16":0.45133707259052597,"17":-0.3558387850882204,"18":0.6431288889206319,"19":0.9494197173220186,"20":-1.001109143634695,"21":0.08995128005037312,"22":0.4995185887723958,"23":-0.5445632318505836,"24":-0.22867064878172588,"25":0.04831315283298279,"26":-0.5960985248264201,"27":-0.24194940431607884,"28":0.8217148684690845,"29":0.7031217718049674,"30":0.9792881710027143,"31":-0.8927105192256711},{"0":0.2232758517390571,"1":0.059704379709945764,"2":0.7430844432128706,"3":-0.16598758930469132,"4":0.07009723653018775,"5":0.1266635844028768,"6":0.8423140850571222,"7":0.8436787855000762,"8":0.778800189144286,"9":0.8049298742234131,"10":0.46599986893567974,"11":-0.8690805562706737,"12":0.22679693935986076,"13":0.26822474624553505,"14":-0.9132685998662544,"15":-0.01731287364774746,"16":0.6789711936203731,"17":-0.9683485371710027,"18":0.6882284863449718,"19":-0.030196394074995817,"20":0.4345456458624547,"21":-0.27845035262381207,"22":-0.8638369859558123,"23":-0.262071677966378,"24":-0.9874551616996339,"25":-0.9322525365971105,"26":0.5030246159656129,"27":0.9621083371810596,"28":0.12516466047982977,"29":0.865304460944672,"30":0.16600513745136938,"31":-0.721131225904685},{"0":0.8911755070762025,"1":0.6264322447892808,"2":0.6399439563862732,"3":-0.370889635788014,"4":0.07198948585242142,"5":0.9557267073083608,"6":-0.3971696643073358,"7":-0.793726742429894,"8":0.3766391087159277,"9":-0.20650102227362527,"10":0.018468168706683757,"11":0.168868071259821,"12":-0.07834069050859563,"13":0.11063542796104223,"14":-0.5190302803827761,"15":-0.9127915190371303,"16":-0.8275087341585852,"17":-0.01793749342668117,"18":0.9635981103156998,"19":0.4108127694693605,"20":-0.40340324908901054,"21":-0.5526249680993728,"22":-0.09014980931802748,"23":-0.2047513934547494,"24":0.5761855422060543,"25":0.9735795434537677,"26":-0.5052454227773467,"27":0.3525666529666587,"28":0.2208900189823218,"29":-0.3660589306033033,"30":0.6554381706705381,"31":0.7891258900282152},{"0":-0.15924601332051008,"1":-0.18419224891025016,"2":-0.8314058481555069,"3":-0.6652796022169513,"4":-0.9975681513486717,"5":-0.3419241308493794,"6":0.31855140245436664,"7":0.47702626789025904,"8":0.6450951805870672,"9":-0.8126267210381414,"10":-0.7640637080772591,"11":0.9702256642716851,"12":-0.5553886801163777,"13":0.4077617269922911,"14":-0.3327555199582046,"15":-0.3567759388735165,"16":-0.11855952104778071,"17":0.13409785668663776,"18":-0.18466850673801594,"19":-0.9090423107115283,"20":-0.41744519237407185,"21":-0.979629258021528,"22":-0.33715825819037915,"23":0.08820215529558745,"24":-0.8161052824403778,"25":-0.2941533718053122,"26":0.9474763965807182,"27":0.49939779956353303,"28":-0.039435124029848855,"29":0.9725431711495218,"30":-0.41620790645454014,"31":-0.6166061305719605},{"0":-0.8583281155473453,"1":0.16469081524801127,"2":-0.6949271238917192,"3":0.9279332149702668,"4":-0.4718490263060492,"5":-0.7244220468855818,"6":0.9567599968867316,"7":-0.8649659257169173,"8":0.872237533709108,"9":0.22048626292761117,"10":-0.44287457033666894,"11":-0.7157714809596403,"12":0.8419773651630934,"13":0.6776426433379416,"14":-0.04169143051640687,"15":0.049380950984959815,"16":-0.33872332364769153,"17":0.0031506668217132663,"18":-0.9174242325831677,"19":0.6856772882951285,"20":0.8237377387407229,"21":-0.5737053883222358,"22":0.4286365182830679,"23":0.19020607765775582,"24":0.8864648624960628,"25":0.9025240316153321,"26":-0.4261667374749718,"27":-0.9332898598301267,"28":0.7725676217161818,"29":-0.762605360270512,"30":0.9499910494238456,"31":0.38785384263651984},{"0":0.02150639780777156,"1":0.29408885766869286,"2":-0.8380088458264228,"3":-0.9079076503775432,"4":0.9315027086756896,"5":-0.9942692170870038,"6":0.2674454799318675,"7":0.2236665930078569,"8":0.08629553757685744,"9":0.2947416334928468,"10":0.5192692112515267,"11":-0.2977219862625681,"12":0.4123835378295633,"13":0.009937663284049178,"14":0.475947179462441,"15":-0.11405402083338853,"16":0.23226015683805476,"17":0.08969833325666583,"18":-0.15384309627249546,"19":0.5071177454118541,"20":-0.5595952740784811,"21":-0.6512847553212344,"22":0.5727149365661388,"23":0.47962491254686856,"24":-0.46016933065086824,"25":0.981883772041612,"26":-0.7748503345894294,"27":-0.007238043873652674,"28":0.04399357376881534,"29":-0.6182880408543445,"30":-0.637271780084059,"31":-0.9751612011379112},{"0":0.9282714153770057,"1":0.7169970529271327,"2":0.8175795221694421,"3":-0.4359869857170186,"4":-0.6370926932002304,"5":0.23653464194265764,"6":0.19050399961938155,"7":0.9450708147560851,"8":0.5776418335326436,"9":0.6179569183395889,"10":0.15587332771702614,"11":-0.3043624091672542,"12":-0.011867963183678651,"13":0.5111598203812834,"14":0.39801938474198234,"15":-0.3103465922332195,"16":-0.7907560029128863,"17":0.9474093239254622,"18":-0.07503370606614607,"19":0.9865002297338069,"20":0.995171974620385,"21":-0.1546829289758541,"22":0.9297347905994218,"23":-0.013360059827662472,"24":0.8403456819603177,"25":0.8429917055410715,"26":0.42631138251295597,"27":-0.33738864688691883,"28":-0.7578583087256625,"29":-0.6157647000829329,"30":-0.7882818180787405,"31":-0.9535685156567612},{"0":0.5015494537690008,"1":0.7135641448690863,"2":0.3327790729896754,"3":-0.9078103028076998,"4":-0.6492731921672228,"5":0.6405849541065941,"6":-0.5061674807189386,"7":0.6979251025818832,"8":-0.4524968601864162,"9":-0.8265049984045806,"10":0.9688463309130173,"11":-0.8555321459090632,"12":-0.22539940884856852,"13":0.6415333586723467,"14":0.006986673259024125,"15":-0.09073525603683243,"16":-0.5614352366639934,"17":-0.36126770448091455,"18":0.34350296262759894,"19":-0.37540617482574606,"20":-0.12521619925011632,"21":-0.9776170396507137,"22":0.007156178779598036,"23":0.2162110370661426,"24":0.42533837594294194,"25":-0.4686705155431647,"26":0.4354815856859475,"27":0.6236089973250439,"28":0.30529510543637445,"29":0.7842868085507436,"30":0.4200922251953924,"31":0.5747623452727654},{"0":-0.8403708751246268,"1":-0.7248858967588394,"2":0.8173850693796566,"3":0.9890778454225971,"4":0.9747291491444651,"5":0.20994867581519905,"6":0.7778783034211838,"7":0.5828412245705641,"8":0.41450659390362826,"9":0.3026974999183435,"10":0.6802600340693152,"11":0.11220898312438601,"12":-0.11238971597057186,"13":0.31411218957640236,"14":0.9586150592584917,"15":0.3040877072219956,"16":-0.1706970874603888,"17":-0.510014746572813,"18":0.4065523456287189,"19":-0.7542355150711687,"20":0.8191556388535995,"21":-0.5189908033724382,"22":0.8668942813710345,"23":0.8310397299145075,"24":0.9593257246460579,"25":0.9075083820300659,"26":-0.43249380469770166,"27":-0.8047424579813136,"28":-0.8302320210891061,"29":0.9062016921080235,"30":0.9075908061636213,"31":-0.15651847866621818},{"0":-0.8693972689363126,"1":0.8301943319909397,"2":0.25717731962492385,"3":0.3679821680752572,"4":-0.4853312788013343,"5":0.25708801967321465,"6":0.19433852269482252,"7":0.2879084195880831,"8":0.5956817054723882,"9":-0.5995752299798717,"10":-0.9532686523564745,"11":0.5797606150933383,"12":0.12302263455107536,"13":0.9224980246510481,"14":0.734157927954212,"15":-0.8852686818752066,"16":0.20395917930232713,"17":-0.02920143058482882,"18":0.14572963557630436,"19":0.855120256887252,"20":-0.9564615039144535,"21":-0.4018316159334368,"22":0.3162766128288516,"23":0.43901767591519975,"24":-0.9032043368163454,"25":0.3845526650051344,"26":0.45414615851284457,"27":-0.728275075544655,"28":-0.7124001167385149,"29":-0.49397519179806354,"30":0.44355116668775885,"31":-0.5041776865683972},{"0":-0.41235934946772235,"1":0.7774430780710252,"2":-0.6158108515679066,"3":0.9292936955369047,"4":0.49217806210339293,"5":-0.18977319252354796,"6":0.6968519230882815,"7":-0.6072432502871036,"8":0.28321183305424524,"9":0.033061161500342266,"10":0.8561612585310351,"11":0.5978150231055495,"12":-0.5226898331850497,"13":0.5440843918730559,"14":-0.5606393875118344,"15":-0.5034628983017188,"16":-0.5015112254266938,"17":-0.8192819888638879,"18":0.17380628801333228,"19":0.5637130065011567,"20":0.996188342200175,"21":-0.045613272888536324,"22":0.2711831262465498,"23":0.7800507000569261,"24":0.20179703114853478,"25":-0.04764964457966031,"26":0.8876766849509694,"27":0.5895598511752639,"28":0.0671238507179747,"29":0.5476292385451691,"30":-0.2843121716754109,"31":-0.3858636318879779},{"0":0.26204025138296694,"1":-0.06315955498936425,"2":-0.06417551411050834,"3":0.8921042085574661,"4":-0.10409511449779366,"5":-0.8711231333023566,"6":-0.5796235595363574,"7":-0.3434547800267293,"8":-0.8013764826725087,"9":0.19992635046841148,"10":-0.2823862995866264,"11":-0.3808028494763174,"12":-0.3628822347730445,"13":-0.7679363701685298,"14":0.8413110787627611,"15":-0.6620318163458072,"16":0.7004533055215818,"17":-0.8109793092492118,"18":0.9242291450031789,"19":-0.3687985532800853,"20":-0.042145420730540256,"21":0.460054421860824,"22":0.36305982037901474,"23":-0.8542849592773246,"24":-0.9568092087790923,"25":0.25275260765912966,"26":0.346958981436049,"27":0.29736775678824334,"28":0.8827112870218341,"29":-0.7488492600965433,"30":0.15396730447957932,"31":-0.6898907312242852},{"0":0.749983982638386,"1":-0.3452093199317354,"2":-0.17841595762368578,"3":-0.1992465021944213,"4":0.10950322955904268,"5":0.11133034309895533,"6":0.30983375678509406,"7":0.10594981188778775,"8":0.592221841608255,"9":0.47468226642299727,"10":-0.024126516523653035,"11":-0.5127138385469332,"12":-0.025317171893535047,"13":0.9277002521298323,"14":-0.05942846545360283,"15":0.9464691753164682,"16":0.9075573647956066,"17":0.9760620508087848,"18":0.4726614104140853,"19":-0.4408037439012755,"20":0.9173548356602138,"21":-0.5495891876875996,"22":-0.08199482785817633,"23":-0.7801322744782878,"24":0.4361052109960369,"25":-0.9988815804703638,"26":0.20945746030107074,"27":-0.5342149272931854,"28":-0.46078650422864814,"29":-0.19807217210444397,"30":0.8927759694734952,"31":-0.7054404356120352},{"0":0.7402873114559433,"1":-0.9374946152952338,"2":-0.9760891651524609,"3":-0.07388188155480242,"4":0.7018911405141806,"5":-0.12787218288820973,"6":0.5468679789676631,"7":0.36773483992957545,"8":0.20469206491206754,"9":0.09012892955232045,"10":0.5202650644970973,"11":0.47965663517333296,"12":0.19834270638971876,"13":-0.010532639687013907,"14":0.5506165359194574,"15":-0.28859690391828396,"16":0.7143424327742329,"17":0.5882216284070289,"18":0.9528709447368335,"19":-0.6224878982530506,"20":0.8593888651806941,"21":0.7742665175536952,"22":-0.2452620073073817,"23":-0.09819537551264018,"24":0.5127515199933342,"25":0.958051853296502,"26":0.2164294398105348,"27":0.8058773980801652,"28":0.6000360210258089,"29":0.059429568410224246,"30":-0.8079728300416418,"31":-0.9474259926869749},{"0":0.13311854359154696,"1":-0.6687008345134564,"2":0.9525697851189343,"3":-0.8195231513947174,"4":-0.6161444486704997,"5":-0.0020333886832650805,"6":-0.536121735352812,"7":-0.8687113932567092,"8":0.7689141722134707,"9":0.6764350274488904,"10":-0.8168673184178799,"11":-0.8372004430731677,"12":0.8191687869729933,"13":0.6064584717825046,"14":0.6180438794216188,"15":0.4438068218979887,"16":-0.8015920084728276,"17":0.4393804311622671,"18":0.11302785499381951,"19":-0.20791618231590148,"20":0.6093702678740431,"21":0.5391000338048326,"22":-0.1923943910461503,"23":0.32280779914869306,"24":-0.14019903539234768,"25":-0.3391212040587597,"26":-0.5795583582537756,"27":0.4872860602116327,"28":-0.837633699854373,"29":0.17039686380595764,"30":0.5378561670650499,"31":-0.15930718691353407},{"0":-0.5721045494766139,"1":-0.2102810812240028,"2":0.07729955967850799,"3":0.13640892274587735,"4":-0.4766744725149641,"5":-0.2507508877370057,"6":0.1370140431193101,"7":0.19632872129983125,"8":-0.30468599343689995,"9":-0.9914348710097793,"10":0.04292198773689737,"11":-0.623491357692,"12":0.3455577133736125,"13":0.8240178725226257,"14":-0.39187621270883266,"15":0.8178086988766058,"16":-0.7851443896260344,"17":0.8176105278929562,"18":-0.8231458910584712,"19":-0.5125685330711822,"20":0.13964407993193095,"21":0.7503228929754124,"22":-0.5439268837583646,"23":0.0046366108492392755,"24":0.7374776346351224,"25":-0.5143016866887828,"26":-0.825773010017318,"27":0.5448872873985913,"28":0.1782782721655769,"29":0.4572257789894971,"30":0.6480953680705088,"31":-0.36102003443837827},{"0":0.17894422499492668,"1":-0.573086610215471,"2":0.5342551210217863,"3":0.7938297012412736,"4":0.1744131368376043,"5":-0.8936315790547487,"6":-0.2071526062714848,"7":-0.010144451331637327,"8":-0.5103261122631526,"9":-0.7793625927159149,"10":0.23489564331755375,"11":-0.8619800624211704,"12":-0.9559308196189056,"13":0.9759211325012682,"14":-0.2491081717173329,"15":-0.7526961534161458,"16":-0.28238054702402415,"17":-0.20311638481062566,"18":0.20908275907862173,"19":-0.5381897018538844,"20":0.04165342873270683,"21":0.1510711136449543,"22":0.790645587438104,"23":-0.8769782838843945,"24":-0.4318908134180921,"25":-0.7941669548727277,"26":0.7861968784609683,"27":0.6471560412786741,"28":0.6618451799853342,"29":0.31097665586008594,"30":0.6111041877950698,"31":-0.02189825031028869},{"0":0.3516032975597758,"1":-0.2994991451512705,"2":-0.9347705869504273,"3":-0.29545210686814016,"4":-0.7530166377155134,"5":-0.23963352583785857,"6":-0.6260184486744573,"7":0.5954083229712612,"8":-0.07144961767250946,"9":0.25784805037843395,"10":-0.9675357751686211,"11":0.924152451960504,"12":0.6867945543706675,"13":0.6504039642249766,"14":-0.9985811668195517,"15":-0.09337075857153732,"16":-0.8137108348510718,"17":0.8163055290087504,"18":0.39653785284233756,"19":-0.5811315932073153,"20":-0.16679121742191372,"21":-0.8553396931384598,"22":0.544131217075178,"23":0.22619373707011636,"24":-0.8463939922055781,"25":-0.03548980859386219,"26":0.02786896685320306,"27":-0.26531108568427264,"28":0.47873196085863157,"29":0.8225202653755739,"30":0.7781037609948314,"31":0.6357147354270238},{"0":-0.8583564599382201,"1":-0.09692394113755176,"2":-0.7151450461221973,"3":-0.23835081736507302,"4":-0.7375010507451707,"5":0.4733405080128694,"6":-0.9715472174143169,"7":-0.6338807177431183,"8":0.5803744561891815,"9":0.5689006264020233,"10":-0.023382783308050215,"11":-0.4792547305408488,"12":0.3992375254025231,"13":-0.9159848732068392,"14":0.3301284495784689,"15":0.13992791009468197,"16":-0.7267141106290822,"17":0.5728808588112475,"18":0.7385275858952025,"19":-0.40900555581347975,"20":-0.04189135175463532,"21":-0.15445485968593786,"22":-0.8386516550144139,"23":-0.9765445034812501,"24":0.9591059511457014,"25":0.1913314775979016,"26":-0.16886853346383024,"27":-0.9049510972472743,"28":0.008931137085241403,"29":0.2292783412506294,"30":-0.5276114642204321,"31":0.9193936181296225},{"0":-0.521934519606222,"1":-0.035866569759230416,"2":-0.3462869916493849,"3":0.9209689769422269,"4":0.7850778719427471,"5":-0.3888045850742481,"6":0.04371742891847408,"7":0.6351857436186368,"8":0.2909862863978079,"9":0.4351281558654172,"10":0.541796170018026,"11":-0.7514075215656577,"12":0.029349171824499365,"13":-0.39500097802187106,"14":0.24281747792677733,"15":0.15530139349261507,"16":-0.0031403420241447044,"17":0.18788467762758865,"18":0.954935578333417,"19":0.45263143986875676,"20":0.06265349296748246,"21":-0.8542904525081569,"22":-0.7142613547011369,"23":0.8993274617559397,"24":-0.2506016414768326,"25":-0.6988097331620526,"26":-0.9180871368260406,"27":0.5525002277326556,"28":-0.24346812435348086,"29":0.2531125601816435,"30":0.5466675807643235,"31":-0.675149369954676},{"0":-0.3093770194906873,"1":-0.030939689051110886,"2":-0.1137150925437016,"3":0.07052219332118259,"4":0.571815536612744,"5":-0.0008365513525459001,"6":-0.8326788807779315,"7":0.9705964538257676,"8":0.9490263612806422,"9":-0.8364021613161912,"10":-0.9243662616668327,"11":0.9881791799641988,"12":0.43933279805991177,"13":0.23128172368947553,"14":-0.6776358961159623,"15":0.9536813039302574,"16":0.9238536703114639,"17":-0.20385660815037365,"18":-0.02650071755115091,"19":-0.9724151837128319,"20":-0.8952533132830851,"21":0.10620773161464037,"22":-0.847744804293248,"23":-0.4176960397251297,"24":-0.36014079295565526,"25":0.2803246309618914,"26":0.5414598503037116,"27":-0.6156603474042468,"28":-0.6462502840610505,"29":-0.22134029877381334,"30":0.16349383630517256,"31":0.7186696945987956},{"0":-0.11289376149730179,"1":-0.38315966304380167,"2":0.6203565449683022,"3":-0.23392417690119682,"4":0.31058002510807503,"5":-0.18876513643325632,"6":0.7175317069628795,"7":0.11941533096161727,"8":-0.6535729237129035,"9":-0.5119441473854613,"10":0.37640300580400154,"11":-0.099696638615562,"12":0.3405457516482211,"13":-0.492606974817841,"14":-0.0846222356843005,"15":0.8562314140208298,"16":0.9384802287230252,"17":0.9548959578494061,"18":0.8482985334088076,"19":-0.8305664033431497,"20":0.10797702238516571,"21":-0.5179818516454349,"22":0.10355144471944122,"23":0.05633430906992487,"24":-0.3126176916667349,"25":-0.6987862677503744,"26":0.303539476969807,"27":-0.5648554042896428,"28":-0.677385158707565,"29":0.1246959129917724,"30":0.7822435522599229,"31":0.8052288412838977},{"0":0.3635593389731735,"1":0.23636963559128965,"2":0.28987302428446915,"3":0.6435048366168314,"4":0.22846196077746184,"5":0.12733885569065473,"6":0.9468157182121941,"7":-0.40823480229618436,"8":-0.12717536351065561,"9":0.25850737566575654,"10":-0.3893526787591557,"11":0.5743606451274812,"12":-0.7235437288773046,"13":0.13869869257485634,"14":-0.5168577288648946,"15":0.6093126255249381,"16":-0.3350134741474351,"17":-0.0844719579182227,"18":-0.9471933479215293,"19":-0.8754571713383461,"20":0.003932842706507511,"21":0.7768932394706192,"22":-0.9215289559414708,"23":-0.1809924825242364,"24":0.7624725133897758,"25":0.161115674137287,"26":-0.4621846211926486,"27":0.5717892883999176,"28":-0.4459631936127124,"29":0.6626432789924039,"30":0.18652082038329354,"31":0.912958077931683},{"0":0.3316137282755176,"1":-0.039355720976036235,"2":0.6125221540114256,"3":-0.4544427532025579,"4":-0.42333680168784493,"5":-0.2853714604998907,"6":0.46714679281133753,"7":0.5592365629523464,"8":0.61258833316632,"9":-0.13221063563868318,"10":0.8171122762633103,"11":0.8710464024722375,"12":-0.6017965776226237,"13":-0.2437301303317123,"14":-0.3102617166138373,"15":0.8441161704823879,"16":-0.7129911026048532,"17":0.42489039789461636,"18":0.44097570580138923,"19":-0.8349909530510087,"20":-0.8379023728733213,"21":-0.9366288094458142,"22":-0.5094837821884051,"23":-0.43280899683262275,"24":0.5171157609453432,"25":0.9873572483504929,"26":0.614504802016774,"27":0.4100981994695063,"28":-0.027035230435336288,"29":-0.2903829644170308,"30":-0.3819633933984683,"31":0.3570601274087499},{"0":0.6545481907215183,"1":0.22842363103955954,"2":-0.2451934382210159,"3":0.7142582301087623,"4":-0.45288586806111475,"5":-0.30449682061787664,"6":0.9605169053677707,"7":0.40067578920936775,"8":0.9945132052216428,"9":-0.07781428651871636,"10":0.8747836116189007,"11":-0.2171902677452877,"12":-0.23903634149986752,"13":0.09502995898096644,"14":0.8470065604358332,"15":-0.7434546346010289,"16":-0.41250073205617577,"17":-0.14260601405674755,"18":-0.12993066588287006,"19":0.5723413933410821,"20":-0.4519954023661801,"21":-0.7472871101932319,"22":-0.3747639148699342,"23":0.2724885519111049,"24":-0.7376568732312423,"25":0.9959832392949477,"26":-0.43967161205118366,"27":-0.9601514955387138,"28":-0.5999432936506257,"29":-0.4755927424882542,"30":-0.3818778403062817,"31":0.3287228700463598},{"0":-0.3792432325459881,"1":-0.2747135306582196,"2":-0.6738230455927221,"3":0.7793681536214545,"4":-0.7054191662267182,"5":-0.6693833059127966,"6":0.24225597553025593,"7":0.09181473432504766,"8":-0.2508266846016028,"9":0.19052896252871893,"10":-0.2374320606759045,"11":0.8290701684702938,"12":0.7925642863048117,"13":0.9760111830188126,"14":-0.7156970143470448,"15":-0.7243645043139098,"16":0.6142932903904844,"17":0.03978693023433217,"18":-0.7783268992485433,"19":0.6021927104158884,"20":0.8894484353093922,"21":-0.1091040851769089,"22":-0.04836349562953756,"23":-0.7270552509712385,"24":-0.04312893281935768,"25":0.678887569617106,"26":-0.5705607864994363,"27":-0.7799675554283767,"28":0.8467046675683537,"29":-0.40732652208232784,"30":0.7982049927300939,"31":-0.6611252397987634},{"0":-0.5620344435392932,"1":-0.37355354487173753,"2":-0.6299967846272353,"3":-0.5236592690461225,"4":-0.6671157290019921,"5":-0.4610341512785165,"6":-0.7202064751398289,"7":0.6535298353133648,"8":-0.5848013545408912,"9":0.6698973652020416,"10":0.5389825703461719,"11":0.643036270180001,"12":-0.9751546989597696,"13":-0.9888158803568242,"14":-0.27430557221342433,"15":-0.99057728580844,"16":-0.1434610252463548,"17":0.14056239631285308,"18":0.8075624547620519,"19":-0.9846267590417487,"20":0.7506649668668663,"21":0.6075477243076792,"22":-0.1762875707204411,"23":0.33804869582840974,"24":-0.31630888439247434,"25":-0.07879884931908743,"26":-0.2580554837783051,"27":-0.5733552761931252,"28":-0.08145593864900988,"29":-0.565998042535577,"30":-0.9164574009856522,"31":-0.2497307885898464},{"0":0.15824592350444902,"1":0.38309085724661995,"2":-0.5381303713615931,"3":0.11943912716831707,"4":0.44662624203490775,"5":-0.45843801677614443,"6":0.23430010623605976,"7":-0.11004462609688626,"8":0.1991653617723681,"9":0.09325235042204884,"10":-0.7478146608650452,"11":0.8887981676751486,"12":0.771160600851752,"13":-0.11706694240278236,"14":0.9319541017620876,"15":0.5233923086631873,"16":-0.5458964119661703,"17":-0.7007360712487557,"18":-0.925591802331379,"19":-0.5695344512982776,"20":0.7503904297496652,"21":-0.6534478027051417,"22":-0.22003949580937004,"23":-0.17305919966068797,"24":0.7512493221866786,"25":-0.6613726380483412,"26":0.7749097641577263,"27":0.20542984725185756,"28":-0.6475110311635134,"29":0.7486803879456981,"30":0.27475214007531296,"31":-0.18176134253075402},{"0":0.823045248955107,"1":-0.4471882008243608,"2":-0.4643498762471066,"3":0.7112181828208886,"4":-0.776415688278423,"5":0.1224859276682197,"6":-0.4261812031431445,"7":0.19140122277199362,"8":-0.691969789618398,"9":0.4208327611798083,"10":0.32142944618127356,"11":-0.08686410547329335,"12":-0.8370687475700235,"13":-0.563078091261901,"14":-0.9465756489635546,"15":0.14490998884538545,"16":0.6408883394683978,"17":-0.7365321641186561,"18":-0.37459114180086006,"19":0.8838385279825434,"20":0.6211325665183248,"21":-0.5502300016576078,"22":0.8091827380356574,"23":0.5141943645741404,"24":-0.533539649043601,"25":0.2518501029433794,"26":-0.8698002497548595,"27":0.24600931060615566,"28":0.7292108385104662,"29":0.03269293404914768,"30":-0.47787054722131395,"31":-0.1793026396653885},{"0":-0.5903281524455395,"1":-0.030412610573207,"2":0.03241367139661633,"3":0.5759961922200446,"4":0.5883086167175953,"5":0.0951166516597992,"6":0.7230300625392928,"7":-0.050464567113112875,"8":-0.8426736064471598,"9":0.8303643304568726,"10":-0.7228350617492586,"11":-0.5142117415989821,"12":-0.36345382108212043,"13":0.04939084973650382,"14":-0.566296583453862,"15":-0.37692788739709937,"16":-0.649632007863287,"17":0.04682678131905558,"18":0.8751988884747423,"19":-0.9062350260845262,"20":-0.2975302368500339,"21":0.24279066164723095,"22":-0.2176495593715524,"23":0.10297744383008738,"24":-0.6810912090549749,"25":-0.41236238696324845,"26":0.7035847572120721,"27":-0.15038575415563185,"28":0.20502541756340634,"29":-0.9222652922562761,"30":-0.7056130882650509,"31":0.7018406064993197},{"0":0.7262712025347052,"1":-0.6319674786867233,"2":0.08803443634807505,"3":0.047581859392283175,"4":0.32258165952338735,"5":0.25763499639227366,"6":-0.5517649716740832,"7":-0.7491800203407774,"8":0.6972761852801042,"9":0.902323566746133,"10":0.1731175137627292,"11":-0.057840396785455196,"12":-0.3922167503479822,"13":-0.4752232431854319,"14":-0.9742457817171395,"15":0.05131244261225415,"16":-0.3135150178992183,"17":-0.49886072780869667,"18":0.16248729030405443,"19":-0.8946481138944599,"20":0.7596082437795869,"21":-0.002120761694372036,"22":-0.7017395573432257,"23":-0.8013494368924691,"24":0.4119613263020534,"25":-0.4452425605288983,"26":0.04820762988944769,"27":-0.41213997708633693,"28":-0.7869069407817778,"29":-0.33681659187795343,"30":0.8653460259875122,"31":0.6857236306412363},{"0":-0.8091424877540269,"1":-0.18026680968257203,"2":-0.5417439030606633,"3":-0.470125298988865,"4":0.4703157863882329,"5":-0.9297444338491245,"6":0.35376195166753416,"7":-0.1291103653767027,"8":0.17882969583218625,"9":0.2602124430412067,"10":0.4791597947363273,"11":0.3074374667482064,"12":0.6289746245831181,"13":-0.3679286296519695,"14":0.4239353265211204,"15":-0.1354411954066005,"16":0.22866425262639328,"17":-0.4833273325057754,"18":0.12804604513340456,"19":0.22405769718935734,"20":0.5805647332549255,"21":0.693903538555265,"22":0.7453818187457198,"23":-0.9075567997465986,"24":-0.8112965462491886,"25":-0.7561830413394772,"26":-0.2728734647432247,"27":-0.5202507807904262,"28":0.649803144337109,"29":-0.05653433991122505,"30":0.6049032281547263,"31":-0.5114003300377065},{"0":0.889216180532895,"1":0.8600305575294755,"2":0.049460476948429186,"3":0.47227640701331486,"4":-0.06421561801295435,"5":0.08088850957107946,"6":0.3188596398091229,"7":-0.08005371513782515,"8":-0.1044047003152525,"9":0.7071815275968837,"10":-0.14875242603471658,"11":-0.5668154483450665,"12":0.11747247525486548,"13":0.036182303469560126,"14":-0.8715345315444246,"15":-0.37055119626005506,"16":-0.24382829203233453,"17":0.9837175029066986,"18":-0.17575832813935433,"19":-0.7858807914210405,"20":-0.0286335755775542,"21":-0.8632251127443294,"22":-0.5327853361917265,"23":0.5857719868320612,"24":0.5899661064878984,"25":0.7231231424513644,"26":0.22048129920136922,"27":-0.6296803397522835,"28":-0.37133649418006714,"29":-0.6446785052698789,"30":-0.011020329680646904,"31":-0.08223743781024549},{"0":0.368139711288294,"1":-0.7170576177123174,"2":0.5378461065902048,"3":0.029421838948110728,"4":0.7404544015283642,"5":-0.05865763835653207,"6":-0.5624683211622139,"7":0.5063665454622374,"8":0.8997439022063639,"9":0.02248664139027785,"10":-0.015713813924890636,"11":0.24716102391440078,"12":-0.6840276010731106,"13":-0.36225999655681246,"14":-0.28846842213941293,"15":0.8865014872141591,"16":-0.22207456860626804,"17":0.7473590333963972,"18":0.5198858252528067,"19":0.9587741782721588,"20":-0.568172528389924,"21":0.35735299360866857,"22":-0.5108882109236077,"23":0.8972518031812712,"24":0.7712541607141705,"25":-0.620529755731026,"26":-0.29934395284569,"27":-0.372105948360348,"28":0.1944245828952582,"29":-0.23842003595479253,"30":-0.1981268427733924,"31":0.864176624345143},{"0":-0.14897534656360098,"1":-0.11490218336858897,"2":0.7110857095322223,"3":0.6637592775765747,"4":-0.3908542020982355,"5":-0.6834343245327145,"6":0.976591080629344,"7":-0.32480307495938837,"8":-0.4077463365716345,"9":0.1319971636872328,"10":-0.2747438892929998,"11":-0.12730687104028185,"12":0.10288346693980568,"13":0.7210844629162334,"14":-0.5983805857005497,"15":-0.7102329615656762,"16":0.510544254451119,"17":0.7703220673823431,"18":0.4398791086515518,"19":0.8618740338458405,"20":-0.3768661561066445,"21":0.7087461280919565,"22":-0.9551609917243009,"23":0.03285930662371264,"24":0.9082828473007691,"25":-0.4910582741904865,"26":0.33958032130120497,"27":-0.967795463319388,"28":-0.9789668282939051,"29":-0.46021702798118874,"30":-0.06135298171524049,"31":0.3706555370181551},{"0":-0.4071932763754109,"1":-0.678772019630602,"2":0.286693042429794,"3":0.3266401629688662,"4":-0.42451446798611636,"5":-0.8869667220225605,"6":0.38360141849135676,"7":0.19031075313347223,"8":0.2871543294920431,"9":0.03421633782383893,"10":-0.27101576520725423,"11":0.8501399066277511,"12":0.7611907282292059,"13":-0.32292953591274065,"14":0.02252416792460865,"15":-0.9236641251005526,"16":-0.6225987119481831,"17":-0.22164837069097576,"18":-0.30760501761724557,"19":-0.8871554830664459,"20":0.08305808570129125,"21":0.9682103388405405,"22":0.04544638527616751,"23":-0.8831316374315352,"24":-0.5430031555215469,"25":0.47226942420861695,"26":0.7243290792507637,"27":-0.6996204194460138,"28":-0.9601573945330322,"29":0.13575284373316698,"30":0.2795126957300753,"31":0.10165256228948794},{"0":-0.5447610984219101,"1":0.8316291472099742,"2":0.5041651899496399,"3":0.7981722066754797,"4":0.5572629736074838,"5":-0.34054673881277997,"6":-0.8366127245441577,"7":-0.8761243338963732,"8":-0.10913864117059895,"9":-0.7256603721885081,"10":-0.7250642653622146,"11":0.13299138680249498,"12":0.028810445811461933,"13":0.20427315063308474,"14":-0.7673490023840264,"15":-0.0627120490778676,"16":-0.2653782367392516,"17":0.7576045532069264,"18":0.2371496035204193,"19":0.39702495029685336,"20":-0.4691791067916798,"21":0.2787228723580579,"22":0.2479478026698227,"23":-0.6294235189704301,"24":-0.4803921590788867,"25":0.20775798354751715,"26":-0.5394023027114598,"27":0.1854124072406251,"28":-0.6235076167636271,"29":0.3514455027724092,"30":0.5968973017174292,"31":0.9219053079678162},{"0":0.3001966837201856,"1":-0.2553174130516482,"2":0.7259414543511845,"3":-0.5554423919749673,"4":0.40828619936673166,"5":-0.19562453540068753,"6":-0.49143791014520505,"7":0.819831033612812,"8":-0.9825528995254686,"9":0.026275474397312374,"10":-0.593824326400959,"11":0.1613944761592382,"12":0.005088604320152718,"13":-0.2644911056152796,"14":-0.46872943072584106,"15":0.5062770696947749,"16":-0.9468540903226537,"17":-0.45076289765609007,"18":-0.9676119930113638,"19":0.7492410090278562,"20":0.5381951620434564,"21":-0.6693620698403113,"22":-0.0309317047222817,"23":-0.2871289307847478,"24":0.27524431134135285,"25":0.7412265448295464,"26":0.7821193308863255,"27":-0.7541432650326807,"28":0.9999804755229572,"29":-0.4101003105004119,"30":-0.25448061989860166,"31":-0.13540142432199712},{"0":-0.3836759864182131,"1":-0.1486019851372351,"2":0.4484766977787813,"3":-0.09570273164225318,"4":0.6706476504332533,"5":-0.3903377278513518,"6":-0.9899457445440998,"7":-0.43000268218169024,"8":0.03224129752388771,"9":0.9490156673597552,"10":0.8769914033777648,"11":-0.5549482835361674,"12":-0.16788467559467213,"13":-0.2828907875823452,"14":0.11272185961318248,"15":-0.48849473439991176,"16":0.16431196975783946,"17":-0.5843506145657749,"18":0.4121012878758745,"19":-0.3609099832767608,"20":-0.7321227125514631,"21":0.6618966229625678,"22":0.8398745334187039,"23":0.4210888248568345,"24":0.20373720345059665,"25":-0.8681396850628116,"26":-0.27705244115695216,"27":-0.6562718380367696,"28":0.6641007982824698,"29":0.8204190954458128,"30":0.5156836491216077,"31":0.5265397805748036},{"0":-0.22681106530579156,"1":0.07225573089995203,"2":0.235735747416993,"3":-0.07572717252434547,"4":0.3328903429777243,"5":0.5691972797933212,"6":-0.03326943373779269,"7":0.8267234945556883,"8":-0.047348636311751645,"9":0.220672777845346,"10":-0.6718596539293209,"11":0.05636908373379394,"12":-0.009664103362807437,"13":-0.32289529584049,"14":-0.1779473991688231,"15":-0.920498318385045,"16":0.6092916283091653,"17":-0.6865946138228483,"18":-0.5318268086849406,"19":0.25444235747433375,"20":0.7391696802624039,"21":0.7229247325241731,"22":-0.20942347047450247,"23":0.41364431483442615,"24":0.7668504610410856,"25":-0.7418270210016088,"26":-0.7958204356719988,"27":0.9466872794869593,"28":-0.9598383627774548,"29":0.7536606332845318,"30":0.8587117266922871,"31":-0.6877529058482479},{"0":0.7369812726359681,"1":0.032549908596172926,"2":-0.7376371826835086,"3":-0.4674883771936822,"4":-0.7936399647764889,"5":0.4265173519260961,"6":-0.6613536170074958,"7":0.428476675345555,"8":0.6902163131821838,"9":-0.3057556414085624,"10":0.5091446327671723,"11":-0.9232012397073769,"12":-0.30726300150933455,"13":-0.2080261459760033,"14":-0.9755839272103346,"15":0.0725722181363268,"16":0.05572650754574827,"17":0.1597474339243754,"18":0.636357692900987,"19":-0.39828493587262415,"20":0.36661392903825296,"21":0.7282867073256989,"22":0.24113936306954212,"23":0.24376440143168857,"24":0.022716102983129836,"25":0.8953167506238174,"26":0.6010575842926371,"27":0.7257220697697725,"28":0.2361943310975251,"29":0.9652258067635988,"30":0.051604958407014775,"31":0.4241933271343116},{"0":-0.4438616112128817,"1":-0.7190947955562526,"2":-0.007142041056978687,"3":-0.6574713073546397,"4":0.7874631137010484,"5":0.846537384464177,"6":0.35819545880662096,"7":0.7016445624661118,"8":-0.8845464039434221,"9":-0.049631194511347676,"10":0.36309548570471417,"11":0.6268270089347414,"12":0.22521898389802297,"13":-0.9751707764604163,"14":0.9981037082614019,"15":-0.4268058038348177,"16":-0.4962387169768321,"17":-0.45379059313781633,"18":0.34966508421665266,"19":0.8687219676571583,"20":0.7379251993549989,"21":0.315859698836257,"22":0.5479065629031692,"23":0.9895595469499536,"24":-0.4736334124180419,"25":-0.1668718239899567,"26":-0.07076445310237034,"27":0.5046760708063203,"28":0.15080789211058176,"29":-0.4224226230482766,"30":-0.6009581296820712,"31":-0.5354973659516977},{"0":-0.5540427271435915,"1":-0.15104578689263137,"2":-0.309538351493551,"3":0.12605515579726356,"4":-0.9633560656101738,"5":0.7403448320181956,"6":-0.5500178598656511,"7":-0.4074166598614446,"8":-0.4032201188248363,"9":0.33289353284203127,"10":0.19089782104192254,"11":0.25603403357206167,"12":-0.36688341792970736,"13":0.7968056390001999,"14":-0.1457586645708342,"15":0.3095522366541208,"16":-0.41796696159591384,"17":0.14923727327966985,"18":0.9827485422752509,"19":0.20918654285981164,"20":-0.5885008986802998,"21":-0.6441835128874027,"22":-0.5928880747111496,"23":-0.28138583672678275,"24":-0.07034418629537198,"25":-0.14280503919149146,"26":-0.7181639081486617,"27":0.15551921191055218,"28":-0.056611344932782526,"29":-0.007137160520236829,"30":-0.23053064414421653,"31":-0.019089608548945147},{"0":0.7650752050047354,"1":0.9616666803637197,"2":0.443975361232293,"3":-0.2783457938467042,"4":-0.3970826476322249,"5":-0.08963289301870203,"6":0.4923979106113783,"7":-0.8806794241334384,"8":0.1326737708593111,"9":-0.8386958734071879,"10":0.3574648291096758,"11":-0.35754539503486127,"12":0.8231077404979636,"13":-0.8552018013705105,"14":0.03998911269090977,"15":-0.318199454968326,"16":-0.12107309432887803,"17":-0.3531292779037498,"18":-0.676196087855764,"19":0.829435007254006,"20":-0.08031494274891626,"21":-0.5067072802097408,"22":0.3485264536017869,"23":-0.17395878395731001,"24":0.6047718602294001,"25":-0.7987914708647175,"26":-0.34551679395951584,"27":-0.46899389289661375,"28":-0.4859253596982329,"29":0.5911738366071995,"30":-0.6282544974684261,"31":-0.8504111849651235},{"0":-0.045072119211476025,"1":0.759006629982907,"2":-0.9491933308430278,"3":0.27064067592387797,"4":-0.8293758165532537,"5":0.560217485552907,"6":0.2995282301733142,"7":-0.2983238173639702,"8":0.9086406340661504,"9":0.6202856031996236,"10":0.5237808154231587,"11":-0.459544590430232,"12":-0.11555124160341945,"13":0.6580991448307238,"14":0.9864231006150157,"15":-0.43057813996963024,"16":-0.46448375082995863,"17":0.21385087744571019,"18":0.010888426273961027,"19":0.9980299226181355,"20":0.18725536127931175,"21":0.114546990843448,"22":0.40146605134105684,"23":0.5006139258558684,"24":0.010563837528916764,"25":0.63284315197637,"26":-0.6199802448993226,"27":0.20191633001891462,"28":-0.11173418834009263,"29":-0.6892402622166722,"30":-0.8258935806898422,"31":-0.6568052522991095},{"0":-0.32152165892809537,"1":-0.443798964828487,"2":-0.7801909318249565,"3":0.8317226631584518,"4":0.13744125492122272,"5":0.21158549279530403,"6":-0.616961662170239,"7":-0.6003736022794683,"8":0.23799362437786975,"9":-0.96694954352711,"10":-0.5132251642553172,"11":0.22103348955923785,"12":-0.796832628529013,"13":0.5485087041687904,"14":-0.5480580572703095,"15":0.46633941341790175,"16":0.29386881734907977,"17":-0.8605830520824345,"18":-0.9028547479172317,"19":-0.4434749236858835,"20":0.43955515610294915,"21":0.9524328769995916,"22":-0.4413292350631788,"23":-0.9470370480086343,"24":-0.7503863883082804,"25":-0.039973881248363874,"26":0.7420713267546204,"27":-0.1520662823774317,"28":-0.9644759381428307,"29":-0.07986590474373045,"30":-0.5119156099852171,"31":-0.30488131635145077},{"0":-0.6063218601295093,"1":0.2894223549597248,"2":0.9313066903069451,"3":-0.46571419540271997,"4":0.9466939666141592,"5":0.15034465346295844,"6":-0.9281598598426921,"7":0.5662618451441577,"8":-0.05084139833642354,"9":-0.5678447425970283,"10":-0.9970220790149544,"11":0.4158035535669886,"12":0.3032171908673891,"13":-0.15061581199449803,"14":-0.24275620784299212,"15":-0.17086162561848095,"16":-0.21851457767533278,"17":-0.5043375032569846,"18":0.7574154692873729,"19":-0.03216418216005046,"20":-0.5398426931684965,"21":0.3066859005675622,"22":-0.18426466937908126,"23":-0.25207291488532446,"24":0.7400076179132338,"25":-0.38946251651637676,"26":-0.109419851213576,"27":-0.9422482915800878,"28":-0.17998406437759584,"29":-0.009452565251795608,"30":0.9956598070485652,"31":0.12159468063212886},{"0":-0.4837543489783802,"1":0.811709205046284,"2":-0.9980121499859007,"3":0.16869126464340178,"4":-0.9811416643234696,"5":-0.7679830693644032,"6":0.6580960265390878,"7":0.45456372539602174,"8":0.17074250782590106,"9":-0.9548658931629945,"10":-0.9068141915418466,"11":0.248638765857625,"12":0.2523653995710653,"13":-0.4241684766816398,"14":-0.803508534214195,"15":-0.28578256445627925,"16":-0.7334441241565344,"17":-0.4356805819030569,"18":-0.923757221638974,"19":0.09037990347311764,"20":0.7919581896180796,"21":-0.16150617076891605,"22":-0.4495525877266817,"23":-0.27592982208975103,"24":0.2948982113900831,"25":-0.609859517888045,"26":-0.0464630292187409,"27":-0.8228572930025697,"28":-0.3301467363632291,"29":-0.15177579269264596,"30":0.49147213229957254,"31":-0.8724873641906505},{"0":0.13274629950497419,"1":0.715837341702843,"2":0.3711180434245893,"3":-0.9150167715241961,"4":0.7604642549659819,"5":0.637277657298851,"6":-0.3246478077876933,"7":-0.3853171381122311,"8":-0.3895885134192052,"9":-0.7236530447142235,"10":0.6144029235959905,"11":0.5957584695213645,"12":0.5373570380508821,"13":-0.12320411885205429,"14":0.9469030627751849,"15":-0.8624452123552846,"16":-0.2539907173988274,"17":0.14608809010488955,"18":-0.18962987283732602,"19":-0.30658634213416525,"20":-0.546444410960452,"21":0.9808689646996385,"22":-0.10258610047060834,"23":-0.29866866154011573,"24":-0.24576084728434777,"25":-0.9369174974386301,"26":-0.6685966821873106,"27":0.6274585594979412,"28":-0.6863060424929883,"29":0.7881839541545657,"30":-0.25128136289167635,"31":0.7316621305160758},{"0":0.21757462029979724,"1":0.5538793807927629,"2":-0.14181847787330115,"3":0.38014629071981876,"4":-0.34427915642115403,"5":-0.995822932750722,"6":-0.1511542203347025,"7":0.3785440589788611,"8":0.5424201728190452,"9":0.2510778505577007,"10":0.15985749776633806,"11":0.0734087798629619,"12":0.5810460665269601,"13":0.437072028213529,"14":0.02594804669279327,"15":-0.017262390429196195,"16":-0.5066400154098614,"17":-0.19276591600146098,"18":-0.633024343710602,"19":-0.8185352398417542,"20":0.5453066789185255,"21":-0.4118786810968058,"22":-0.9131869025590822,"23":-0.13699551096237483,"24":-0.6750988243286233,"25":-0.07941193673006319,"26":-0.485310526903064,"27":0.8614830620991523,"28":0.8516193056921235,"29":-0.8758513809850017,"30":-0.5497784956626739,"31":0.5018799216241434},{"0":0.6502525520817051,"1":0.2782179184798423,"2":-0.1206942280881402,"3":-0.27356097867441465,"4":-0.4064464140945358,"5":-0.18608777265061077,"6":0.23412874912624,"7":-0.8898707079089275,"8":-0.26640036257568056,"9":-0.8195147157106633,"10":-0.40981382811154027,"11":-0.39927411491284504,"12":-0.5819444185474172,"13":-0.19727398584866548,"14":-0.3913841727693325,"15":-0.650861732879683,"16":-0.37012237692588007,"17":-0.5768458060885789,"18":-0.5535642303241378,"19":0.01548494970907822,"20":-0.2561276039270849,"21":-0.24118853545232913,"22":0.6233406060671695,"23":0.21226768668053367,"24":-0.9264227472348096,"25":-0.5441563210858187,"26":-0.33397376395894174,"27":-0.8414169592890562,"28":-0.5432438851784736,"29":0.7332571137394732,"30":-0.8530888656206388,"31":-0.7672130754571804},{"0":-0.35524431101468057,"1":0.8723212786841246,"2":-0.7867720961651217,"3":0.31627353708939765,"4":-0.21687892912544404,"5":0.1971503100165748,"6":0.6644568816332983,"7":-0.7299488944628076,"8":-0.4531265027965765,"9":0.4982652297837782,"10":-0.08644972849425914,"11":-0.5228600593013826,"12":0.7682615925281953,"13":0.8549011220803671,"14":0.13588228670260571,"15":0.6232403999296152,"16":-0.2842979382301225,"17":-0.16714525338911335,"18":-0.6054518189983269,"19":0.5353390244986933,"20":-0.46837265599848754,"21":0.22378065826058258,"22":0.019800746930707103,"23":-0.9150254532707782,"24":0.1990215937308979,"25":-0.15842033165495106,"26":0.9141726566105977,"27":0.3237600846179438,"28":0.41832897995674934,"29":-0.8988432734856846,"30":0.7701846025167636,"31":-0.6901050118721055},{"0":0.6315554943681431,"1":-0.6732963540839136,"2":-0.17145939298834953,"3":-0.4373639926733444,"4":-0.645773146957426,"5":0.41578644648033997,"6":0.7148763793296812,"7":-0.6627310179953187,"8":-0.7150045016159293,"9":-0.9080296206373096,"10":-0.817406000313172,"11":-0.5841868943197159,"12":-0.5607959997934373,"13":-0.168228514178948,"14":-0.2110843958715444,"15":0.2933433045387842,"16":-0.05210478646829396,"17":0.14051066833070852,"18":-0.7887144137993624,"19":-0.30287332617986573,"20":-0.8716627241323505,"21":0.0147446659612263,"22":0.18855175189582113,"23":-0.30674271174800627,"24":-0.8223397991200372,"25":0.37095807960585075,"26":0.7435239968077688,"27":0.8247147396729405,"28":0.6657773593386466,"29":0.6720784952946629,"30":-0.8426639092974523,"31":0.9063124958825535},{"0":0.32211530004487027,"1":-0.2719346390635477,"2":-0.8691743165778216,"3":-0.046685530820712855,"4":0.3214269578331956,"5":-0.03904919593774359,"6":-0.113358770958592,"7":0.025400448404977086,"8":-0.9560600803155807,"9":-0.37842478658007345,"10":0.3718058831247827,"11":0.40667629589928306,"12":0.4821580331998184,"13":-0.8103103114596403,"14":-0.4178404486872718,"15":0.9986462840607409,"16":0.4292551510046293,"17":-0.25897150646564576,"18":-0.585746682280874,"19":0.21055571665207723,"20":-0.7554961686156124,"21":-0.5531527751772922,"22":-0.5958507689766473,"23":0.10261848847344701,"24":-0.12795565499616407,"25":-0.3569467574547894,"26":0.1509174945702196,"27":0.8420905942160647,"28":-0.6654732993281642,"29":-0.6885203374846955,"30":0.23396271273604594,"31":0.9783646306487791},{"0":0.9914147027318314,"1":-0.24592619621976508,"2":-0.3445265896138416,"3":0.5622722795519204,"4":0.13401046285379775,"5":-0.004793108808240555,"6":0.4591801493998768,"7":-0.35830406860058606,"8":-0.0860394374994298,"9":-0.9782860427448585,"10":-0.9424825809137717,"11":-0.3484968782523496,"12":0.15315202205760725,"13":-0.7807318504968285,"14":-0.9953435754865265,"15":0.7045825232879689,"16":0.7315776491443394,"17":-0.00496142106453529,"18":-0.2862381426556901,"19":-0.9147556789088811,"20":-0.8616169185002164,"21":-0.9890278178108598,"22":-0.2609599091313483,"23":0.03337655679582787,"24":0.019950216245988778,"25":0.1474756675403352,"26":0.30737759407700144,"27":-0.09508759013014327,"28":-0.8887799086954323,"29":-0.23255497646350842,"30":0.10744053099961015,"31":-0.6135638965710886},{"0":-0.4118964174116376,"1":0.485407852349186,"2":0.6080571659267777,"3":0.026914058624741534,"4":0.29641381144614337,"5":-0.06732794942178824,"6":0.48060581992558615,"7":0.2928911080673655,"8":-0.2986136509368274,"9":-0.9009631054698487,"10":-0.3081650846732676,"11":0.9291403159290941,"12":0.9680321232501713,"13":-0.584612804755674,"14":-0.5297141666190794,"15":0.6008751248140497,"16":-0.8029594762917709,"17":-0.007678631335932707,"18":0.17716362631875895,"19":0.7613834197215198,"20":-0.3907090365705437,"21":-0.26422139703368325,"22":0.14494426206511862,"23":-0.17337275333990673,"24":0.6513847782714621,"25":0.3273474437360649,"26":-0.4855527396915528,"27":-0.1019298276727918,"28":-0.40936836622005746,"29":-0.30697105622698406,"30":-0.2319762137022112,"31":0.303117219363717},{"0":0.031682704253993645,"1":-0.26352020213159794,"2":0.19938804479479424,"3":-0.05704659267177168,"4":0.5372643874927184,"5":0.5299149422157938,"6":0.24822202768002002,"7":0.6741924885585989,"8":-0.7217487711877536,"9":0.7156967550086083,"10":0.7730589956363514,"11":-0.14816141341151554,"12":-0.21909977823397533,"13":-0.133101870158523,"14":-0.5606483448338527,"15":0.9117137427033865,"16":-0.8877773881718289,"17":-0.6634245183008396,"18":0.7809243670834377,"19":-0.8839504589584255,"20":0.24793331425881832,"21":0.16510483645705454,"22":0.9224965741468912,"23":-0.3679425009829835,"24":-0.5799885718580217,"25":0.8846615084772658,"26":0.511514022613879,"27":0.08282309995127698,"28":0.8055476892563875,"29":0.962573691137971,"30":0.9946570455273623,"31":-0.7783790972807233},{"0":-0.9355263960402745,"1":0.19980874315716513,"2":0.7065369191139365,"3":0.8961320279976132,"4":0.08276273521245317,"5":0.1756970807555188,"6":-0.5331058851814935,"7":0.7118509229679457,"8":-0.33142947713850485,"9":0.10593578403402891,"10":-0.6917133372810998,"11":-0.28429281193664707,"12":0.6164337256225405,"13":-0.27983217848400316,"14":-0.2348323723199544,"15":0.7225369527182779,"16":0.6260684462437851,"17":0.22303187405233565,"18":-0.09927914937658841,"19":-0.9618166730264597,"20":0.4550608651743239,"21":-0.8709512883727928,"22":-0.7738744302580203,"23":-0.4697798317844772,"24":0.7820483442049746,"25":-0.16624187456429357,"26":-0.029760886748557026,"27":0.8441005900446251,"28":0.3894891446784901,"29":0.8688511660096767,"30":0.007674433634394167,"31":0.02386053630204832},{"0":0.85773715692187,"1":0.19100665294337343,"2":0.7001879095416992,"3":-0.8251830403076043,"4":0.8716098374712907,"5":-0.5383608160972003,"6":0.10769319054244145,"7":0.17217371326629036,"8":-0.06484049349936369,"9":-0.03376939589509718,"10":-0.32064444441063994,"11":0.5327011252612157,"12":0.8245889984113854,"13":-0.6328512620252404,"14":-0.2656692464446796,"15":0.925065192299801,"16":-0.20269673800411528,"17":-0.07730796265855526,"18":-0.3900077618470124,"19":0.656823694786368,"20":0.09340305260872993,"21":0.9365248509979998,"22":0.24475514626612113,"23":0.4398744258681648,"24":0.39473558811474224,"25":0.7510114705566029,"26":-0.6987279418987304,"27":-0.3488845695975538,"28":-0.16726612094475896,"29":-0.5008843195617773,"30":-0.7441816502160301,"31":0.012622771355718447},{"0":0.9337331387468993,"1":-0.8427359716654844,"2":0.1885273173105902,"3":-0.3262625378560193,"4":-0.5095125155117579,"5":-0.1848739670557937,"6":0.5827218977680754,"7":-0.10789504169411135,"8":0.8951347241034486,"9":-0.8853434797274298,"10":0.4347771092823875,"11":-0.24879768360394655,"12":-0.23597154779719598,"13":0.43580819245598623,"14":0.6604824774304141,"15":0.18887436227141216,"16":-0.4147711553087003,"17":0.15345007488515738,"18":-0.32346230132628623,"19":0.13235294109050047,"20":0.33317033684661584,"21":-0.8749783186624651,"22":-0.17940275172113798,"23":-0.23482795019284725,"24":0.17794478586427168,"25":-0.9278913017975436,"26":0.8146034325435346,"27":-0.562250002856886,"28":0.3546774700667131,"29":-0.2980022885663029,"30":0.4935583082814762,"31":0.4269163965974814},{"0":-0.3668589450533527,"1":-0.15566652576782683,"2":-0.2456847457292018,"3":0.3942719165332635,"4":-0.8889510195682698,"5":0.20859146759761557,"6":0.6370141926498473,"7":-0.8888493575121353,"8":0.3584774072863839,"9":-0.11212552029399091,"10":0.8159444844171294,"11":-0.8406319336489771,"12":-0.5478503531342181,"13":0.86260404122617,"14":0.28601030957367857,"15":-0.16369885366190146,"16":-0.7147889627988323,"17":0.1899893928391494,"18":0.24987417069427137,"19":0.6319437439732309,"20":0.9351126061332213,"21":-0.2529920808057655,"22":0.694559658152945,"23":-0.5678902701861984,"24":-0.6423854006114399,"25":0.08177988606042828,"26":-0.5670143742926709,"27":-0.3669541969933581,"28":0.7950860119877411,"29":-0.5410518381940067,"30":0.8069605532184585,"31":-0.7483928343506262},{"0":0.70004262000957,"1":0.8919139414591511,"2":0.6681271135506492,"3":-0.020217697153485852,"4":-0.2756253126084132,"5":-0.45397770518351177,"6":0.42521958890724754,"7":-0.9114535869947106,"8":-0.0611468619082937,"9":-0.5233609393346111,"10":-0.041600924083418714,"11":0.3747090279106323,"12":0.4899252048968921,"13":-0.44128008927914375,"14":0.26368065105278543,"15":-0.6232514650415346,"16":-0.22983661100011232,"17":-0.7103695090751295,"18":0.9401521688699281,"19":0.0171015150559064,"20":0.6488539331455279,"21":0.7484979742607015,"22":0.34549198420372035,"23":0.6668625505258826,"24":-0.8941106092543853,"25":-0.307353773827586,"26":0.1463839820979636,"27":0.4679288752892377,"28":-0.4078573998870036,"29":0.5951137874184691,"30":0.18294446736271497,"31":-0.8592130371867522},{"0":-0.5016685632055492,"1":0.7423621278391405,"2":-0.32382047808342157,"3":0.4084489277830511,"4":-0.27290560983012824,"5":-0.28261806256360517,"6":0.9143029501821207,"7":-0.07943601075478321,"8":-0.9879870740994955,"9":-0.6775707267672552,"10":0.26896876819173804,"11":0.3684287972378842,"12":0.07324532375949894,"13":-0.08150546287409796,"14":-0.7600120641822321,"15":0.42834462249935373,"16":0.7478136533197837,"17":-0.5662460525021857,"18":0.5220330638012985,"19":-0.8699648504913473,"20":0.0011032158548857174,"21":-0.5043885987774069,"22":-0.8388491452560592,"23":-0.636006652671357,"24":0.4884526604228058,"25":-0.7961616120545572,"26":-0.4370179215391793,"27":-0.5411630704931286,"28":-0.2718778026660857,"29":0.17184780348478787,"30":-0.8057204311838404,"31":0.8085946956058538},{"0":0.1279381704668166,"1":-0.9484561002410719,"2":0.5680980670733617,"3":-0.5500298328501696,"4":0.6359069319849181,"5":0.32427376044948786,"6":0.5028493741340069,"7":-0.9739251967919552,"8":-0.77050288085857,"9":0.7391418326297651,"10":-0.5760486346178567,"11":0.6684411616705492,"12":0.08227688469194147,"13":0.07085379516593752,"14":-0.9236430890433784,"15":0.5017020913968984,"16":0.9444726940328212,"17":0.43821409195784544,"18":0.6729012314814765,"19":-0.4881243839199545,"20":-0.3696853592760723,"21":0.2923788380169009,"22":0.5129351105299981,"23":0.15058041117176535,"24":-0.8042246868997645,"25":0.4789845650095608,"26":0.3466387747700313,"27":0.13010744584726067,"28":-0.7008034775556503,"29":0.10960060635832924,"30":-0.30342013327263606,"31":-0.8268558409907698},{"0":-0.5461241156385076,"1":0.946558184047206,"2":-0.9541917484445119,"3":0.551667289418357,"4":0.2589844166782545,"5":0.3844705177561148,"6":-0.497307805702663,"7":0.4300222105205744,"8":0.17640482078018432,"9":-0.1908953378106456,"10":0.4357930156790272,"11":-0.7485973873017052,"12":-0.0124396213647371,"13":0.6914617217401494,"14":-0.39902615354414434,"15":0.7939712736493436,"16":-0.9618624291991132,"17":0.8264743503667381,"18":0.8351518774185712,"19":-0.8801992243673188,"20":0.38413251099433315,"21":-0.8574961763439212,"22":-0.20971392678525577,"23":0.29466457027721593,"24":-0.7811716305336222,"25":0.10669967192196157,"26":0.13867499688646823,"27":0.8560698528070398,"28":0.5770751255673446,"29":0.7016968084254535,"30":0.44049993406212334,"31":-0.1497653774158951},{"0":0.9665138692017815,"1":-0.6429862917352489,"2":-0.423063685260909,"3":-0.4359892414623036,"4":-0.11860051912066659,"5":-0.03819389531223016,"6":-0.9285596892890589,"7":-0.9682867448438481,"8":0.15318144081126087,"9":-0.2031955369038884,"10":0.6121852910934633,"11":0.02684097266212651,"12":0.5069230159061243,"13":0.9579934809055269,"14":-0.4414629656052423,"15":-0.29060691761076873,"16":0.1586696480806488,"17":-0.2721476734805838,"18":-0.23678067091147081,"19":-0.2522981926853109,"20":0.6561721236076953,"21":0.49889507388095694,"22":-0.10701542440239915,"23":0.4965350129968588,"24":-0.6837273645622721,"25":-0.48100860523317135,"26":0.677916028969008,"27":-0.9774541616353206,"28":-0.5295286413261641,"29":0.7186180614070997,"30":-0.669409673489475,"31":-0.34783046016976604},{"0":-0.4594576616495873,"1":0.8207986831227148,"2":0.7570938450981101,"3":0.4859733831307989,"4":-0.23625696150106543,"5":0.42507341806562104,"6":-0.3088217920060694,"7":-0.04059554374228403,"8":0.4363619754749409,"9":-0.8895812744563774,"10":0.15346156483723306,"11":0.8823956365601783,"12":-0.8435715037705015,"13":0.04679420162364847,"14":0.5460735604656412,"15":-0.6552382593981655,"16":0.6775469099174437,"17":-0.9821394409839924,"18":-0.9200989188996149,"19":0.5388710053876997,"20":0.9198668326898228,"21":-0.9867845844619074,"22":0.13006565400612727,"23":0.057192633210927185,"24":-0.7349573527115447,"25":-0.12232150113150513,"26":0.42517475532447824,"27":-0.3444493600787473,"28":-0.2864580146971646,"29":-0.0316953931096127,"30":-0.3895266875922156,"31":-0.7726316831002705},{"0":-0.9319696596976714,"1":0.6151596563395414,"2":0.015790925810742828,"3":-0.7386175441837114,"4":-0.8451987545734448,"5":0.4487961624021538,"6":0.6221548895912191,"7":-0.9459778259009695,"8":0.7327693960707251,"9":-0.5373369891060398,"10":0.2852004018992768,"11":0.611590416004661,"12":-0.07096599642640447,"13":0.502469811313432,"14":-0.8871001442684154,"15":0.6631556088795649,"16":-0.027012784505865677,"17":-0.9125522864451641,"18":-0.7691014934689422,"19":-0.22002414631505804,"20":0.16973758237036402,"21":-0.6505615187068476,"22":-0.5429575766798057,"23":-0.10655614199052657,"24":0.8414147823230373,"25":-0.3252408714050327,"26":-0.9382534048606238,"27":0.1723094083255401,"28":-0.39202537407074284,"29":-0.46121900480252037,"30":-0.5767212437279801,"31":-0.998526008719489},{"0":0.7957377882353411,"1":0.10107181541863372,"2":0.9180477591961106,"3":-0.07807275174361306,"4":0.7084968127250393,"5":-0.28767444390244884,"6":0.1160746202085511,"7":0.21940107304864342,"8":0.2953153656452492,"9":-0.2051765175003229,"10":-0.4485619354819417,"11":-0.07111243775739454,"12":-0.10132709488889359,"13":-0.6085191631011542,"14":0.6630205282860914,"15":-0.9109564007812992,"16":0.4446432099447505,"17":0.1931656684301365,"18":0.9535854060923481,"19":-0.5570205560928231,"20":-0.7474051189221733,"21":-0.4009176600951604,"22":0.9250813212465234,"23":-0.7013306943435076,"24":0.6522704758137156,"25":0.804529502577265,"26":0.9084565223172338,"27":-0.8108581098306298,"28":0.2564854896871568,"29":-0.7928978628087692,"30":-0.7267323655235092,"31":0.5072988499041996},{"0":0.0178299847664678,"1":-0.05475038815759792,"2":0.19858965638080672,"3":0.2986422252690035,"4":0.2833708777031201,"5":-0.08764041335728834,"6":-0.02905877233239318,"7":0.7819201765598534,"8":0.8162470908454855,"9":0.2980076468453259,"10":0.224354701961901,"11":0.6523751999034215,"12":-0.05047173170664099,"13":0.6444350410881485,"14":-0.5721155133132583,"15":0.8124415904979911,"16":0.09397563081417282,"17":0.28542585619133787,"18":-0.0735150891389944,"19":0.38798222291673223,"20":0.5777638096265294,"21":0.8454648446250119,"22":0.6583583220239579,"23":0.9847783506268013,"24":0.5473823364324155,"25":-0.23591295460870976,"26":0.5086980822973475,"27":-0.03568700352358345,"28":-0.06502513785921238,"29":-0.8905270073995224,"30":-0.7025577130375789,"31":0.4586562091882853},{"0":0.9900144289503956,"1":0.9275075781361766,"2":0.24335040817920506,"3":-0.8269325497324722,"4":0.760797836237991,"5":-0.07089626633972035,"6":0.8427473272400183,"7":-0.4482648710947372,"8":0.11434010033010678,"9":-0.7633276372550828,"10":0.5530055371395859,"11":0.9966667062292234,"12":-0.09717028324000587,"13":0.9363089760502734,"14":0.6490426876280657,"15":-0.8484782654043332,"16":-0.6515934644914818,"17":0.11673824586928738,"18":0.17503886302506189,"19":0.0272285006171602,"20":0.8742625666647257,"21":0.5382568021241791,"22":-0.1930877451859554,"23":-0.808271472198137,"24":0.5649294178503705,"25":-0.07620414441207402,"26":0.8048833249754308,"27":0.20263982637256506,"28":0.2147261849983435,"29":0.9117956070459927,"30":0.09994694870934806,"31":0.8172544398305357},{"0":0.07341287770170135,"1":0.5839988395967657,"2":0.5580881878654562,"3":-0.7810928657046561,"4":0.1322689759693394,"5":-0.9682296430897006,"6":-0.40366724816035626,"7":0.837431344631054,"8":-0.8921073277763845,"9":0.23246919665828036,"10":-0.6989606111060751,"11":0.10220651921097135,"12":0.3487472601663466,"13":-0.20779197959256956,"14":-0.5607020985394287,"15":0.4009091686936026,"16":0.01678658397670585,"17":0.7952208116157489,"18":0.8718322594353847,"19":-0.09394205207250161,"20":0.7351263188514747,"21":-0.9380992259352485,"22":0.30033409551094525,"23":-0.8363576629801894,"24":0.46353341065029596,"25":-0.7680593262510929,"26":0.5831168706314833,"27":0.19768865254489176,"28":0.7061554282451326,"29":-0.44167637419891825,"30":-0.24080300682737077,"31":-0.9707150106334477},{"0":-0.39619341669917896,"1":-0.444139557216217,"2":-0.3315586150834169,"3":0.16810954285585433,"4":-0.8293934260803124,"5":0.619558884875091,"6":0.6383278474060652,"7":-0.16059340021210522,"8":0.3366086648919353,"9":-0.9889715304113436,"10":-0.06674483694886924,"11":0.522555042984667,"12":-0.3377831267855824,"13":-0.9343560652055407,"14":-0.6786547996836099,"15":-0.38468159780308575,"16":0.43328709955253597,"17":0.8065345571805222,"18":-0.5513626549884618,"19":-0.45608315262127563,"20":0.6596519133186809,"21":-0.5793596169399411,"22":0.3011873431598282,"23":0.6254294545674206,"24":-0.8817242443299231,"25":-0.781058129695845,"26":-0.851111173472832,"27":-0.5058476475209321,"28":-0.21754782608384682,"29":0.46489498103083227,"30":0.7624555213788371,"31":-0.2796318473533219},{"0":0.23091319216446404,"1":-0.09014804120690423,"2":0.4566665473864675,"3":-0.4329668222093246,"4":-0.17110190449722085,"5":0.7338316434906829,"6":0.7506461961968918,"7":-0.5890600593896025,"8":0.13915616763993155,"9":-0.25694943006092963,"10":-0.03585369351328316,"11":-0.7882227306874263,"12":-0.7399362910242977,"13":0.131910721481042,"14":-0.274487989523593,"15":-0.1915274455550131,"16":0.6611220680576451,"17":-0.17724779744442332,"18":0.9168077190770139,"19":-0.22202229545452346,"20":0.4565227447389515,"21":0.877064982168422,"22":0.5117527355242286,"23":-0.9917001269737975,"24":-0.9397690824875906,"25":0.5588895689722788,"26":-0.06454402999427655,"27":0.898282113303202,"28":0.19376685986556597,"29":0.9362179319231632,"30":-0.603697212752706,"31":0.4275125151877126},{"0":-0.5623819571887778,"1":0.32856463800037616,"2":-0.3826983300448701,"3":0.6688840841537558,"4":0.8751834431606715,"5":0.8939864262567299,"6":0.788336968515519,"7":-0.5639340567028435,"8":-0.3392640280811028,"9":0.8570886989722606,"10":0.11596851795810625,"11":0.06783149741967787,"12":0.44329470283764527,"13":0.2844184827576104,"14":-0.5853647796576489,"15":-0.3458684060613808,"16":0.33089919103993326,"17":0.23044357134179494,"18":0.28852595742403864,"19":-0.898283432629464,"20":0.8580570856570828,"21":0.5364816528554424,"22":0.5112750307266594,"23":0.9935297918923807,"24":-0.23337188691107924,"25":-0.9675243858827844,"26":0.9958857534872396,"27":0.16346965706147332,"28":-0.11353013395887235,"29":0.33705003442919157,"30":-0.024346196376528795,"31":0.9037282806074298},{"0":0.4721198558156199,"1":-0.5687383479071135,"2":-0.5267468171143386,"3":-0.3573364374357917,"4":0.37059468193480605,"5":-0.5769954221029239,"6":0.6302147599637089,"7":-0.9362239999231909,"8":0.5446830068083157,"9":-0.7678537814374136,"10":0.8281500805693152,"11":0.7250168728460897,"12":0.051834270762157075,"13":-0.16165251924737944,"14":-0.08514509260577308,"15":0.4748250567938772,"16":0.8695874573319169,"17":-0.22239656745980252,"18":-0.18007304872575114,"19":0.27983299704753994,"20":-0.5195190993734289,"21":0.38536338415789473,"22":-0.3782315819783202,"23":0.9602079430402828,"24":-0.6064571075775689,"25":0.6203889920108359,"26":-0.6039674733538876,"27":0.8889901750509552,"28":-0.32447801060062664,"29":0.5319219563815554,"30":0.4103985195042217,"31":0.31124278090648616},{"0":-0.7942175236972493,"1":-0.6965529673405383,"2":0.08978742313311176,"3":-0.6280732563568241,"4":0.7468577596752461,"5":-0.48500350807337356,"6":-0.752327604254115,"7":-0.2753798947503262,"8":-0.9927315182739593,"9":0.6048588186644851,"10":-0.4759733696643113,"11":0.6835793054075783,"12":-0.41052045039589474,"13":-0.34730250080868175,"14":-0.9830695852841114,"15":-0.3961389966354964,"16":-0.5486541886638409,"17":0.5773901433536072,"18":-0.9699176400016501,"19":-0.8881162336664068,"20":-0.2391628204739104,"21":0.5677791822529837,"22":0.10325304807367883,"23":-0.2788421927750896,"24":-0.9079594015178729,"25":0.4502200976578862,"26":0.5705246282895112,"27":0.11794554987636983,"28":-0.5054484708810454,"29":-0.46771303030554373,"30":-0.38161748914002763,"31":0.3190066958176147},{"0":-0.1615279846128532,"1":-0.16519323621351356,"2":-0.22446780613261993,"3":-0.12589635875269375,"4":-0.0033322918721610593,"5":0.5458844399164127,"6":-0.8185274527731914,"7":-0.5619483859410056,"8":0.8775208273092733,"9":-0.774708678773151,"10":0.7797766398030506,"11":-0.7543634460303532,"12":-0.9411961517350583,"13":0.009639104915761611,"14":-0.9181965771211822,"15":0.6370250285714145,"16":0.38559921669951636,"17":0.0649361262913756,"18":-0.39942611388849225,"19":0.5078652020386671,"20":-0.2127758116176558,"21":-0.09413478191070554,"22":-0.23670458673583433,"23":0.0047932434733034355,"24":0.5104863228936746,"25":-0.18416802369185067,"26":0.4191763360373428,"27":0.2508182518130785,"28":0.8276462073667246,"29":0.06379122463212979,"30":-0.4356722302652103,"31":-0.1584300359914186},{"0":-0.43817838628020844,"1":-0.6606200835575927,"2":0.9423838853928141,"3":0.5974525048717064,"4":0.5303118999210772,"5":-0.27065794661392173,"6":0.76417810427784,"7":0.7030685818080195,"8":-0.3670065400489159,"9":-0.4402456409605689,"10":0.737663143825979,"11":0.6200460640944956,"12":0.6878890114345081,"13":-0.16471781649118486,"14":-0.9541616571971363,"15":0.9405932203282884,"16":0.9184973017024972,"17":0.976376971245792,"18":0.47841640811775327,"19":-0.25238217928908707,"20":0.7893831513475762,"21":-0.2894278436449827,"22":0.24551604178256436,"23":-0.678809661866731,"24":-0.7364453241884766,"25":-0.6837571773545745,"26":-0.8824316741412846,"27":0.543682711973637,"28":-0.011550463840902954,"29":0.2017193337028234,"30":0.09107501137986944,"31":0.4348657952087846},{"0":0.6383809771599853,"1":0.11836571951313192,"2":-0.7203368202496729,"3":0.8045719090227457,"4":-0.40881633823789343,"5":0.31148585736568485,"6":-0.2526857416886736,"7":0.8358585333540429,"8":0.5968399794176288,"9":-0.32121894777732435,"10":-0.2897214387666402,"11":0.953063361063634,"12":-0.09210386946325562,"13":-0.5961505624319895,"14":0.4849456735822894,"15":-0.7381838614062372,"16":-0.907736470200698,"17":0.29582463416282795,"18":0.8263871261013999,"19":0.36343027201779754,"20":-0.7740847069869347,"21":0.6968862948470623,"22":-0.26000676610567247,"23":0.2322411558348089,"24":0.676958799618712,"25":0.2567198971980556,"26":-0.3803527769197715,"27":0.6493134825341123,"28":-0.8749269617411098,"29":0.6525326962426381,"30":-0.9294976120127991,"31":-0.3735872702062794},{"0":-0.35781095982101346,"1":-0.5208622765280807,"2":-0.7040061442365816,"3":0.28685819750778313,"4":-0.0060828717764308225,"5":-0.3843314492358332,"6":-0.8152229280036126,"7":-0.7718341996466149,"8":-0.9743362477055257,"9":-0.019702351809651117,"10":0.20477517125175537,"11":-0.3471490913526694,"12":0.41725350104182674,"13":0.4565646300574683,"14":0.9968351621399757,"15":-0.1151737246642008,"16":0.747475271744995,"17":-0.6816568702235368,"18":0.9577600520324479,"19":-0.6454339204697919,"20":0.32312564697617635,"21":-0.010904453876753617,"22":0.1868479185441687,"23":-0.3817661025900705,"24":-0.6861841787519001,"25":0.993723012419689,"26":0.982773013654002,"27":0.09395159267417327,"28":-0.09688708001943153,"29":-0.46974333427147025,"30":-0.6584147118243902,"31":0.6649187368748611},{"0":-0.9251884729585699,"1":-0.979725512207326,"2":0.9444993359585538,"3":-0.9080455633752722,"4":-0.20091762900483662,"5":0.9330289775595882,"6":-0.8991787114854338,"7":0.07835148294670975,"8":0.9631922133886005,"9":0.9541491226516947,"10":-0.6111200569322259,"11":-0.8944479753622903,"12":0.7684273603020623,"13":0.12074614093608992,"14":-0.715927434570375,"15":0.31689440973073507,"16":-0.6021685048671321,"17":-0.3945083614998791,"18":0.29282620237440204,"19":0.6081150621718912,"20":-0.26581954094556254,"21":0.6300148795050816,"22":0.9732294970852835,"23":-0.5586090670163286,"24":0.16027534578255231,"25":-0.48739768483695334,"26":-0.22871981032251473,"27":0.12963678407033374,"28":-0.3499518842176299,"29":-0.5745448661018153,"30":0.3034035203367355,"31":-0.5807615918425078},{"0":0.9605927426029962,"1":-0.5108331713635814,"2":0.23396916906514556,"3":-0.07194787368515186,"4":0.09625356041802062,"5":-0.6681338007450155,"6":0.07808002740621102,"7":0.3268677416397254,"8":0.1619551298327874,"9":0.9815690660115751,"10":-0.28261330790948397,"11":-0.9636982362025495,"12":-0.33243654073764717,"13":0.42107730529348153,"14":-0.4418693101101179,"15":0.91776009653387,"16":0.8626928772550924,"17":0.13802491417182042,"18":0.5202361349128679,"19":0.21505709068167395,"20":0.7319036445297682,"21":0.8744944671075239,"22":-0.6285137754817409,"23":-0.747821500835837,"24":-0.2580744210503602,"25":0.57914175473044,"26":-0.4886364323365715,"27":-0.17474371515845402,"28":-0.523941890268441,"29":-0.5204764638927616,"30":-0.9423448063591668,"31":0.7033395869551545},{"0":-0.29860113720746395,"1":-0.09914550932033632,"2":0.924166043876026,"3":0.8530052120374901,"4":0.02831259188415445,"5":-0.17598707784007,"6":-0.4039548274845388,"7":0.0402535242663971,"8":-0.021502941909060325,"9":-0.37431196282858786,"10":0.48309172649752175,"11":0.9749809412040825,"12":0.6081802991395038,"13":0.4560440919720066,"14":0.39933884878841597,"15":0.06741566272755073,"16":-0.21530783156897818,"17":-0.0018109747941103145,"18":-0.5600373112708217,"19":0.8690447212584937,"20":-0.05076926096784762,"21":0.9067072802710311,"22":-0.9256818718184385,"23":-0.5135525579150936,"24":0.5083306098526316,"25":0.2152961277820376,"26":0.3776883235374653,"27":-0.8677289932162889,"28":0.6587610737702041,"29":0.6699432399695562,"30":0.48392395555189127,"31":-0.16379088400868372},{"0":-0.8339370928278651,"1":0.820458585841538,"2":-0.7632220424869594,"3":0.0824185399239348,"4":0.41227492896310286,"5":-0.4910893646213319,"6":-0.449877416353406,"7":-0.21769416559114188,"8":0.8161021822474546,"9":0.6450004605079998,"10":-0.23821540579112602,"11":0.5984689926574441,"12":0.9172462610873637,"13":-0.42354698494307486,"14":-0.14062892831259396,"15":0.061068629011503964,"16":-0.12130302520668605,"17":-0.20493257258946246,"18":-0.14853887757895282,"19":-0.8365581485477553,"20":0.7055122100940556,"21":0.908903731146225,"22":0.28030322697360516,"23":-0.9963224506481893,"24":-0.0008241330385098761,"25":0.35555440445704267,"26":0.6196332439489145,"27":-0.07076731440734428,"28":-0.8723379759890494,"29":-0.32559245100079576,"30":0.04856861388522758,"31":-0.8393836913748668},{"0":-0.10369361046363584,"1":0.9422478737102283,"2":0.5736788713164551,"3":-0.7534202066030897,"4":0.2006537978509689,"5":-0.17173013732314785,"6":0.019491621008937362,"7":0.23068699415061733,"8":-0.8252738626445263,"9":0.001141228707749909,"10":-0.3725421024527413,"11":-0.5163632839407123,"12":0.9529336087101258,"13":0.10624550454094328,"14":0.9096213913982405,"15":-0.7064965646052336,"16":0.3421020585704218,"17":-0.9090615495902875,"18":-0.8115423746607029,"19":0.19380512502230407,"20":-0.40386404992090014,"21":-0.8851738995656138,"22":-0.6915369950881287,"23":0.7132621924122308,"24":0.6563103320504472,"25":-0.4652976795622283,"26":0.12338835146632049,"27":-0.11214798278304514,"28":-0.06167783554684042,"29":-0.17536132900735568,"30":0.49770214616432584,"31":-0.05125495859068512},{"0":0.9545892946789154,"1":0.1786027427778146,"2":0.5923249216817889,"3":0.4902907127055622,"4":0.6738652193464093,"5":0.13994539120447658,"6":-0.43456640119605994,"7":-0.6395043126851312,"8":-0.3815882120240475,"9":0.17711552311511375,"10":0.35007043748796146,"11":-0.3188463969500346,"12":0.10396754355885195,"13":0.24317289387243335,"14":0.3560683063439965,"15":-0.0250743444523659,"16":0.6691693764179754,"17":0.9528874902959774,"18":-0.18577526682734574,"19":-0.01430684234116363,"20":0.9171751410622415,"21":0.9352360114109066,"22":0.037277162491458155,"23":0.4875415898064508,"24":-0.5740910083090295,"25":0.62303164366347,"26":0.351598900169727,"27":0.9156701748263921,"28":0.8329372889383923,"29":-0.6563012413428955,"30":0.3329636190547643,"31":-0.6091375611276385},{"0":-0.6457076619956007,"1":0.36728080203872576,"2":-0.500857224497605,"3":-0.8909086178975408,"4":0.9922606210534866,"5":-0.7193674462938703,"6":-0.4869086046670444,"7":-0.07745298052788821,"8":-0.05986739716519744,"9":0.43387573691085307,"10":0.21022457015697182,"11":-0.6599276665617793,"12":0.3518655074375523,"13":-0.08457961919567948,"14":-0.7540784658165355,"15":0.9350206258838648,"16":0.5572286936989246,"17":-0.21514127845784659,"18":0.09216123082877631,"19":0.7298231530705083,"20":-0.31437151797176716,"21":-0.48943675633169365,"22":0.3526118232584535,"23":0.061452163864849356,"24":-0.06980731673449797,"25":0.4882279409375333,"26":-0.5961527159909368,"27":0.2057661778644569,"28":-0.06654469346911221,"29":-0.5800754884258102,"30":0.29242260789063174,"31":0.18817167401404644},{"0":-0.45654980222693065,"1":0.35384381823721867,"2":0.14027221340894802,"3":-0.13277207164088903,"4":0.6268660258101383,"5":0.15509435985327172,"6":-0.31812763413207673,"7":-0.7759821588509619,"8":0.2939339384407178,"9":0.8953811913140206,"10":0.7694283086902557,"11":0.31540822390921625,"12":-0.803371126800503,"13":0.012123247757043506,"14":-0.5783317056855857,"15":-0.9451685006687872,"16":0.9690942521897099,"17":-0.4020252848490555,"18":0.2572588811200156,"19":0.2528696694760383,"20":0.800491424062582,"21":-0.329141009753328,"22":0.8704966435213636,"23":-0.1811668010188357,"24":-0.5851934943993616,"25":0.889216425456888,"26":-0.741068655139571,"27":0.14845914840210736,"28":-0.7762362331225913,"29":-0.09979603910981079,"30":0.31504519791169805,"31":0.32805306527626416},{"0":-0.056687432825580655,"1":0.967782908860694,"2":0.7888369998751179,"3":0.6244699530659463,"4":-0.4001361022111221,"5":-0.8447781231187761,"6":0.7445707178726089,"7":0.5326215260381362,"8":0.5277993644959822,"9":-0.11863382025540331,"10":-0.7372377933514686,"11":0.06828413732005705,"12":0.5380408501076246,"13":-0.2904273395383832,"14":0.6710075191348875,"15":0.8998155081701296,"16":0.14108156314372594,"17":-0.6744148226534135,"18":0.8233885570146433,"19":0.32821991608913675,"20":-0.5581436449191808,"21":0.31048121498679654,"22":0.2312312679930496,"23":-0.1787394325150372,"24":-0.973052464167654,"25":0.4301038437957645,"26":-0.872169703961232,"27":-0.682254295980382,"28":-0.6545511574333751,"29":-0.9908024877636231,"30":-0.6198100283436445,"31":0.46861235876295454},{"0":0.3123904100607385,"1":0.7635766640374135,"2":0.7014740044599906,"3":-0.09720991410146801,"4":-0.6020880470313067,"5":0.2423827299221633,"6":-0.2847839262894907,"7":-0.4903108039889761,"8":0.24011769636223654,"9":0.5519919907686367,"10":-0.9389978884933489,"11":-0.06359896004132601,"12":-0.39156248477948896,"13":-0.6184090090732884,"14":-0.2912024114286607,"15":-0.978806303364076,"16":0.4222570358673107,"17":0.9851111196696328,"18":0.0040565370871979995,"19":-0.2787960107647085,"20":0.3818630729591657,"21":0.734793020080222,"22":0.9303314788739522,"23":-0.8472378836631655,"24":0.5918428587336471,"25":-0.17502319375389752,"26":0.511907476482845,"27":0.8175862872963464,"28":-0.9841099221246266,"29":-0.8733805583945914,"30":0.7939143578113506,"31":0.6397309541475787},{"0":-0.5767174445581681,"1":0.22021353969803312,"2":0.25363442252825497,"3":-0.3256982219460455,"4":0.4801563465479308,"5":0.07183698789864551,"6":-0.55075344787745,"7":-0.30317220165152065,"8":-0.9761171964979259,"9":0.8850580839427217,"10":-0.04506947938687787,"11":0.19535969317821658,"12":-0.4536519955904619,"13":-0.9545625793908714,"14":0.7573622823714936,"15":0.444567943522132,"16":-0.05926093316411529,"17":-0.7348890858912228,"18":0.8428854000105288,"19":0.3481517917581571,"20":-0.6163659528496619,"21":0.35759435122651023,"22":-0.9005996122635831,"23":-0.43428270483750525,"24":0.505804009897008,"25":0.6812706014270071,"26":-0.7498487403646844,"27":0.4181487142395054,"28":-0.13780220691104342,"29":0.5413097718320335,"30":-0.40185363910928174,"31":-0.8198893305559255},{"0":-0.5955394191185658,"1":0.9208508786108773,"2":-0.16403136641210309,"3":-0.9388425286979795,"4":0.9369224014528176,"5":-0.9521582509207198,"6":-0.8327352535929264,"7":-0.7130607793034951,"8":0.6296062280422007,"9":-0.9644876781196162,"10":-0.16904867902233012,"11":0.31887999046873394,"12":0.1182447260423661,"13":-0.18375431835632738,"14":-0.324843418775465,"15":-0.19307118367703616,"16":0.32419924621272417,"17":-0.19682644039125685,"18":-0.35930992723811067,"19":-0.13492200098455326,"20":-0.7317100693499196,"21":0.4755422471701552,"22":-0.652684534085622,"23":-0.8665923459443095,"24":-0.5436410407405411,"25":0.5899548888733023,"26":-0.6272187571457039,"27":0.8783866444604022,"28":-0.7094516660248671,"29":0.32012157722107004,"30":0.9673093001616069,"31":0.8046467294793026},{"0":-0.08778677784065586,"1":-0.4338508908108511,"2":-0.15409106252197663,"3":-0.22117812498250056,"4":0.23489065970842946,"5":-0.6299345377642372,"6":0.019439582949381105,"7":-0.14880827949480327,"8":0.7744016481021921,"9":0.4919084070326694,"10":-0.8734444306726211,"11":0.2934211222657706,"12":-0.48995887950665684,"13":-0.4110136385316318,"14":-0.0457746554179471,"15":0.643599237622564,"16":-0.9004023792482709,"17":-0.3721112589427498,"18":-0.6703939080529842,"19":-0.3336449023635735,"20":-0.7389883571061101,"21":-0.038729401752258544,"22":-0.419083652766346,"23":-0.2447742742633343,"24":-0.6167381414021399,"25":-0.17539126762416618,"26":0.4521407749387001,"27":-0.8360467439955394,"28":-0.12691280893041898,"29":0.017672844496486362,"30":0.01366716196621035,"31":-0.5980861866864238},{"0":-0.7240442151032909,"1":-0.8736642037342048,"2":-0.33715841796708873,"3":-0.07260060179661783,"4":-0.397191087302034,"5":0.38837347801142424,"6":-0.28356802057848274,"7":-0.25029595780185065,"8":-0.9894400470417916,"9":-0.5580340617080278,"10":0.6990854254159097,"11":0.7844200990104573,"12":-0.7085577516089848,"13":-0.15314947389677527,"14":-0.25316577331685874,"15":-0.0786500924046542,"16":-0.9208160368014936,"17":0.2593010666961283,"18":-0.02134855912891613,"19":0.17020760768864107,"20":-0.6110460627783812,"21":-0.03691347859637139,"22":0.5400767799337003,"23":0.9721271453677756,"24":0.6284560047622757,"25":0.8890694847910976,"26":-0.08521991584702725,"27":0.4096461868059592,"28":0.24947979210921023,"29":-0.24418623019787114,"30":-0.8038993137894106,"31":-0.21948578191830356},{"0":-0.49509608779750186,"1":-0.22937282848272159,"2":-0.5264898702880216,"3":0.07273786065710162,"4":0.0589121570076543,"5":0.3069002583740351,"6":0.6208779703932005,"7":0.2890908319700613,"8":-0.5417512656368415,"9":-0.65682856977545,"10":-0.2994847211070092,"11":0.3140915152543039,"12":-0.5145014465224353,"13":-0.6586564778207504,"14":-0.5831191553788979,"15":-0.21854223470473016,"16":0.491217930725297,"17":0.004674693723532959,"18":-0.7417964293716098,"19":0.8704433563212195,"20":-0.12440093737025407,"21":-0.8310900194008609,"22":0.25880278284840486,"23":-0.7210832212835343,"24":-0.5417617845907498,"25":-0.4556350408217482,"26":0.32076749937297044,"27":-0.2668451622383916,"28":-0.1594436685628254,"29":-0.2560401187572088,"30":-0.0831302930000578,"31":-0.2699383662041481},{"0":-0.5110442554689831,"1":0.003193472468447174,"2":0.3682384929889643,"3":-0.49252054029091863,"4":-0.262204607282832,"5":-0.7663014332801976,"6":-0.40350066839086496,"7":-0.5296896806876586,"8":-0.4839780129724026,"9":-0.8231479821496591,"10":-0.4190402696086905,"11":-0.05699658290954928,"12":-0.898166528355006,"13":-0.9529565040693654,"14":-0.6111151279634713,"15":0.024131565932716082,"16":-0.5322203839477759,"17":0.7542506935150639,"18":-0.7610506690264452,"19":-0.25700692313004897,"20":0.224135945352832,"21":0.3159185082735792,"22":0.9517852099957395,"23":-0.7108660497557782,"24":0.4718973330269098,"25":-0.16697384371950372,"26":0.8440174977635899,"27":-0.5393344614455173,"28":-0.09911133530146277,"29":0.26805965158952816,"30":-0.26312372561252506,"31":0.7797871253003692},{"0":0.9004659224872701,"1":-0.041523078947967314,"2":0.09535308954681954,"3":0.5499084329926434,"4":0.7112199650118862,"5":-0.42183242148015254,"6":0.6818984014452386,"7":0.9807101666383644,"8":0.31695876425580904,"9":-0.13937276517547934,"10":0.6430684452545052,"11":-0.8245303050919613,"12":0.01110212004908079,"13":0.2307351131820493,"14":-0.4986152876972472,"15":-0.2142045202139704,"16":-0.6498737170102382,"17":0.36938016373805266,"18":-0.5828480132343409,"19":0.044721818657496526,"20":-0.5625631281854324,"21":-0.9075660031420337,"22":-0.09522036457151684,"23":0.334575921527935,"24":0.25087198769580393,"25":-0.34006720459284034,"26":0.9668822091553325,"27":0.4463520572228729,"28":0.4495222292565142,"29":-0.5151396722841038,"30":0.30778652653548344,"31":-0.6552213011560021},{"0":0.377879590214356,"1":-0.05649119718279654,"2":0.5499914909375904,"3":-0.5793024540118791,"4":-0.3077911716325667,"5":0.38126437975634003,"6":0.6910764996418678,"7":0.7791583034833228,"8":-0.6069306089253812,"9":0.5279054315024375,"10":0.8862346770195323,"11":0.30679079785613234,"12":-0.3896120169556093,"13":0.48134780041165376,"14":0.7417157170284411,"15":0.9856429966385079,"16":-0.8733828296840924,"17":-0.3199665260929428,"18":0.26198600932066896,"19":0.8129513018913482,"20":-0.38358703328769067,"21":0.21640538376554339,"22":0.681326594054628,"23":0.6190784873823236,"24":-0.951159884139378,"25":-0.4658894092934127,"26":0.09427116840877613,"27":0.5983665122995149,"28":-0.4132098033460574,"29":0.06668068602142782,"30":-0.6705412173366742,"31":-0.7676097310340146},{"0":-0.051551922880811826,"1":-0.19247804798646925,"2":-0.062039499534873144,"3":-0.6084284710071286,"4":-0.9946506543814424,"5":-0.31674661038952656,"6":0.2969312250261836,"7":0.02325272482600342,"8":-0.5150821614900456,"9":-0.015155784601392738,"10":0.7388483513487942,"11":0.37820706622574723,"12":-0.10891187519102993,"13":-0.8748709058897893,"14":0.788015355053502,"15":-0.7615031518418178,"16":-0.5078030454157885,"17":-0.31774617868879323,"18":-0.9024664336965913,"19":0.8188156014487379,"20":-0.39653491802802504,"21":-0.0671642981182376,"22":0.373303243390299,"23":-0.06699538014831856,"24":0.013426707163028972,"25":-0.6015355672390096,"26":-0.221831940061489,"27":0.25092987560123975,"28":-0.02232030415776109,"29":-0.8972675060018243,"30":-0.17560895618658315,"31":0.5694815975673228},{"0":-0.6161153682529177,"1":-0.6853218336772149,"2":-0.7848212691659349,"3":-0.08034794919301724,"4":-0.4409792034999236,"5":0.7544874722726211,"6":0.5207682603147323,"7":0.20742719687193567,"8":-0.9563478550909226,"9":-0.5898173641396758,"10":-0.9451648685409424,"11":-0.5496199036638685,"12":-0.3415712314685502,"13":-0.5337669045662419,"14":-0.7254337549160099,"15":-0.9168467352366982,"16":-0.8100757134985188,"17":-0.6318225285074663,"18":0.5220162772983241,"19":-0.9827752264500234,"20":0.7757354114952761,"21":-0.7791113879310831,"22":-0.553168827446318,"23":0.2670036622837384,"24":-0.20489454376137184,"25":-0.9418404692749989,"26":-0.2606908715448335,"27":-0.8796955731581071,"28":0.3941366409006539,"29":0.8626228156463385,"30":0.2956008853486285,"31":-0.4401945955041424},{"0":0.2072700196519035,"1":-0.07116516328814226,"2":-0.993174570859817,"3":-0.8892048671073756,"4":-0.05237639720663312,"5":0.2381624962183988,"6":-0.3523729538332545,"7":-0.29366550693464744,"8":-0.028885494214975882,"9":-0.2534526645518125,"10":0.7957894263085219,"11":0.1658552134479434,"12":0.79185738204067,"13":-0.2712838229217436,"14":0.9075599426568024,"15":-0.9314857407835997,"16":0.4631508064013463,"17":-0.30018856178992426,"18":-0.5308196853529012,"19":0.2059340474708522,"20":-0.1738093350327743,"21":0.30184253048413856,"22":0.3193505774334877,"23":-0.18722524652645767,"24":0.4457813444542835,"25":0.07306750897422098,"26":-0.33783950975091415,"27":-0.5170738992346546,"28":0.5874635299082454,"29":-0.5583777889626682,"30":0.05923401204043266,"31":-0.5712696221195617},{"0":0.015285358802359816,"1":0.4891394125268427,"2":0.2889319915098909,"3":-0.7768955166353222,"4":0.7802351374845626,"5":-0.2129252888892652,"6":0.25574377911138946,"7":-0.8405416454928494,"8":-0.5066767819790448,"9":-0.5482120340740946,"10":-0.09203017988558848,"11":-0.4211997911536951,"12":-0.1093930454769998,"13":0.4072426704581513,"14":0.5082800433187811,"15":-0.6595644068564321,"16":-0.053565126172475,"17":-0.35731768519007057,"18":0.918756692664505,"19":0.9672242068514949,"20":0.7500557734966518,"21":0.20927894210936016,"22":-0.056773421864142026,"23":0.48155531270428176,"24":0.7644174441236418,"25":0.6390286811526367,"26":0.2855664683691863,"27":0.8508881569691416,"28":0.4090921843656461,"29":0.2569103169608593,"30":-0.1304243840822248,"31":-0.8695464440425633},{"0":0.13589595127913023,"1":0.6410234755419997,"2":-0.7182835569567745,"3":0.9488704348574895,"4":-0.46682128937204403,"5":-0.25243904908745174,"6":0.5858552022341499,"7":-0.5119770362703431,"8":-0.21126209152902797,"9":0.7143830079080282,"10":-0.786928023444196,"11":-0.1899691451312564,"12":0.44252270861144716,"13":0.5198374069364791,"14":-0.21122214305778675,"15":-0.5882335726338965,"16":-0.6637140556370333,"17":0.14692915737835355,"18":-0.6218980461126162,"19":0.5653747124209403,"20":0.6758654552728798,"21":0.271009382255452,"22":-0.8762465753618205,"23":-0.8388188539300603,"24":0.5060569901862597,"25":-0.6286404170707103,"26":0.19523274125766932,"27":-0.4186501529906157,"28":0.5606832702791333,"29":0.8456927254528344,"30":-0.8383142358730522,"31":0.9776554160566056},{"0":-0.9656259145240315,"1":0.17161410125438284,"2":-0.052261941118895816,"3":0.8272668080369229,"4":-0.49381689594421097,"5":0.8359027298704174,"6":0.23292761982588797,"7":0.46220056332777304,"8":-0.10626803191662143,"9":0.8092904644891372,"10":0.383384443584379,"11":-0.5351834873480269,"12":-0.16159643254144673,"13":-0.3838999974474231,"14":-0.6344252494211438,"15":0.3007747677707454,"16":-0.22769514841699093,"17":-0.9689161223926742,"18":-0.4617387906487092,"19":0.9464808579261926,"20":-0.3034547992082083,"21":0.289853113690589,"22":-0.33871018998940294,"23":-0.23020397651670857,"24":0.7262022916484053,"25":0.7275071217603416,"26":-0.9341449767481568,"27":-0.38700146497733806,"28":-0.4613885388893542,"29":0.5656040418678322,"30":0.4794576256728077,"31":-0.710582639146463},{"0":0.573899111865964,"1":-0.21511900036746986,"2":-0.20037861005302227,"3":0.03363399505531189,"4":-0.08178131694966104,"5":-0.666898130974908,"6":0.9528972503272991,"7":0.4688081668800612,"8":0.1580294898142759,"9":-0.7250177337978216,"10":-0.44242367453534664,"11":0.769522951846847,"12":0.4849157962135143,"13":-0.06866386973005942,"14":0.2591784079856433,"15":0.944080092210228,"16":-0.4389227576070786,"17":-0.8664239643760661,"18":0.7107372176681338,"19":0.599176561414457,"20":0.40259059594166663,"21":0.7880725258867359,"22":0.03341142188768878,"23":-0.9529475701642736,"24":0.9158484681176227,"25":0.18127528793979814,"26":0.22680690569495737,"27":0.7345917454073201,"28":0.1843372087563877,"29":-0.3794480261461513,"30":0.34012509455472295,"31":-0.284040114265785},{"0":0.5135226572203319,"1":0.5515390111441397,"2":-0.16444441549249794,"3":-0.35236663745473146,"4":-0.14348191507234961,"5":-0.7367051057229888,"6":-0.3244081858615876,"7":0.687474033262527,"8":0.36865013711773753,"9":-0.5545374550790351,"10":-0.9546049066484658,"11":-0.046870880082547486,"12":0.7891466815218628,"13":0.8510605365224596,"14":0.12461637351094759,"15":0.09142401380462407,"16":0.690374393465844,"17":0.9154678573086695,"18":-0.6383883261292158,"19":-0.060759982995181115,"20":0.7312587254820956,"21":0.10002987234854055,"22":0.3189753068989618,"23":0.08950902890154208,"24":0.1801332759298939,"25":0.2796383052491997,"26":0.8457681323264624,"27":0.23272519710149392,"28":-0.7310672096843793,"29":-0.36536693303989853,"30":-0.4790180410117823,"31":-0.8942194152591525},{"0":-0.83442649811234,"1":0.19434173435228363,"2":0.5772794413970094,"3":0.8051107448773593,"4":0.9544075765973361,"5":-0.6458951728467358,"6":0.8317246155497031,"7":-0.5581871536311394,"8":0.3274041836522304,"9":0.5351646092392811,"10":0.7088469834469324,"11":0.14312239144363892,"12":0.5501766997786706,"13":-0.23120509393751615,"14":0.4555896093796816,"15":-0.8820125252721721,"16":-0.44045092076458614,"17":0.2149614336410443,"18":-0.5378494213572584,"19":0.38607132595499954,"20":-0.3117318252442665,"21":0.8776639625883205,"22":-0.7439772358850582,"23":-0.7320807892997964,"24":-0.6724214940511789,"25":-0.8569651802365919,"26":0.04967781921623689,"27":-0.3245116203422814,"28":0.8024784838639427,"29":0.5636732542308917,"30":0.1736535609660391,"31":0.5122616688134454},{"0":0.4048961881403178,"1":-0.4746156824314325,"2":0.04370030581187708,"3":-0.7737266326944825,"4":-0.32745923564121804,"5":-0.7925672754351567,"6":-0.298028262862688,"7":0.001868107476311613,"8":-0.35110196631183727,"9":-0.5883450632062701,"10":-0.7608168656508091,"11":0.9775365982676257,"12":-0.8751696621507055,"13":-0.5701678721411565,"14":0.21205856518190366,"15":-0.865307892315938,"16":0.3853511594342796,"17":0.8356538885683962,"18":0.5881379645098042,"19":0.5653703596173979,"20":-0.37903725515749015,"21":0.7864065039054072,"22":0.022969135159216513,"23":-0.5802141271699679,"24":-0.09001281084713166,"25":0.768848936991521,"26":-0.7993775418870881,"27":0.33000189295488347,"28":-0.4265383527971032,"29":0.0949044830900971,"30":0.8029533393632446,"31":-0.2825552750988361},{"0":0.2858118423038959,"1":-0.6999929870475216,"2":-0.35017939159502165,"3":-0.014325743918050844,"4":-0.25451784426631585,"5":-0.71167434453724,"6":-0.10668631510445617,"7":-0.629420965000258,"8":-0.2982361735048417,"9":-0.5401130105165365,"10":0.5395299247143596,"11":0.8057623258891158,"12":-0.1463924555447698,"13":0.9043527084591021,"14":0.25411128747271117,"15":0.02659053651555189,"16":0.14760768100722854,"17":-0.543890754656067,"18":-0.0177062990631477,"19":0.9201879535024081,"20":-0.5961767573815304,"21":0.8264986934909146,"22":0.8292489529955446,"23":-0.6466929303099196,"24":0.896368669812801,"25":0.16864967307330053,"26":0.2710614152767772,"27":0.5752861612292589,"28":-0.3564724917461265,"29":-0.3111372368424168,"30":0.9323383245050412,"31":-0.6112791040199035},{"0":-0.487782211072242,"1":0.8003244311475413,"2":0.49997406837151265,"3":0.18188009023335508,"4":-0.8526717432951085,"5":-0.8410282948250025,"6":-0.733347606611804,"7":0.9957251286580603,"8":-0.5851686510995602,"9":0.028097199979677263,"10":-0.2869597447893994,"11":0.794578801637238,"12":-0.5024378053751721,"13":-0.1455686964836177,"14":0.26012217163566204,"15":0.37834394174319186,"16":0.5024159841957786,"17":-0.5762920536865633,"18":-0.4440216384540818,"19":-0.8152960860096679,"20":0.4327934585881519,"21":0.44725191344437715,"22":-0.22730026438544787,"23":0.4407378371720507,"24":-0.22524533000421315,"25":0.3594254583123913,"26":-0.9098011975178225,"27":0.0162309080671899,"28":-0.7292153698918356,"29":-0.6742800818732148,"30":0.324508114666619,"31":-0.88667837556353},{"0":0.7744174267463764,"1":-0.1300353566274624,"2":0.3454719269029191,"3":0.5193340821929066,"4":0.05072312868908408,"5":-0.32197547878766025,"6":0.07537518435861063,"7":0.9947367959702484,"8":-0.4326639648035684,"9":0.04283550171299514,"10":0.9031902625875406,"11":0.36446565976337825,"12":-0.12401094014370093,"13":-0.9774304607362706,"14":0.30665706391287917,"15":0.41897118020824853,"16":0.37028138245143993,"17":-0.8224599284856596,"18":0.45757646840873234,"19":0.6740326266957275,"20":0.8106433989705041,"21":-0.5250054325299787,"22":0.3253314740868685,"23":-0.6918500725391743,"24":-0.7343926030763139,"25":0.6741646682427557,"26":-0.32986316922442416,"27":0.9221250947708947,"28":0.36346389484114117,"29":0.4999284014520403,"30":0.3963105161725146,"31":-1.020493341940148},{"0":0.08636057245851912,"1":-0.12476172343589126,"2":0.3807798742915096,"3":-0.9334491761376156,"4":-0.35392329073014034,"5":-0.4563089688243809,"6":-0.7435940242210413,"7":0.05181541952413077,"8":-0.4986723074959644,"9":0.7220632831805309,"10":0.514371184418241,"11":0.4175976221118218,"12":0.3243572093323031,"13":0.30579883230205795,"14":0.12396172462909091,"15":-0.07328595043372121,"16":0.539484179835547,"17":-0.29088725219241784,"18":-0.05280077264374157,"19":0.9663832555242172,"20":-0.6071465718326705,"21":0.12305073206630969,"22":-0.9773365335529367,"23":-0.9488525017929199,"24":-0.34188100296033447,"25":0.5948935684156612,"26":0.0038852257435984484,"27":0.25060783829878186,"28":-0.39974667800581687,"29":0.9342329084908373,"30":0.1525898008110912,"31":0.4861012570809154},{"0":-0.8948621783691965,"1":0.2335639701454545,"2":0.6322173252440555,"3":-0.4234744563150741,"4":0.7967631670378464,"5":-0.09598006444069826,"6":-0.6560827641040858,"7":-0.5550638342553998,"8":0.05705257813658839,"9":-0.3443109293386412,"10":0.5980264268170479,"11":-0.6781165464533623,"12":0.6055874345454316,"13":0.21215517256728333,"14":-0.8089551314199487,"15":-0.2668588410664545,"16":0.17631538845920314,"17":-0.012659652492201183,"18":-0.9207622275696572,"19":0.09076008464175184,"20":-0.7741809365284092,"21":0.7402936954202265,"22":0.4645043402037587,"23":-0.852063989987724,"24":0.812437519079068,"25":0.4858204314428699,"26":-0.12658505809686466,"27":0.2253181751562419,"28":0.4258544052065558,"29":-0.24913824975332363,"30":0.25839019476239733,"31":0.6568184964880039},{"0":0.7409551078440466,"1":0.7011639262304966,"2":0.21012453616128973,"3":0.15486137625856872,"4":-0.7486742302033723,"5":-0.270033315280065,"6":-0.7612539299476822,"7":0.0395098202497674,"8":1.0360045848146184,"9":0.5063300870732769,"10":0.9995955205456597,"11":0.5420075126234671,"12":-0.5731967839691093,"13":0.7310465126636885,"14":0.4190014928618207,"15":-0.10999110634173177,"16":-0.7899068123057286,"17":-0.2625637727567994,"18":0.720964776413359,"19":-0.22550890643842442,"20":-0.5714119317551644,"21":-0.09117075568265176,"22":0.07558767268511404,"23":0.007777703711551082,"24":0.1646437536471586,"25":-0.5246969814628479,"26":-0.45749394852132386,"27":0.6279609842629595,"28":-0.35006984668344066,"29":-0.14444402058424874,"30":-0.545466882305075,"31":-0.21335152725238096},{"0":0.8033305613167084,"1":-0.5628077194173501,"2":-0.6178913716919826,"3":0.6126659497579461,"4":-0.11649703929655107,"5":-0.6715999727599196,"6":-0.3494049893324662,"7":0.8249066863284524,"8":0.8250129702133939,"9":0.8068072619175477,"10":-0.483693816686803,"11":0.38211596720975355,"12":-0.8511023772465973,"13":0.3102479854488374,"14":0.22069817635934455,"15":-0.7440764290041221,"16":0.30003976982068764,"17":0.4798537363825812,"18":-0.14176578743903312,"19":0.40777057610288614,"20":-0.7473616072846511,"21":-0.4149285678792952,"22":0.030526561906801333,"23":-0.24388666973383147,"24":0.2294345297134216,"25":-0.3609587615550348,"26":-0.46947068979401557,"27":-0.2933794652514632,"28":-0.8330722903716008,"29":0.08986797375764008,"30":0.8117429317054826,"31":-0.10815387581093724},{"0":0.17175464550489272,"1":0.5663342312143376,"2":0.11203343570399671,"3":-0.6578240157154971,"4":-0.41472261505590174,"5":-0.04056938888213591,"6":0.18933811265271056,"7":0.9180676403737538,"8":-0.14534052530269673,"9":-0.7931790629960215,"10":0.4397259159264037,"11":-0.6675409334707513,"12":-0.12287924369627752,"13":0.0426455217420006,"14":-0.92653483543207,"15":0.2544600567796877,"16":0.6942937093500766,"17":0.9576497806070292,"18":-0.1107088371604277,"19":0.9069963660634548,"20":0.6293844949782259,"21":0.770395833675982,"22":0.09094647520600815,"23":-0.7522280250033964,"24":-0.7951059421794144,"25":-0.4620563554869353,"26":0.09683021289938624,"27":0.13947695194741022,"28":-0.5130339898980475,"29":0.7817017152329593,"30":-0.954716797461673,"31":-0.28661174287076563},{"0":0.42153050788576485,"1":-0.8475138983343548,"2":-0.5436956572451838,"3":-0.525914472595147,"4":-0.7906028647881884,"5":-0.689380817068802,"6":-0.15397591351754986,"7":-0.8182837079234828,